{
  "biases": [
    [
      -0.01121353870604599, -0.9394622978943646, 0.15420697838696934,
      0.24266560081238533, 0.6457620748482855, -0.7233384876468941,
      0.6751629229145172, -0.49149773628047166, 0.805529137722344,
      -0.43568797719872593, -0.263254069011139, 0.570654774671841,
      -0.999335657700796, 0.09752591552822568, -0.8707692746655136,
      0.8270913476873305, 0.7050556558389549, 0.34356577894486273,
      -0.8901293301698024, 0.04169776428277624, -0.218005895388903,
      0.3394448072272981, -0.7634084268473338, 0.02665138518393689,
      0.38584192434205944, -0.4258879679043836, -0.5810915231853977,
      -0.13524000374353362, 0.26647589264245547, -0.33418287071898994,
      -0.2754604680217951, -0.3816667443059281, -0.9918376925626312,
      0.18139542829938285, -0.38341952052198425, -0.9394990335020911,
      -0.9184292769649384, 0.0026928820594035664, -0.9126566204006793,
      0.28617852157612655, -0.9338331640283509, 0.8827894551833915,
      0.11465778111393146, -0.7057501632723434, -0.0571441995530456,
      0.8572980304445589, 0.755657358304012, -0.845954809305394,
      -0.6670337541635949, -0.3013276958927276, 0.10469194721961614,
      0.3981616798452114, -0.7093410399165258, 0.6215751220503267,
      0.16131333725141492, 0.649306823241177, 0.8243525688750746,
      -0.8723751574367623, 0.8569101296558695, 0.07162270947826138,
      0.8578578174839179, -0.18945849112865992, 0.2421578771654396,
      0.13983226194254395, 0.8398667790776511, -0.8816405778333638,
      0.5624640396929839, -0.1806695510104652, -0.5190842242149681,
      -0.9311433790024286, 0.7456313945337483, -0.2976661655169675,
      0.2562596259403991, -0.17633141713014364, -0.024429481748846432,
      -0.10092024520566308, -0.7752519094105931, 0.9418215528221765,
      -0.9162066347842261, 0.5285104623233373, -0.18148169218186735,
      -0.7354937139493354, -0.46823911711182004, -0.4312792911531344,
      0.5612563490669232, 0.3263269727268963, -0.6722757816840764,
      -0.6132312445698158, -0.9799208527519816, -0.03258139912049202,
      -0.7639044586139565, 0.9538418481517515, 0.14577960499970913,
      0.0158064083021306, 0.4283508578580158, 0.2557706841408694,
      -0.3594481258519662, 0.974977825919953, -0.5454179467175037,
      -0.17567205325635796, -0.7050937149890203, -0.06367008181626535,
      0.6735758652835356, -0.7358898456093557, -0.04697448810799857,
      -0.5976503574163539, -0.8580322479124803, 0.4670121266102983,
      -0.3539476414580536, -0.7377924425392116, 0.4245835462067198,
      0.8825603362515313, -0.9561847480266418, -0.671663281502916,
      -0.7468383276857796, 0.5934215704191059, -0.721341727454634,
      -0.3256382360556643, 0.5785641279681755, -0.48651894552089975,
      0.790856367689158, 0.17579648826924515, -0.20077024963826154,
      0.5135793857900057, 0.8327244465851791, 0.7918122908527409,
      0.5565316139221866, -0.7594076409960278
    ],
    [
      -0.3790066614174286, 0.6336562714621128, 0.9764846079535372,
      0.9371662357567266, -0.42730296078028107, -0.2422058132278571,
      0.4471466363160752, -0.0690448485072397, -0.5980441777864984,
      -0.36887191846597583, 0.18287094604126006, 0.5145228608966731,
      0.6292436019477682, -0.841461167253257, -0.40885508639088186,
      0.8383262873289967, 0.7741025600962735, -0.17925765803077032,
      0.7046368901136798, -0.48668306817925117, -0.8809391264929776,
      -0.11902865069334218, 0.38315077817501964, 0.45469839530773903,
      0.27766783194549055, 0.3980034205981221, 0.925049078504652,
      0.4625281873451477, -0.9420895341518719, 0.7598080748307016,
      0.796879651799113, -0.49394583233062256, 0.9824864987626554,
      0.8938984846628879, -0.32432475141686046, -0.412136005390197,
      -0.31438507374022057, 0.05978004835192935, -0.8222303358900469,
      0.04570021097740748, -0.8345616862432704, 0.035424718983107444,
      -0.5534410968019026, 0.022572124567471222, -0.4354325428002057,
      -0.5157542710397683, 0.5959553024039728, 0.7085691765629624,
      -0.7697818158841331, 0.8611438475426093, -0.14343059384396406,
      -0.9584600046167709, -0.0866126930475829, -0.3424144952646319,
      -0.5777960096137581, 0.7406140282498324, -0.7490291473137223,
      -0.4781329430090787, -0.34043103447864176, 0.174617393161741,
      -0.1674646250900986, 0.9850646668620772, -0.12602013934257172,
      -0.3574868453074749
    ],
    [
      0.03210552376485994, 0.7102974574540392, -0.01728237272791502,
      -0.19671912994932686, -0.6015612504418335, -0.2108285252152849,
      0.9021328856376806, 5.416836748761215, 0.4529741467278274,
      -0.11885124597586623, 0.9500928518510866, -0.5307753168671671,
      0.8606670988000679, -0.18030509345353166, -0.7963353456809584,
      5.272491247574779, -0.06499043971516477, -0.21381261052085312,
      4.492462696061368, -0.19254131004373834, -0.21201773588881834,
      0.5162430722956101, -0.1749366750264846, -0.8631931785978925,
      -0.8780503750519152, 0.7425366098195397, 0.01346332880087015,
      0.8939030393140232, 0.4111755787177841, -1.6876116954119535,
      3.848206833116192, 0.739548616518981
    ],
    [-0.750261593906862]
  ],
  "weights": [
    [
      [
        -0.9725884248080573, 1.5081552198103776, -1.8425209552897217,
        0.281343954399994, -0.2745070281683595, -0.6807892474123685,
        -0.8624277607065248, -0.1356273633323915, -0.9080027921219158,
        -2.1491466718955, 0.0635483324560593, -0.6683345173478582,
        0.06602894547807173, -1.4401972092639987, 0.6771082562276428,
        0.15517766931889096, 0.9685136311433886, -0.6464156721003427,
        -0.4051377386001373, -0.4736885039490804, -0.33266934081269106,
        -0.0163334824072343, -0.9514658271420657, 0.24716487445307878,
        -0.7785314756033012, 0.4751323729127479, 1.0694280725090841,
        0.6643845841833219, -1.2600846872524119, -0.8400056286901262,
        -0.8543436306707277, -0.3668482818961337, 0.8871470685810527,
        1.6750757223210913, -1.874026591049274, -0.16102398106687624,
        -0.3829642770427138, -0.20346271580959696, -0.6048133743949297,
        -0.6415562987706238, 0.2137828778153105, -0.9574094208046108,
        -1.0150598934236643, -1.4165127707646947, -0.4716240557335981,
        -0.8109957732216931, -0.3125412178737467, -0.8104269738941632,
        0.0881239144807728, -1.2973780518230882, 0.045462179336797595,
        0.13011510558979705, 0.9596072255553191, -0.8007891954037601,
        0.32759430161197256, -1.167619931446109, -0.504782603467941,
        -1.2889065616717865, 0.016560048529239885, -0.36698980599745884,
        -2.3795403746655435, -1.5121482522027647, -0.1474269179776359,
        -0.6015728144826451, 0.091109924429072, -0.6100859997266193,
        -1.440412951442638, -0.39092862210275453, -0.5087363154569289,
        -0.03235357235890995, 0.028582754242448872, -0.6317976394816291,
        -0.1355302706736849, 0.0807816580866392, 0.34161984377048443,
        -1.204192837725118, 1.3580556789840081, -0.5617174881234789,
        -1.8011571194611609, -0.18820015867018927, -0.48961661466455036,
        -1.1734657801507036, 1.2996966508330117, 0.06391333616930425,
        -2.148743758749877, -1.429363074001269, 0.04581220527989444,
        -1.1394793213877883, -0.43453789367180545, -0.81993994143006,
        -2.118968168341509, 0.24789210311793342, 0.5685156725572893,
        0.8292598009666137, -0.9919852923607884, -0.08454193160669947,
        -1.0290510735745544, -0.9540628526781502, -1.5037433318920697,
        -1.570874232774624, -0.4497148063601734, -1.5032419302107023,
        -1.3991534383672943, -0.30531568379064966, 0.45597761433831935,
        -0.6107316593712024, 0.8579963574307937, -1.2173177930668897,
        -1.1392124537268968, -0.6975591628847088, -0.7066267823288367,
        0.32614342957514775, -0.5551170906418029, 0.06551700835367127,
        -0.22401639212851418, -1.367020297635001, -0.8149613487836156,
        -1.8843569616882525, -0.1752934263616958, 1.151219647108129,
        -0.27288346568910865, -0.12102093368585527, -1.0301867702102818,
        -1.523298555859273, -1.3435108828433506, -2.3990951413681003,
        -1.6626670219239064, 1.3772885890477509
      ],
      [
        -1.9438714968215902, 0.7734389654443374, 0.9326048606139327,
        -0.7591545621480899, -0.6572484855782241, 0.5587858010066051,
        0.580014436053945, -0.5374468419677576, 0.2227812618293866,
        -0.5194884924383404, 1.8331699036081681, -0.6019374435035656,
        1.2861231755322144, -0.7397839002131792, -0.6459551494309015,
        -0.7133326190391376, -0.07630203586909877, 0.8760029229241986,
        -0.4322027743510648, -0.46960308818910307, 1.2233175394603255,
        -0.25227968811099316, -1.3649970862462302, 1.4677098624096632,
        1.2278542864842266, 1.1830834678984927, -0.05936013178917248,
        2.0381943404333773, -1.1008774146753817, 2.2039739681011747,
        0.8199523755266797, 0.24433659994541607, 0.7807105824032136,
        -2.1682224433562665, -2.537792770764213, 0.031069609449211014,
        -1.0015515291410337, -3.2885981071807935, 1.8136310663728206,
        -0.5622786689962627, -0.9634864197422567, -2.4760293315569433,
        -0.0030437964760964306, 0.29815174160853314, -0.12808316102456047,
        0.3585981680909836, 1.9893888259781203, -0.7203259426136294,
        1.482190407700323, 1.761877108024642, 0.7677288407835836,
        0.09280963529154547, 1.0006823732324495, 0.8928739071314133,
        0.3753351009414253, -0.8983822788566013, -1.7147202855281314,
        0.694868898785959, -0.2954460805378715, 2.362519546647394,
        0.8288016705697819, 1.2557605473721862, 0.46164512455672946,
        -0.26949981023512165, 0.2909776715761173, -0.025088290428373232,
        -0.5630653854172675, 0.7261796163437081, -2.120283957451255,
        1.557230961732278, -0.45329985496301367, 0.5723433321683246,
        1.4597649392365055, -0.3285483777836906, 0.5276446076808873,
        -0.9506177440036964, -3.2719376900476287, -0.001140998135124939,
        -0.8395372251521221, -0.0554555203244902, 1.4231985834736705,
        -2.567537142752824, 0.46067874131966696, -0.16366539271054853,
        1.0646147268152395, 0.0824573816345606, 1.612290696504731,
        -1.7889566307484202, 0.3136818302256874, -1.2021935787759492,
        -0.26417570022625675, 1.8240162746701898, 0.22072646681978914,
        1.1804275278148546, -0.29811921832046645, -3.287433732665772,
        0.877459491247133, -1.6998890772408073, -1.4389150096328922,
        -2.537845957847507, 1.252128204895324, -1.5204424687011715,
        -0.2300880197782803, 0.597673389001184, 1.9800064142493994,
        -0.6166505092960033, -0.9823699420818655, -0.8614108552108419,
        -3.7851774944622796, 0.8271810547933913, 0.526194965380084,
        1.7335193204773773, -1.8968775701946594, 2.5008163632163756,
        1.9890046561453327, -2.357345941026911, -1.1929961996414062,
        0.6254501244106309, 0.10715711339437627, -0.22259221393539075,
        0.20847090610012622, -2.185593080103937, 1.1851935591995582,
        0.4650532085247186, -0.28455051064184944, 0.17794204395021884,
        -1.224674958706525, -1.0608238016013263
      ],
      [
        -0.7066848675038597, 0.8777351604715624, -1.4522553425952123,
        1.4913243828405451, -0.5626837288193653, -1.419485578587379,
        -0.12133387587302556, 0.6528320126965564, -0.7059627611617189,
        -0.5806508807569921, -0.5078108854648152, -1.3900274594531847,
        0.17380501480548344, -0.602941915345953, -0.9036020711568399,
        1.372842411891241, -1.257908026904973, -0.9157458513912358,
        0.17272895898152485, -0.9801211287339506, 2.1002456080803986,
        -2.3196514513364126, 0.4788196424205734, -0.05693404993750806,
        0.24265967498747365, -0.9375696395952817, 0.04200567104464424,
        -0.2699324202017368, -2.1824918126765303, 1.319806125107183,
        -0.5448675275453865, -0.14699029882395565, 1.2211469185091228,
        0.050065337166965956, 0.1612478488273172, -1.7312640303007467,
        -0.2353640635402031, -0.7941052705484807, -1.5816742027442736,
        1.1881400340521906, -1.5548507520950723, -0.5520850739586904,
        0.8133366053380158, -0.5491955203821378, -0.7659762532822896,
        -0.753907979365033, -0.449314017944761, 1.2072433836831336,
        -1.803149270439716, -1.560476051916633, -0.1290844609188354,
        -0.1407017989902688, 0.6992686559513791, -0.13648793537784756,
        -1.4771930425899096, -0.49419136715025486, 0.44711418479404885,
        -0.7314861190192, 1.0832238049592333, 1.2455512623331388,
        0.9127405214128701, -0.3341973767538205, -0.45105492158067256,
        -1.0258814223309807, -0.6153559152847882, 0.01870605740214068,
        0.43921950104120416, -1.6269984733630523, 0.3614021306244057,
        -0.5832788447754537, -0.07812125670698168, -0.7846092899157098,
        -0.13546537693009175, -0.48076787619237416, 1.108518733507505,
        -0.8134930990275077, 0.010743732516469087, -1.683862803281942,
        2.470361806796521, -1.6519223167780825, -0.05277534577802717,
        1.5519112529594539, -2.5841942573306897, -1.1642426033554443,
        0.607402058291024, 1.4673804537357156, 0.22086598313769923,
        0.10490414204557531, 0.23189587314495586, 0.07944284873386898,
        1.1310983101108467, 1.0557759047276118, 0.8948217211564039,
        0.2656914087105466, -1.375243472794011, 0.7642853760614227,
        -0.025541217655757183, -0.4233010441149211, 1.5150220488803294,
        -1.6460829395127936, 1.3913101065489002, -1.5506301470790074,
        -9.67201034984204e-5, 0.17425412298375245, 1.535661869237782,
        -0.6488808879994135, 0.6219963182456667, -0.4369078734121496,
        -1.3163267469135125, 0.4108330906224813, -0.9497535311740594,
        -1.0969271099229234, 1.3474654083777835, -0.39333024174085546,
        0.9455943092968053, 0.25505932835612727, -0.7305143490054139,
        -1.5523815879755185, -0.5807786294457681, -0.5467290080357281,
        0.9655305196802013, -1.7192860115561743, -0.6620092431054422,
        1.5063988481085633, 0.5451990487160594, -0.9017520215306527,
        1.2448585682986033, -0.12533772002025637
      ],
      [
        -1.2132500635968588, 0.6198979055689152, -1.249625730449373,
        -0.5118847093598808, -1.8507269405082978, 0.771553806365364,
        -2.1455303852580574, -1.9383983964205675, -1.1822156009878302,
        -0.930811429876012, -0.9403202068520268, -2.890600137246927,
        -2.1958289371284097, -0.20812582239680394, -0.8785036587584697,
        -2.0903919736039436, -1.410971020365448, 2.468699295393283,
        0.8264640286581716, -1.1474228326162577, -1.0083916914207454,
        -0.22828250854048698, -0.39196737890790717, -0.5578803996335749,
        -2.2050559407146633, -1.2087243691009972, -1.1420566348325134,
        2.9704374232647512, -2.5286621787908303, 2.761815055108449,
        -3.482601904442432, -1.7176671463194289, 0.8281017033665253,
        2.63632121967912, -0.6135775813796512, -0.5675909491449622,
        -2.491571034030492, 0.9663648755760381, -0.6084864022516752,
        -1.2013077622102672, -1.15784925614816, -0.8747119208861104,
        -0.8474674830021078, -1.9616154101942904, -1.1189421354042883,
        -2.992759452073474, -1.1563913179730503, -0.972054102657003,
        -1.7623885212417099, -1.4407114373472556, -2.6721378643410816,
        -1.430216871255912, -1.2959688784498666, 0.2065031965464427,
        -0.7596090750860557, -1.8665080415226982, -2.182826524528951,
        -2.386009936912657, -1.745534304153937, -1.5914488021930657,
        -0.8267248329460533, -1.9669618162928428, -0.4504280412536891,
        -1.011767468920697, -1.1083882776291751, -0.44013686001476293,
        -0.37558143411619577, -2.5733508109759615, -0.4465671973315816,
        -0.8147813612316231, -0.7233605075206311, 2.512681220538398,
        -2.099561470244943, -2.8526861705210753, 1.1926536702129507,
        -1.6347657559098203, -1.0942267957711973, -1.3915297340945632,
        0.3531136928345299, -1.7863963977308868, -0.7322280059916562,
        -1.2377393988413596, -0.9137539496810823, 0.5072805944543578,
        -2.823862604355053, -1.719056926028771, -2.6022980736968786,
        -0.5758601190719861, -1.4718116198905073, -0.9782904875293985,
        1.399935141230647, 0.7053762748040988, 0.45790827893928926,
        0.2661547996473342, -0.9649684729076731, 0.14024658682381172,
        -0.1547448656348313, -0.1297791076792723, -0.3246958652001159,
        -1.5306664396080376, 2.9181565096177975, -1.0795032284325947,
        -0.9640311852582496, 0.06472852785557061, -1.045965316991812,
        -0.8143795422613042, -2.021094506169684, -1.8707977379520422,
        -1.2013826190017962, -0.6349772889413944, -1.591943488744318,
        -1.1846568553937797, 0.38746371806843716, -0.36261863797644195,
        -0.579159208444169, 0.8922016930854801, -0.7256289041587205,
        -0.6845014378933422, -1.2510693719564319, 0.6515222703841334,
        -1.4956571292733125, -0.19880599051675904, -1.2499875374593634,
        -2.0121009337170803, -1.6314019996743412, -2.715698812805595,
        -0.5472056379755491, -0.2947236604827618
      ],
      [
        -0.953898228741923, -2.10253392353783, -0.11527314866226666,
        -1.4953383824842754, -0.14254768258365275, -0.9908151100709773,
        -0.17034402020737904, -1.8735043953109352, -0.39628255520629163,
        -0.4409381886975443, -1.460277913674473, -2.579337392099395,
        -3.143600119827717, -0.6914254716424778, 0.416670400172387,
        -1.3238133212078076, 0.5150266670399327, 1.7245090849994393,
        0.3485834513194952, -0.9559870263574339, -1.4493327303471195,
        1.622880816246111, -0.926501328973483, 1.6466642787154278,
        -1.5744635980576904, -0.05252976759554418, 0.5285540718636131,
        1.2109627039333872, 0.4909165688849688, 0.7853740897141027,
        -2.8938489382774026, -0.8939737007897437, -0.8808312194483534,
        -1.3900682457758395, -0.23163429647905012, -1.4856773850576614,
        -1.740176420278302, -0.8091531995039314, 0.10573222589040417,
        -1.9914929030448352, -1.126260448726751, -2.4734613817231903,
        -0.10061868930455614, -0.45828680835730723, -1.75406015198927,
        0.22752241304079307, -1.245454945947532, -0.7072065787708112,
        -0.0026066600073677408, -1.523467767852549, -1.8890917896139754,
        0.3657301719958621, -0.6711569786548157, 0.14805134720157653,
        0.12325598935612106, 1.0108511837086498, -3.488958271637439,
        -0.8503539085700722, -2.1493629099962215, -0.4439157822598597,
        -2.440837999631686, -0.9228555024309666, -1.937089404843862,
        -0.8848773904325171, -0.6656152184582668, 0.5115247142062166,
        -2.1723088455933213, -1.717221994092002, -0.5044594142393202,
        -0.9848507114212957, -0.9803313670728396, 1.430078256599619,
        -2.0310193316137735, -1.798536593085044, 1.7916415108700008,
        -0.17271027556143057, -1.2203371699859769, -0.9298361737983216,
        -1.4769017403708569, -0.6638530599727065, -0.31940869380327064,
        -0.29076737134617664, 0.17105311507429993, 0.40189478435005527,
        -2.8076171248940898, -1.5573468739833656, -3.089942427684781,
        0.17117347163768273, -0.6556496136245857, -1.2981072838207106,
        2.2035986112191424, -0.07675204697355781, 0.7793998026276235,
        1.7445092556423223, -0.3332549141857872, -1.0826444629239496,
        -1.6220114972669293, 0.36871967701137526, 1.4238957946935449,
        -1.72669803553368, 2.217145077951118, 1.3046444949906493,
        -0.15114567009072571, 0.5372521882315464, -1.5224127876199858,
        0.22552419437984725, 0.10490094125197098, -0.05268109520646071,
        0.3826242027965141, -2.500154461472391, -0.3500778721748176,
        0.5797977512825016, -0.8620725006267073, -2.211223826136665,
        -1.1688542706331664, -1.4067125130546216, -0.45925697349723626,
        -0.10211512457738872, -1.4628273656959365, -1.0880712460669018,
        -0.12840807128192874, -0.9201363234310496, 1.7171107850371912,
        -2.2095701175065248, 0.4623074100259756, -2.6686954704247046,
        -0.6687288618035283, -0.18706805658259562
      ],
      [
        -0.08896261687417752, 0.35289748975040625, -0.321544672649072,
        -1.0349774999318704, -0.43540204984487146, -0.1546417197674969,
        -1.4808324907461738, -0.887202447218743, -1.946835813859705,
        -1.0139022575399221, 0.09595335217482365, 0.01800923822293598,
        -1.0476026818370643, -1.49310920731615, 0.18686986119209203,
        -1.51078157337155, -1.3091401895762944, 0.16021201183915917,
        -1.2982078459265272, -0.11879276277884337, 0.12182632928217636,
        1.4203629125533745, -0.3577164444333622, -0.44844102825479265,
        -4.0461720768788085, -2.1003876821895986, 0.32724694244251545,
        -0.38538484724784833, 0.4534684612259337, -0.5443863322960741,
        0.8589457261198581, -1.09855301097357, 0.23341116780508792,
        0.12682133090037037, -2.0476923135129947, 0.7537120821006787,
        -1.6427899915057231, 0.7751057740970002, 0.2718707765985515,
        -0.8539274989561966, 0.19332409278084822, -2.360099219173033,
        -2.087663072023339, -1.121298425849265, -2.7748669147492704,
        -3.048956477898776, -2.016084266188718, 0.39102574329769463,
        -3.9043684817899327, -0.7381770550846055, -1.600271718798914,
        -0.45952702715851984, 0.48643087816803776, 0.03804123502405405,
        -0.3128214000042844, -0.47697056020759193, -1.5178761302672754,
        0.30433742645076245, -0.7714315214608587, 0.8128141402330303,
        0.6636246720256995, -1.3546179854310143, 0.2647162637735793,
        0.09634759448438572, -1.3987594025004677, -0.3426810621017037,
        -0.4858959409805041, -0.5990379211185056, 0.37054742519204337,
        -0.48053537154727316, 1.2324010912039096, 1.4229345665714819,
        -0.22593202174022037, -1.6041469443049923, 0.961870097989731,
        0.2560060991850383, -1.5211481303227306, -1.606017222670319,
        -0.8818062133536703, -0.6037397457516577, 0.7273854142949117,
        -0.5073155725392882, 0.8816321910274922, -1.0042060552089411,
        -1.4905961953131501, 0.4076588992537546, -2.54374947723287,
        0.07044639853499426, -0.2902056004519618, -1.4445017765036081,
        0.18150874852587828, -1.2458609508613172, -0.7255652345731073,
        0.8820224561069124, -0.5510496614366611, 0.7243850155078526,
        -1.203316312542195, -0.3762821668847766, -2.888903521866139,
        -0.8589352660145309, 2.1956144250934724, -0.025771328125911756,
        0.1978951200283125, 0.6270536199077886, -1.772319080325991,
        -0.4207332640894879, -2.1955650195974803, 0.10283086966940935,
        -1.0184513916447808, -0.529754581720772, -0.6585970827842871,
        -1.0614311459495789, -0.8872879973696706, -0.4619033148691598,
        -0.7010672403035849, 0.42917523331796154, -0.5075547436629868,
        -0.7733217420863554, 0.4069510070334991, -0.43325235766457476,
        0.19243028981166665, -1.1740650078832748, -0.8614375200714105,
        -0.3066989739967055, 0.700065946561522, -0.3509590887839182,
        -0.7250372370413348, -0.7469333073808502
      ],
      [
        -0.6900166932912621, 2.061194074685913, 0.1367715483799113,
        0.4764638732281459, -2.197503013115596, -0.9910020334604206,
        -0.916462370518438, -0.15303524031291957, -0.4663695066495098,
        0.5688464369479782, -0.7252210483718362, -2.812065442254214,
        -0.14851941082134873, 0.26086089051435746, 0.5121116000160328,
        -1.0104215246879253, -0.14712642417070806, 1.8326991449605639,
        -0.4729878590581029, 1.6723894665302954, -0.411503362195335,
        -0.4680448160001965, 0.07918511660731631, -0.9512601356556655,
        -0.6229437972083952, -1.1683765296930237, -0.904201314158476,
        -0.1911812659088242, 0.19441429188229484, -1.0012408691841774,
        -1.6471951117905643, -1.345133813323359, 1.5474158841556915,
        0.6962844260706974, -2.6340981842433093, -1.1852651294220289,
        0.16179983744623566, 1.3143448721906543, -0.7657652729310137,
        -0.9575355556690802, -0.506331792128377, -0.3254363007541263,
        -0.7974325781911238, 0.009463343925225269, -2.3502958811851444,
        0.11815560173556655, 0.1429557090362807, -0.14893171372820888,
        -0.9178239003109879, 0.583561250513369, -1.430044116890185,
        -0.24609839729647628, -0.5637527844289134, -1.4363438509963569,
        0.36105835740547554, -1.6021333997658977, -1.1811362476270826,
        -0.7179456985770697, -1.2160532514862132, -0.24075333721782222,
        -1.1945596959394644, -0.19130476640068464, -0.5966524523127207,
        -1.875971294607002, -2.0566229308554522, -0.07375068826309905,
        -3.076053038710107, -1.1304393861417381, 0.7709779210344457,
        -1.1864929493745187, -1.9013048381296878, 2.2935038862152535,
        0.386795195846312, -1.3876766593613397, 0.9528009408174519,
        -0.026857486824838288, 0.4041425766674662, -0.3375167302199523,
        0.9258066978768684, 0.6506186722137509, -0.750479484056018,
        0.02416007409693191, -1.3165700773067885, -0.5534170902692999,
        -0.3610017741032981, -0.36311811406897854, -0.7659958519583835,
        0.19011982491165302, -1.3058856359549142, -0.005333044831609161,
        0.5188885916409807, 0.5923116328151454, -1.8354165452453048,
        -1.0631033372973642, -0.808135863600911, 0.2586299686792458,
        0.08422911656318069, -0.5966792319874276, -0.6277542705161339,
        0.8039121775906124, 0.7895064868346421, 0.21922315446385215,
        -0.5512436547006999, 2.0568839013545026, -1.1578193785899524,
        0.956564000787476, 0.05176909292016352, 0.2614661446842278,
        -0.9883461015607204, -1.1616038157766784, -0.4399002598123,
        -1.6506316661221931, 0.5856709338657888, -0.2724435280907889,
        -0.3749480616480299, -0.36329694900815235, -0.501400742797421,
        0.5255786241783017, -2.843589888993265, -0.524311327893143,
        -0.8687627774189827, 0.23510337957884353, -0.7584769985445202,
        -2.2838444594163407, 0.0016145534044958057, -2.115684583315885,
        -0.4027317846909783, -0.1851179949869951
      ],
      [
        -0.8325333719885827, 0.7805893104028283, 0.7353501864021985,
        0.72530115464903, -0.6334159626310785, 0.8591678034461501,
        0.12820114697938287, -0.5259145513295032, -1.3822878001016965,
        -1.5444127275317345, -1.1514201051919737, -1.9186071546980656,
        -0.9728989757570339, -0.1718200508185922, 1.158573527606418,
        1.2123134708219248, -1.2542742390918586, -0.0803909529353412,
        -0.8293611796585598, -0.7815811634727541, 0.13564657035583605,
        1.0425119483644343, -0.14636869340904796, 0.5416741362385308,
        -1.068741700817867, -1.9873051083872264, 0.35519588339970676,
        1.9108110659313475, 0.1836066769740949, 0.2838413581572713,
        0.4590724120806191, 0.6360312535185139, 0.43106621998491296,
        -0.11667315108206126, -0.8706261050231957, 1.5075081919499271,
        -0.3835349890605883, 1.2448837881039692, 1.747081013075574,
        0.5822727241704193, 0.6047451043243462, 0.9130255811427985,
        -0.938198128924897, 0.42451039503108523, -1.987419837056519,
        -1.4452850142849358, -1.745920336530219, -0.038954738664650636,
        0.07317086482255397, -0.9315450540498259, -2.2521647190200187,
        0.2298832163596775, 0.5016712604133976, -0.7799598913532579,
        -0.043654276316109464, -0.9123625365716935, -0.3920723867626489,
        -1.4815479551847033, -0.8331239837790474, -0.627308134827625,
        -2.05326688440054, -0.5099217697701327, 0.6440814707454118,
        -0.8062937854917605, -1.836774446640771, 0.2252016268787913,
        -0.7598320041161646, -1.7953012754626685, -0.9360300767868898,
        -1.1016081164933653, -1.8475600988421237, 0.22591428650579892,
        -1.856806620797486, -2.6053863678906604, 1.3616380822758765,
        0.5672966892044122, -0.6485638516851153, -0.3477874581639272,
        0.8044887590875212, -0.8469981539842897, -1.64232429165631,
        -0.8581536239933344, -0.8941923351433141, -0.7759462303813498,
        -0.5264668729485454, -2.0010253676112844, -2.1195519664052007,
        -0.002119066780150709, 1.1520794804241299, -0.6271269546441253,
        1.0117637364464083, -1.3021026535416047, 0.18631707247108,
        0.5790311324040454, 1.1056444713732518, -0.5171909199387453,
        0.7039729465086523, -1.1063699920927645, -2.544051178425002,
        0.3561356014594916, 1.533994863802983, -0.7196883793793365,
        -0.46348740402236754, -0.2866975931854442, -0.4860412537982348,
        0.5916585749470576, -1.4936395447622368, -0.20862448382403867,
        0.29923075443106756, -1.1020350673973252, -0.14309875113356033,
        -1.0130739366891302, 0.19031947813477346, -2.5347285080955135,
        -0.05234358937019507, 0.4411761192200316, -0.252231524909023,
        0.09830926493044814, -2.8027803110113862, -0.43184965744567455,
        -0.06204622359555632, -0.47023630955733187, -1.3827113439114245,
        -0.9366397586368986, 0.3543153099097917, -1.999602506035371,
        0.48630982980686493, 0.17147191575331244
      ],
      [
        0.6581723188451079, -0.123663936671628, -0.8894003961397131,
        -1.401886910840848, -3.5816660919976697, 0.04246405825844855,
        0.02751776859780602, -0.2965019480971927, -0.9880651339439911,
        -1.4220655066601264, -1.4465097919321326, -1.3659936278912475,
        -1.4015623123508447, -1.773589332214517, 2.240627903341307,
        -1.480741093929407, 0.23138608766240465, 0.30615127203493003,
        0.4449500355728587, -1.8326299698291681, 0.08990497576854492,
        1.4131849960160765, -1.228374383763975, -1.3494145269511666,
        -3.7563246820928633, -1.5947464778634324, -0.2450569589901218,
        -1.1791261529962014, -1.0006134983776565, 2.0591859170047426,
        -2.666605106614583, 0.42048542901739183, -0.15323127204335651,
        0.41971819753249867, -2.937970445231165, -1.6783232788222378,
        -0.5735523089417884, -0.3191867219947962, 2.342757660297823,
        0.7563111465293468, 1.3304831754093616, -0.7882106947777355,
        -0.5983108038021039, -1.6581690422013509, -2.090829138281517,
        -0.5817377611533293, -3.2938519998657965, -0.4711108790633366,
        -1.822483894545424, 0.2650045799396251, -2.575283671955267,
        -2.5186699057729793, -0.6827532471483425, -0.3237311262374341,
        -1.5535075313081794, -2.2082745811642455, -3.363318550555366,
        0.24434398272654356, -1.4733068482680127, -1.275463303511481,
        -1.7893745024060146, -1.6762424193940444, -1.5654928041113494,
        -1.3771049373060025, -3.4893884528525057, -0.6714086361671269,
        0.9333697507360216, -2.0212496400529294, -0.3256349292134347,
        -1.6939197205532368, -3.2439628704311643, -1.2567973380406807,
        -1.649278206234913, -1.4130765241395993, -0.08596305958051187,
        -1.5799941976342335, -1.5317801912932072, -1.913758068843624,
        1.6736638304160876, -0.6327099404160551, -1.4527906980086094,
        -2.3697406198055475, -2.2581671646904518, -0.632816524890945,
        -2.1446355699419777, -2.7780258712374057, -2.541632363794091,
        -0.0008432462417398906, -1.4636659262756624, 0.9186939634716222,
        -0.7873519004216605, 0.7269622034986911, 1.2998674957916614,
        2.9673762022286945, -1.3223149953125581, 0.02435018576523787,
        -2.0878005780484443, 0.03196447169695182, 0.1852992353812382,
        -2.776408940071722, 2.315013302017912, -2.0774659119016947,
        -0.6118621192915545, -0.14627181363518013, -0.1392056618725313,
        -0.7307376319812505, -2.5104680930902408, -1.7829671890411152,
        -0.3577850452508101, -2.6145042513914176, -0.8892039273014695,
        0.27123781931031676, -1.1966537427693547, -1.498566975775282,
        -0.2909012063013637, -0.9260606226180963, -1.7897913682222002,
        -0.9537411359966684, -3.169659988045046, 1.08499198833572,
        -1.6394494847403123, -2.1778739460989898, -0.7568880203074838,
        -2.7621042503305637, 0.07591210954825019, -2.2869831394630955,
        -2.1814698288893806, -0.07042983189432181
      ],
      [
        -0.6075537073983858, -1.387394747554129, -0.8795268258851914,
        2.5232499760182727, -2.86562421365838, -0.8111089486446867,
        -1.6709959523304587, -1.5170185165200618, -1.207250232313307,
        -0.875417967535973, 0.276232819281638, -1.3661875419342153,
        -0.23798297338593993, -2.651177304446315, 0.6560567512319705,
        -2.6193121661497925, -3.805016244967449, 1.259238719183451,
        -0.8188715198722293, -2.8055730932815157, -1.3622320928364129,
        -0.49486872806606724, -0.7074118119846181, -0.5761540038105214,
        -1.705747695453561, -0.7398610392977876, -0.07220615670524251,
        -0.6676216336547708, -2.59141081026718, 0.3648088634087183,
        -0.040471154556381415, 1.6195361114668612, 2.09750828729859,
        -0.37465795400212215, 0.6844847462762345, -1.8369464190472842,
        -1.5388683268108756, 0.35671630915535363, 0.764914826452827,
        -1.4426073972281441, 0.5893962453151055, -1.5806175606291324,
        -1.6150613598746335, -2.165654145811206, 1.2406450897309427,
        -0.9067638051520054, -2.2153355554962566, -0.47785997828967836,
        1.2249287376063593, -2.2127192265592015, -1.3514010755622623,
        -2.0550277755547968, -1.7915691164564465, -1.1713877275316185,
        -2.1738384646028015, -1.434509883185319, -1.9833801053114457,
        -1.6098557300540584, -2.5928761195504353, -0.9495451772418259,
        1.1320029979363835, -0.42021335058923803, 0.15694800871318632,
        0.4103664890110638, -2.7564190529319412, 0.24206837797606828,
        -1.0690073159020288, -3.3955955963118294, -0.4433754838788022,
        -0.1594560971988743, -0.9267406989991301, -1.2020119018550581,
        -0.6729097260918065, -2.3778008382716687, 0.3483003421273951,
        -0.5393773991545319, -1.5549374623819496, -2.1595197525030825,
        -2.1432747585277596, -2.0013915547259415, 0.37415936302091823,
        -2.0258122643780343, -0.3129479812256718, -1.732487546168343,
        -1.296812076784253, -1.442315624114207, -2.2897052708016807,
        -1.038859306114087, -1.685697355418854, -0.6778037262208956,
        0.5843035895128191, -0.6314091417052683, -7.487947580289659,
        1.654459587647565, -0.34565219232124506, -1.9265911179045236,
        -0.30359453832871536, -1.4862931803293504, 3.397108866998309,
        -0.9024404108076732, 0.5637734919851929, -2.5488658396382764,
        0.7574086846631815, 1.214201040353779, 0.2340046073830722,
        -0.6394505887068919, -2.4619420573342325, -1.475354279495459,
        3.5279581640234734, 0.2956829488422211, -1.1032206045195505,
        -1.4426313086624438, -0.8762132884865232, 0.28456000368634576,
        -1.327531240763393, -1.5078187187223515, -0.8650672466718116,
        -0.4326451746301526, -0.5117097603563959, 1.1724209024055818,
        -1.7355539591562863, 0.30068191971213254, -0.6572374969951433,
        -1.027112577436274, -0.018061896335715432, -1.1815192987465488,
        -0.9421038645955743, -0.7528474126818273
      ],
      [
        -0.22410238455488682, -0.17315722444050027, -1.877134450735483,
        -1.2126589411483937, -1.1131948956155782, -2.5268059595781702,
        -0.7956057489172451, -1.4242259763638991, -1.3363671473104246,
        -1.1559621807573035, -1.1436932091568341, -1.699409597322917,
        0.33667567160965667, -0.6282789930895085, 0.20690199440356088,
        -3.984604429330179, -0.2295321100103665, -0.02852015262444301,
        -0.6348157627949024, -1.572844188552332, -0.559220545328396,
        -1.758822995199948, -1.0639641721691866, 1.3384829057689134,
        -0.5497423442536216, -0.7590114999686502, -0.2387866627887704,
        0.49395971106339814, -3.8083938555915937, 1.3040014450991413,
        -1.3338242540031833, -3.1858028098395197, 0.8576248529276491,
        2.3339462323072655, -1.786536886659019, -1.6451847566800635,
        -1.978068981745225, 0.8799337729698572, 1.9104768294881544,
        -1.6142569386459107, -1.6168358129778662, -3.195178957595311,
        -1.3668702495798661, -1.3115012299918327, -0.8119660833429977,
        -0.010851934274493474, -1.9239974069445385, 0.2825806485472901,
        -2.9716602789232898, -2.2850939329824556, -2.1293123726229637,
        -0.7890385762180313, 1.0594054414092462, -0.6687274202181679,
        -1.6284107509420978, -3.6068683592784754, -2.99824285510807,
        -2.959961185619885, -1.3981537605202523, -2.147294802128769,
        -1.7483108457856569, -1.7948036656848552, -0.3589008387615659,
        -1.6686529943615596, -2.4735951510249192, -0.08054317240702201,
        -1.3908628639004117, -2.9109721806308424, -0.245958708470063,
        -0.8954011160180774, -0.8170969414475511, 1.9157986361331558,
        -2.2357632453280347, -2.7489138933929427, -0.9601400536916068,
        -2.191764076269039, -2.776037964571838, -0.9766846360782814,
        0.528670487737207, -2.19862750858272, -1.3445828819437713,
        -1.5626232405092666, -1.0232444101776461, -2.243929081748499,
        -1.8528847273404367, -1.8269881027738673, -3.9630494933816056,
        -1.0021538403331542, -0.836653676505649, -1.1658688513623106,
        0.26044968086317544, -1.1796803630807344, -0.4270314687983158,
        1.1823568928461545, -1.75006123888535, 0.362366807547169,
        -0.1528715605948933, 1.4042635780203316, -1.6553976049243726,
        -2.3732235638574384, 0.055592089391710016, -1.5445387648695375,
        -0.10083059108605212, 0.26079569535502106, -1.5270773412807641,
        -2.1863777540884666, 0.061778023333198144, -3.0468879233470365,
        0.6337063009080519, -2.46647175643979, -2.1634142017186706,
        -1.3987535091079049, -1.8641351314561034, -0.2888214519958497,
        0.16751732649884477, 0.09410622400673599, -1.871625247103638,
        -1.1095262105292167, -2.3167040600574134, 0.020118650232228516,
        -1.7540638306812062, -0.9283457709563655, 0.517069303080298,
        -0.6700507558672116, -0.7190695966273289, -1.846342367165294,
        -1.4807513687930036, -1.0024313657111152
      ],
      [
        -0.16303905232921828, 0.6486915394246836, -0.9244266283704924,
        -2.271560812462566, 0.6084558235778458, -2.0656305718749963,
        0.3884971585908372, -0.4004727645779368, 0.4120152396808266,
        -0.5491866931676062, -0.10876490590231393, -0.5004346384368232,
        -0.9664498502232366, -0.8281225467471822, -0.3407399129777867,
        -0.03503112516213237, 0.3468654634424421, 0.9681486292681022,
        -0.8513014117498166, 0.3616106420995268, -0.7438883904810442,
        -0.47887947640092027, -1.0167824258010734, -0.9721987068298401,
        -0.1956673453601194, -0.45012832184516416, 1.7464279582918116,
        -0.7246146531855623, -0.18558654294925658, 0.29963544593947283,
        -0.5531170229898927, 0.4883387011758366, 1.4911361253102358,
        -0.4090678895018697, -0.4579588879519623, -1.4137855869617184,
        -0.8014198237542327, -1.1796645018275929, -0.11882924154346308,
        1.3477570607044598, 0.7624038415285164, -0.19966158246056465,
        -0.5456693356603707, -1.0430985744600372, -0.24197195090827983,
        1.3145622821795278, 0.4950586637359968, -0.5158469708923842,
        -0.9927710771065474, 0.8228620455355645, -1.6638029441541424,
        -0.9367737434429684, 0.1869601552440501, -0.7160096739707652,
        -0.48007798356939013, -0.8168599369508378, 1.0963809063306065,
        0.6999588333741842, 0.32332828680578324, -0.3021402584025409,
        -0.26145453105622846, 1.0402660458055002, -0.4255969742769849,
        -1.6678626424449938, 0.04077694307691026, 0.3067688001443454,
        -0.012401356782983167, -1.0626188657823479, 0.14251001757818588,
        -0.15637902966570832, -1.0230684728405668, 0.41636757525446244,
        -1.383535180070864, -0.6586790350975014, 0.43911549671708017,
        1.027423727296139, -0.3025989711164373, 0.03392984037459276,
        0.31557705583444534, 0.21098087720387804, -0.9086476907966791,
        0.09689294425936741, -0.8851018109755133, 0.5245926835420932,
        -1.1779897551310132, -2.281893315358181, 0.2849665895500064,
        -0.9382740878426006, 0.8817298503143001, -0.4071061504957876,
        -0.30928626009384225, -0.5918887047287598, -1.258599169099552,
        1.3492182144020677, 0.9157134281861448, -0.9785029239976445,
        1.6058490216372774, 0.2452525368768922, 0.2022572101144172,
        0.7574595248868653, 0.5935581224751415, 1.2287347323366695,
        0.24341018777695364, -0.32831856791458436, -0.12595004827061207,
        0.3728064403835288, 0.3291294050096095, -0.9453570255717834,
        0.2550637318940783, -1.380959263162949, -0.27134259092556595,
        -0.07869316715733247, 1.2110849104824017, -0.7879686612925236,
        -0.7783700580607961, -0.053285949192466764, 0.24450108831707404,
        0.6699983075386693, 1.50020048276043, -0.13253510549525668,
        -1.0611119650711425, 0.6166057889548636, 0.4550344764332672,
        -1.4335225746621971, -0.33624369016068456, -0.8155655804981373,
        0.16242221467966264, 0.23263148305940992
      ],
      [
        0.24685475353063352, 0.908485881325273, -1.3525662414422284,
        0.4536572068467729, -1.1816058281237245, -0.7910012897970098,
        0.6896806493651383, -0.249540750406917, -1.684872121089123,
        0.13850339936827338, 0.15089165458514237, -0.435474351693187,
        0.9439306850093999, -0.2973357305921567, -0.12096423466854038,
        -0.798221793101858, 1.2106575916788618, -0.3483214240922446,
        -0.9623386749680573, -0.1901405896131188, -0.2285302564580612,
        0.10267463664470197, 0.6924125190238326, -0.6597018355785548,
        -1.0064988897189893, -0.10145700018711838, -0.8112836645903903,
        -0.03707773887598895, 0.83590648829629, 0.6767690288300928,
        0.08379472590732426, 0.23414393236992334, -3.996303712289536,
        -1.1866941302718648, -1.7391344925283694, -0.8132772631326578,
        -1.0033688103352176, 0.4424938886089077, -0.7632235715925804,
        -0.20202739714966036, 0.4205451278574709, 0.13241095824240598,
        -0.15726145008987746, -0.8347472428186709, 0.552648199511663,
        -0.5181365595229741, -1.1864219969111276, -0.6474259149909737,
        -1.4808901641148358, -0.08282403326753034, -1.6851429241369262,
        -0.7967675829764084, 1.6623871621436868, -1.2369976338038446,
        0.7755814787979497, -0.6495599714787558, -0.49383181005617927,
        -0.38081840866344274, -0.13878625446777562, -2.6254251812278606,
        -0.06457952478257288, 0.3996713603527269, 0.8080620477010843,
        -0.40060323042002094, -1.2816936808308113, -0.6065148544348968,
        0.29689415174360034, -2.056067749184342, 0.5399661266111377,
        -0.35092823103129167, -2.839481012445616, -0.2586613256757433,
        -0.606518550796252, -0.4345603045158378, -0.7706947372158499,
        -1.2588372560581875, -0.46989318640350497, -0.18274233131754875,
        1.0305964651190875, -0.25771685287705853, 0.04341398042819699,
        -0.43892962306081784, 0.48981465496823395, -0.3564229676564695,
        0.3388211089607598, 0.13404138883523323, -1.4818954022212352,
        2.2351874385574684, 0.22321192354358022, 0.26064074118331115,
        0.3974118001024725, 0.11522796299865333, 0.23057717934402147,
        0.39308276137267206, 0.93910941050018, -1.0937699541631025,
        0.6526317846415916, -0.7906404415560131, 0.35564028883903376,
        1.1054137739502419, -0.6015146280407938, 0.26562095423226806,
        0.38444355283200743, -1.8345053586764604, -0.5829141403099507,
        -0.23916263286741563, -0.8604203814243104, -0.58528557084858,
        0.5237863961625353, -1.4189443631132825, -0.35379960846808894,
        1.22079497869823, 0.0038638915334897567, -1.2564275099156743,
        -0.4025655444308277, -0.25331135133076205, 0.5193094571288633,
        0.7856686187024271, -0.9368817646444209, -0.6561172695900757,
        -0.8318378001303454, 1.0989790758316047, -0.30665698318640333,
        -2.357278935849281, 0.10217422485403228, -0.36963630367563083,
        -1.3171096885938012, 0.013836332428189184
      ],
      [
        -0.9291868475277398, 0.7022747460144454, -0.8740403946531973,
        -1.6348926280292815, -0.8050853143931112, -0.024610917370491377,
        -1.4482230247963321, -0.7587621698231372, -1.5326758602368542,
        -0.7386063768196499, -0.06587860935243448, -0.7014494593380246,
        -1.177172528769318, -1.1442865971343932, -0.943777745238505,
        -1.205792071900004, -2.652448290753914, -0.27723205864213885,
        -0.7871378612830697, -1.687382357496613, -1.032031050845937,
        -1.9383607868817778, -0.4007024057101226, -0.0013271867495254117,
        -1.4252494134067324, -1.1317119172011698, 0.5175550883364379,
        0.013309321135339877, -3.239695068123124, 2.1639399868594875,
        -0.663515087274405, -2.2989427800873643, 2.232341513871805,
        1.10079986090505, -1.4582281701715623, -1.5402854389417264,
        -0.5388748368507905, 1.3910958425226352, 0.09300377539438158,
        -1.1946441366367302, -0.7077397623758883, -1.9478736129378305,
        -0.5393881806936731, -1.0544260982688811, -1.293636842626521,
        1.2210427569713516, -1.6465030534195895, 0.16212963071526604,
        -1.5341929376980468, -1.0088972919735533, -0.17762821605319526,
        -1.933573932094266, -0.25509253419853845, 0.03451968424937767,
        0.016184200594478153, -0.6076143473631253, -2.9787549596774334,
        -0.9684158064853257, -0.23054224530796685, -1.7359805596998128,
        -1.5237128853406907, 0.8618925434378021, -0.5174704078740884,
        -0.930239636592577, -1.967864043508089, 0.8908903409276745,
        -0.6033513366631377, -1.726256609130866, 0.5106137141511959,
        -1.1705514231260596, -2.0534811022026536, 2.3273677398882335,
        -2.961121228462144, -1.0268471897579556, 0.49969175138161087,
        -0.815039643415204, 1.0699580690696517, -2.788835270685668,
        -0.4456408710721657, -1.9973035394117284, -1.3112313919124245,
        -0.03775991088616281, 0.07043463878162974, 0.5784693859466397,
        -1.5984160010667934, -0.935385263457164, -1.2780035994054193,
        0.01494333779570039, -0.33838562410364015, -1.4661946390671843,
        2.3473195976962797, -0.6391349618755684, 1.2530556457360913,
        0.9003686780288062, -2.029723293654779, 0.8005740555884397,
        -0.5808475663548014, -0.474061509693534, -0.37002842466873,
        -2.8639619726313073, 2.3596426144760962, -1.8265153486413117,
        0.9379854546517097, 0.31733663435951226, -0.3383995474613678,
        -1.6541534014495733, -2.055958755284266, 0.707444260995729,
        0.5289094067747417, -1.3804136722954377, 0.05717040135094265,
        1.1305004927613715, -1.519549723240994, -1.87759723349132,
        -1.262490969206427, -1.2935709682207677, -1.4165382088414569,
        -1.5770069084589398, -1.8563791435077388, 0.822971448458879,
        -2.220499628778362, -2.0550768901534577, -1.3333188628814499,
        -2.7600073145787754, -1.039328637058914, -0.583364827424148,
        -0.19625441684553768, -0.36224593557521423
      ],
      [
        0.8317353162764669, -0.10513084036591026, 0.5117814059363738,
        0.671933955892821, 0.4573921340693846, 0.26022095298670184,
        2.167151677797742, 1.6932591622482107, 1.835605190438976,
        -2.8923360335697765, 0.04689148807267785, 0.36635473288666415,
        0.7565680536317928, 1.3219192713517598, -1.6385256401805577,
        1.4169960576940943, -1.5654864549288046, 0.6056991672510758,
        1.9723841341937158, 0.47968222062538624, -1.8559950965787468,
        -0.017616335825591106, 1.5230667705682637, 0.7424409487355687,
        1.4953978270246235, 0.9880829817704376, -0.5472656799265627,
        1.4635156475453188, -0.611713055289204, -1.4131305192364758,
        0.8538281947522068, -0.3016743407984405, 0.8992481552832778,
        -0.0014543105295431085, -1.0715439789080805, -1.3953538180229734,
        -0.4249548709638494, 0.0697484191567347, -0.25359210914517344,
        1.336019641749331, -0.04968064075167304, 2.0312288202821542,
        1.4001606100937143, 0.3427849380768558, 1.1086777059136086,
        1.5894585333508489, 0.9726086999819573, 0.6053285691514273,
        -2.590422772104348, 1.6577005244907943, 0.06484907466109191,
        -0.7510491464307781, -0.4745393904684664, -0.5367466154841489,
        2.2596811801783114, -0.3914998336618321, 0.9694433943572726,
        1.2274053842051107, 1.2817646456452636, -0.05448817221563606,
        -0.4523616720971293, 1.5576307058722025, -0.0015870134689143643,
        -2.221360606582002, 0.05544222378687249, 1.5216558299242406,
        0.1314037797062079, 1.2799641857677677, 2.4047388008091106,
        -1.336985394122091, -0.909555411981717, 0.7291390843924905,
        -0.286559206875702, -1.1333142782249994, -0.7880558650868197,
        -0.2872727450452644, -1.0783681174269375, 0.5337760499912683,
        -1.2795328678965792, -0.4900522010888104, -2.3867077024817442,
        0.4597095499729359, -1.3384092338153892, -2.158034838632381,
        0.43420994806908114, -1.0072550704750243, 0.26934296639375227,
        1.3385786785002136, 1.1547588693389526, 2.9298876760610444,
        -0.7502662935161234, 1.6213796843630917, 0.43003997250931325,
        0.464772783577695, 1.0012994728999105, 1.6179127880651007,
        0.14606318411458216, -0.8592462459711867, -0.7786284838373245,
        -0.4787320433856154, 0.9535692674124558, 0.8485869717897431,
        0.9952342557173374, 1.9766942907254714, 1.6547505790708728,
        2.1011269897032703, -1.282463129381833, 1.4507986420927572,
        -2.657715862610443, -0.4365105781185977, -0.3357235698729806,
        1.8439835040429462, 1.5670696892389422, 0.3845499240570131,
        0.9044159940221341, -0.7286084404791047, 0.3759692067411999,
        0.9626199307777178, 1.5525616920538376, 1.5044788496678017,
        0.3469899157141995, -0.6367442665107759, 1.532113394791558,
        0.07908947914174176, -0.902580280996843, -0.30974787966620443,
        -1.8560940844217118, 1.0201290980576363
      ],
      [
        -1.7619749243457477, 0.15216645670004894, 1.9866426784926579,
        -1.7634109998730532, -1.2859294495852358, -1.256284899159991,
        -0.349955995699239, -1.123737599620567, -1.2616149648344623,
        0.15653496861216498, -0.7206449729694883, -0.1121456887570901,
        0.8194515512077435, 0.40965482947816556, 0.14950060991081449,
        0.07247107196190179, 1.6408308897341615, -0.397447383099685,
        -1.7250731088989697, 0.8873644067743187, -0.6724858026936451,
        0.3904902052724083, -1.9659332104943419, -1.1314561795929798,
        0.4088605969909193, -0.9471971971883478, 1.3214775105701395,
        1.5490328089380312, 0.4646472988819368, 1.3093570427242138,
        0.302886457644876, 0.6226677371020375, 1.478614299555768,
        0.7361679623395714, -0.03627031191976693, 0.7348534032456585,
        -1.0825067647913462, -1.029766063205115, 1.6227403661110227,
        -0.8625952060143424, -1.143127697851822, -0.5128455457512746,
        -1.8014910981357088, 1.5343239198347653, -0.25447190740296294,
        0.5104321068859069, -1.5764011778952585, -0.087901270393257,
        -0.41462431143494916, -0.09572503741665654, -0.034792027679874195,
        0.10867585750930565, -0.4665905077916794, -0.7075381392900556,
        -1.5181412128326666, -2.326044069453199, 1.6690310853184267,
        -0.12864066172279534, -0.8730004084774042, -0.43148073948737886,
        1.0758488229633916, -0.10392106815405046, 0.5616486868475155,
        -0.15532373545594938, -0.5487600387061937, 0.32052154851861225,
        -0.7714524094397394, -0.5203765276071284, -0.5506875002162103,
        -0.7766752158884247, -1.1875675884369754, 0.15446058714504374,
        -0.36941564410317834, -0.34173784679016234, 0.29799475860688585,
        -1.6608452947561563, 0.9029314834856644, -0.4937149105035706,
        -0.4045806651750957, -0.9406806062822548, -0.13293450153461428,
        -0.5369647337127079, -0.9507253936890259, -0.6061792862043308,
        -0.9273287425567949, 0.5513095416575695, -0.841063823535214,
        0.9207588711610339, -1.3510339331966292, 0.7451721694994046,
        1.0137410938606115, -0.27239094318990126, 0.126501126267396,
        -1.5701266495805999, 0.06509395933895222, -0.10160714414761292,
        -1.0270519568123366, 0.4163361898087169, -1.377536031210494,
        -1.9997838375216666, 2.0406593227162237, -0.9070743414784108,
        -0.7320902359320491, 2.4377432008710533, -0.279898831479245,
        -0.47519126173946147, -0.5136109584857202, -1.1539707375105135,
        -1.6523801676760008, -1.0777749002913541, -0.8676574069066626,
        1.021334802617169, 1.941940238544837, 0.4386610537831689,
        -0.8306509734383611, -0.5470300852790053, -0.2525170055594741,
        0.8994896687479612, 0.1961302212245055, 2.150888047841619,
        -1.09740555505283, 1.2740267641626155, 0.16347042570233258,
        -1.075938153939375, -1.044936046513703, 0.6377416958514235,
        -0.5555593772957337, -0.060867182324776684
      ],
      [
        -2.519666324997254, -0.613033717718865, 0.0894756554372894,
        0.7228658905600944, -0.5504175042078467, -1.4422597076400567,
        0.36363543813227267, -0.8265837731495981, -0.6808335866832822,
        -2.0595953863227776, 0.4075390604819054, -0.6494523452821678,
        0.5439561394746114, -1.530030776226322, -0.6930796083205757,
        -2.2237968624521245, -1.8185812095269314, 1.340117862629932,
        -1.4571284531073312, -1.7267658657023734, -0.08455238098788363,
        -2.2487022220485193, -1.6523157168357347, -0.3916803901348996,
        -0.25812395017106055, -0.7671762265216955, -0.2510982349928701,
        -0.8522512883805958, -0.7754124556895354, 1.091103710201825,
        -1.5432773013164154, -0.48887075117537215, 1.8877616793752034,
        -0.5693024943366308, -1.2959539740194121, 1.6080978743474712,
        -1.1723851652009687, -0.16951276227196257, 1.2778835196614255,
        -1.875338236935761, -0.17436083575648226, 0.921784070136289,
        -1.0369754596394316, -0.4790591006800998, -1.851848201248186,
        -0.3783151752423553, -0.7844686925623454, -2.0500158429126216,
        -2.7599662272402767, -1.943744034704641, 0.38396972925019374,
        -1.2874115220821933, 1.6284795938545602, 0.7278056482906572,
        -2.4301196703286774, -0.9352885239863625, -2.0588967967028835,
        -3.287133160395881, -0.9787105755124881, -0.8459643375352569,
        -0.33970300796631764, -0.6654096198951265, 0.23095815555575044,
        -0.5317686428612601, -1.0649771587467725, -1.0102839608934029,
        -0.6913476163016374, -2.65378832170487, -0.09647180793263478,
        0.5892574744123932, -1.5853673053867336, 0.22643410007506687,
        0.5575184017583483, -2.3249777448939155, 0.21802127503084937,
        -1.5634564855913566, 0.16735423755701304, -1.4222425914484718,
        -2.364266551546683, -1.4701585491236953, 0.7897626404098846,
        -0.5292788651384798, -0.37002738869831797, -1.0427939483520794,
        -1.9962380323972015, 0.415163190979128, -2.7951369816502054,
        -0.9106827434423983, -3.3323066627680342, -1.3656782769646316,
        0.8349581915684631, -0.5521338049392361, -0.056114607262269786,
        0.5558180931686947, -2.376504315344373, -2.0030662654244633,
        -2.1660930721922114, -2.534460888785498, 3.6666198729537864,
        -2.258467758210154, 1.2455011242003384, -2.3784199917948254,
        -0.7243328930539021, 0.3986094345047045, 0.5410432984235682,
        -0.3599245429502163, 0.49217610412013374, -2.9280425761217534,
        -1.8635065094830174, -2.553002856084637, -0.8257536846003597,
        0.6312240653738915, -2.2694954075661347, 1.1656096308047506,
        -0.41413216706623435, -1.666609639034505, -1.6621047346848292,
        -2.5487212568347117, -0.30657952718353376, 0.7317253271735825,
        -1.7094619651952565, -0.8661384948684413, -2.8830962710545776,
        -1.5199777991270778, -0.9854731548029895, -1.3489604756873694,
        -2.362344422475462, -1.4669080445200253
      ],
      [
        0.5390874619163442, -1.8992915001514021, -0.6648309071591775,
        1.398631876629266, -0.10130006870108647, -2.400551487594554,
        -0.5682860695292319, 1.7498818142517825, -1.1623321555299746,
        -3.864326655163172, -0.5998073184383916, -0.5060243520575383,
        1.5189920965336667, 0.9324595746039194, 0.9661238070077169,
        0.48142631670210984, 0.06597032425230206, 2.200031222439443,
        1.1962925195128746, -0.47506219778362613, 1.884837095711528,
        1.9502864282796457, 0.18488240165146916, 1.2238078263581393,
        -1.1819405955762865, 0.43762079801834364, -0.22338502669034832,
        0.6074862351254435, 2.4571916010863215, 1.6210406057811653,
        0.31964871189499805, -0.9585025681987956, 0.6066678610120263,
        -2.0170617338259462, -0.08891044211870788, -0.3417145242223431,
        -2.3424040701590427, 0.667960918777174, 0.6619773173311124,
        0.242785598341154, -0.6070068203018313, 0.047348326847592374,
        -0.9085459532873158, -0.5374520572559643, -1.5550367571839818,
        0.353930078261644, -1.3004751262422989, 0.6409851452402897,
        -1.182773767140232, 0.011152279901167452, 0.7092162200827804,
        1.473415990547554, 0.9630515939881369, -0.6040400223381369,
        0.8602988439092918, -2.398784581901211, -0.9407530947764643,
        0.04451658007462901, 0.5755379527230505, -2.451422530970157,
        -0.8545086759524245, -0.3266099120812391, -0.47498642888073744,
        -0.3230550242729078, -0.4035690024949912, -0.18777784588350943,
        -0.78937163713425, -0.9151784686853354, -0.2355287461207662,
        -0.5056928862002932, -2.046128178748127, -0.7588619861047641,
        0.9364702645497407, 0.45844262083676646, 0.7901385208922556,
        -0.13775910064291863, -1.1034834488580945, -1.2035566541643044,
        -1.241395347273348, 0.7095547688893444, -2.0468675980568656,
        -0.6605052256850891, -0.45990963458319517, 0.8683414924055718,
        0.6941141643199433, 2.881450544675215, -0.18434123325871188,
        2.896066238551737, -2.370470894447184, -0.27635904487088686,
        1.8514094126081246, 0.35452812462337757, -1.5837600970090577,
        1.3887258482378253, -0.773646985898084, -0.19097350262644178,
        -0.6276512715125078, -2.0505034953488055, 0.6436989426046623,
        0.07466597295694395, 0.8432216907815001, 0.1767549747349609,
        0.8058546305570669, 0.3249177526066828, 0.22209916404262406,
        -0.7803586404358686, -3.134086661721411, 0.10002991986096714,
        1.081747776224415, -0.34827416690203583, -0.16859402620624078,
        -1.7122024064832262, -0.23464125539295239, -0.03982645891993545,
        -0.013362349511350567, 1.4757669762757817, -0.9914378771925626,
        -0.23097981864490003, -0.5778441627951367, 1.1469453949057302,
        -1.0074238382140948, 0.3605290867393894, -1.013194957918765,
        -0.4863972661207779, -1.9421214049053364, -0.23169847987245515,
        1.0305531188758486, 1.0240995433352333
      ],
      [
        -0.5313249781217185, 0.18251784262118, -1.596083829692767,
        -0.6312250691933873, -0.9484561001895514, -1.5769526499673339,
        -1.6564942780000713, -1.5366672555422944, 0.05157412273128361,
        -1.2199045079901145, -0.9097134929440189, -2.4011573646053463,
        -0.6426582827930787, 0.08749304528488171, 0.12591466846084795,
        -1.5431072666835821, -0.7723084171099721, 2.8625202528100795,
        -2.333416530149305, -0.65743679264038, -0.7029922031895394,
        -0.4445878663225911, -1.4188486727534073, -1.9759905737357677,
        -1.8023762425745402, -1.1546679022792181, 0.20874174928778472,
        -1.1196624942045599, -0.0825048537936393, 1.3172332789775956,
        0.31951677237917536, -1.4315719361224983, 0.8402728090443764,
        1.590779399294455, -1.7920595226673026, -1.9587861544965497,
        -1.4204521051646204, 0.276661815524222, -2.120780088250939,
        -1.4481606013989183, 0.9572899839077691, -1.9411474033070455,
        -0.9122898083608552, -2.4748402057223933, -2.000321833884967,
        -1.7508504044375985, -2.003986849659068, -0.8258112104579856,
        -1.2710984292947698, -1.722505189422537, -3.207298006783278,
        -1.0111915523110007, -0.9001456325063273, -1.0270535950689177,
        -1.544889598004624, -1.1853675911815993, -2.558558691400969,
        -2.164494732816727, -0.43662337674747287, -1.6753478807092417,
        -0.6409509393102978, -1.8897610161995313, 0.03396591372358181,
        -1.2106706688420166, -2.7777445286666804, -1.008984011219104,
        -0.583489972498618, -0.688192057880374, -0.668341616592014,
        -1.3123307634314796, -1.5316622713917725, 2.7725476251732415,
        -2.489963280154084, -0.31549411511668496, 2.5029974293889268,
        -2.317373425166875, -0.19977749040882434, -1.1877453780413005,
        -1.0579355732907338, 0.2147429276730873, -1.6033026088416873,
        -1.3247900574299587, 0.06391833552981664, -0.433349991928581,
        -1.8843613523061813, -2.8731608501134716, -3.133869638630556,
        -0.30289611955477014, -2.3894335119670886, 1.0233776087970385,
        2.3376206609459214, -1.0903537963150978, -0.48699934013296037,
        0.23078186839406256, -0.8624431488900305, -0.6446732618812966,
        -0.7958737237500534, -0.8532826572325335, -0.7310527661777706,
        -0.4605790808495383, 0.837971436014312, -2.7934726764292175,
        0.6897771937759667, 1.4222899102085038, -2.6637620047572645,
        -1.3737925880191124, 1.0756632556641785, -2.154241443646862,
        -0.4272166425839927, -1.3849529450273337, -1.3515305980657444,
        -0.560033988395502, -0.9359482182695771, -2.037121425728011,
        -0.42848873193450626, 1.3209942009155833, -0.9155778992670188,
        -0.4116179583013248, -1.6304260972039488, -0.23590410302025655,
        -1.2528108537489706, 1.6699103582760408, -0.4626362146586151,
        -1.8394220283425773, -0.25610862421045033, -1.6161950961732974,
        -0.5417162919299828, 1.7971024594889378
      ],
      [
        -2.069719075918104, 2.8113137206374628, -1.170155526174297,
        2.775657653996125, -0.43713148089947734, -0.5354749343085062,
        -2.198737445325088, -1.4795365978499173, -0.44931154615731966,
        0.1158645645408408, 1.6734031287326594, -0.6837893117600825,
        -0.25047920382331595, -1.5565729404536113, -0.6118766768399304,
        -3.201662127142671, -1.5694915946686243, 2.077798623456079,
        -0.9790110183528448, -0.7263772856871158, -0.8155517436770731,
        0.32449454861468463, -1.2273778139774658, -0.20695547185747465,
        -2.2722602103070306, -2.215894386064673, -0.7446702611703898,
        -1.470984693402352, -3.6107482790270673, 1.862177212798876,
        -2.1377630070532354, 0.16849761669123067, -1.1724192097021566,
        -0.8454667630233452, -2.0891276815237885, -0.5576988778594517,
        -1.6502555669632097, 2.0642052783443487, -0.1955492017196709,
        -1.7342237398431342, 1.8324864738681834, -2.4794929779362493,
        -2.1153669247973066, -1.5172148182674676, -1.789068028029075,
        -2.76185501847935, -1.150438763099408, -2.2236109167875506,
        -2.125806981659254, -1.0720089441208052, -4.39180032162071,
        0.1752540447575513, -1.4365625626802154, -0.37511991936896255,
        -0.8688857448919209, -1.6877989599036316, -1.6985695238535317,
        0.6402807311033092, 1.876159132792822, -1.2138666237714482,
        -1.374038678147489, -1.3703222603460983, 0.36962859857088787,
        0.10803016897756035, -0.6223267791954804, 0.7904012662751578,
        -1.7658365698765892, -1.3234828517826145, -1.6597784146556718,
        0.2628920386849165, -0.7391574180823345, -0.37625973450216177,
        -0.2711865820349955, -2.1846427333345346, 1.4434457131295673,
        -0.3067069925549158, -2.568761601746876, 0.8392610997306819,
        -0.24795516274391885, -3.066237245147818, 1.1038105174830006,
        -2.4184975820973778, 1.2919839989742496, -1.2964060610687886,
        -1.4027107936124972, -2.0695797218344336, -2.064961521646435,
        -0.660543233402844, 0.8775655808504655, -0.08586789672855748,
        2.0005582584316786, -1.2899011496616664, 2.264131140080692,
        2.0264520858240966, -1.0880773534396413, -0.25286678886023184,
        -0.2962464273027016, -1.83763156620757, 1.8559336387363967,
        -2.756162704132853, 2.123404097035349, -2.693201665756647,
        1.4709970496597886, 2.004995785348853, -1.4527045079449254,
        -1.5528289636083883, -3.2653788303218163, -1.6846109793419595,
        -0.3437599190792076, -2.134196800645953, -1.4130951225678072,
        -1.2894048007329053, -0.20837465967686142, -0.8217756637842241,
        -1.569887159196256, -0.6710701222774355, -1.776706468236546,
        -1.2254499499089597, -1.4662680337282386, 1.6859121472604186,
        -0.10595224457535282, 0.9441501267336226, -0.9039427887202416,
        -2.4641398229189013, -2.5730971721892364, -1.6114963164174627,
        -1.5224958416051348, -1.2131008933904448
      ],
      [
        -0.9035189390112688, 0.04545266302582892, -1.4238343024098388,
        -0.8316692625106359, -2.2882084701300354, -2.3291889594894712,
        -0.5286469710816628, -1.0722712181241072, -1.3666380033928296,
        -1.04620571187468, -1.3906623120534545, -2.4255088522232615,
        -2.104340180073952, -2.457220349593147, 0.30768583002844857,
        -0.20538484050105382, -3.639530688363652, 1.7708840023292367,
        -0.3151197855470099, -1.8943227925078125, -0.2197322988612963,
        1.2182812725941758, -0.11482203509593554, -0.8453628271958503,
        -2.9255461102829226, -0.7364766097705248, -0.3855306603764207,
        2.3519837919635687, -2.24775023564681, 1.1520402066525355,
        -0.9653070782483779, -0.21912434723454124, 0.5163772881092634,
        0.8005161700919271, -1.610759776688154, -2.8454424957639226,
        0.42398520144027746, 1.4265291837768086, 2.1690602688175873,
        -1.0285298380743995, 1.0474603929462218, -2.5118428155176935,
        -0.3633752443429495, -0.6632667408737385, -2.08374979581618,
        -2.5575798227828397, -0.207441457203344, 0.018548172182378767,
        -0.7775993339189716, -1.2675108899490914, -1.400166818779029,
        -2.1249182852254482, -1.0601661162391156, -1.4201008547875211,
        -0.4277632704948788, -1.0396426882555663, -3.5363356123069254,
        -0.6112867861962349, 0.17691978834624986, -1.2415362395543297,
        -1.524322199849802, -1.6804344896935395, -0.6952774264327376,
        -0.8785318153336508, -0.7985737320072971, -0.47762502591495765,
        -1.5059853500629947, -1.629075649545475, 0.08132510269333348,
        -1.2394622853678363, -2.425012358739385, -0.35521164263337834,
        -0.24413090117189082, -3.295792364867203, 1.6117391245114643,
        -0.2697394448851815, -0.8167776410086625, -2.027226805431045,
        -0.47734078188856793, -2.4335404305514134, -0.17976835083896875,
        -1.814154537823227, -0.39476343476853987, -0.3469853340572781,
        -1.264761936168856, -1.5037193253557062, -1.9677635201779575,
        0.672299925826512, 0.6866822888507049, 0.2866970169131553,
        1.185892353863998, -1.5788112740506475, 1.281270435068575,
        0.43175693129028025, -0.9935651694777164, -0.2218748369677407,
        0.07490783597752512, -2.308296027884653, -1.7035237801989522,
        -0.15225854246362674, -0.5416861194937456, -0.5172950213012646,
        1.6538558133547467, 1.7707925344521578, -1.8854760227877538,
        -1.2658749346274991, -2.1752017531970194, 0.7214290096779559,
        3.136572937496619, -2.589866617700642, -1.072800751260839,
        -2.841239622779278, -0.7707103698957006, -1.9890120799906832,
        -1.033408484933718, -1.2447020186010862, -0.07390828091923515,
        -0.16292564288631764, -3.810977139499983, -1.3524335841969437,
        -1.2347645416416932, -0.13504996161714578, -1.5225660646131747,
        -2.0425281550640704, -0.6827968831135839, -1.7237452397888422,
        0.8356579332181908, -0.1366673214403078
      ],
      [
        -1.377947082009252, 0.08608052265897677, -1.6086939374768257,
        -0.6891825586067007, -2.877568275327504, -0.4798344982527502,
        0.08905050319196595, -0.9307362518994924, -1.947440366296277,
        -0.35943907289182353, -1.5159800283589016, -2.1633887928030413,
        -3.029291164481429, -0.4495395124041633, 1.0237432453667201,
        -1.071283390013098, -1.0326053160464346, 3.062483188041538,
        0.06392713374960107, -0.3156556962503056, -2.6954866531887336,
        2.5674543793547118, -0.3483031418504867, -0.9525791453003456,
        -1.6579702706485506, -3.085502312415473, -0.11592012881484416,
        1.2458019845961947, 0.12154460486942795, 1.3115008068356906,
        -1.0858699673887595, -0.19683077902635174, 0.722986304012344,
        2.1513224250526566, -2.928752314561567, 0.7081901210820014,
        -1.1109370839681243, -1.5084793488001162, 4.575508703600465,
        -1.260609198361511, 1.1675340901083848, -2.0048008682610003,
        -1.5504889425947133, 0.8240487689307401, -2.9041453505906123,
        -1.304621516157699, -3.1108953391840792, -0.47668289882763715,
        -2.0219529214898295, -1.091454985185311, -1.3436023653373732,
        0.24783477259179626, 0.22027438232076824, -0.5982500902379705,
        0.9725174898058074, -1.650045497979172, -2.0423289952404096,
        -1.732841773716252, -1.1232449727154838, -1.532714890069096,
        -3.16355757622118, -1.3654255501866284, -1.20101246272487,
        -1.9883945578891995, -3.367072810838791, 0.45530324759776675,
        -1.5492709745619222, -2.323845620009395, -0.6141584049718799,
        -1.6835738480221747, -1.8716272472345208, 2.6748838285213887,
        -1.8709682789065523, -1.8655397712438566, 1.828691472459411,
        -1.174511065067535, 0.1474204694857598, -1.1643507974491425,
        0.028068687231174873, 0.9818833283692204, -0.38765296115947057,
        -2.946827947528159, -0.8388457133151571, -0.578622572819775,
        -3.142983228336794, -0.7401116260564947, -3.1075742421962778,
        1.6691598105868743, -1.356095280945409, -1.1292886894940146,
        1.8604219165356612, -0.8973128133768083, 0.5626971054492265,
        0.19390282841494455, -1.1446129965610006, -1.7324768266567587,
        -1.8530267158008427, -1.9943649354727584, 0.14872662070312126,
        -0.3352779934380415, 1.187667607907385, 0.10970188574068046,
        -1.0127330262276144, 0.27046257654100453, -0.25828987470164666,
        -0.317085659934718, -0.9673146031403275, -1.303647478906855,
        -1.27589129137636, -1.2095618367979835, -1.5151314342806603,
        -0.9880735254613842, -0.6972324945677291, -1.9668759976625627,
        -0.5973759416928599, 1.755346598875739, 0.4679866467506248,
        -1.5519999104418738, -3.1588472772625833, -0.8119902695626093,
        -2.4099195372224305, 1.2720770771424048, -1.0634333228558577,
        -1.6981580474926232, -0.04176535218160423, -3.056190127712882,
        -1.8694337012694298, -0.17735308315486456
      ],
      [
        -0.6748030360667053, -0.047923281853222435, 0.8581041191625624,
        0.8490952230406873, -1.1759910877787019, 0.5194697224548149,
        0.3883370186758704, 0.513821117571627, 0.16273384830004933,
        1.320591665141707, -0.01608408058713081, -1.0307369623341407,
        -0.5228289424490251, -0.5855667786306332, -0.9195148273927695,
        -0.32200718095819836, -1.5572067222811712, -0.931173620471524,
        0.08627989222797551, -0.5327956934500507, -0.6357038312166383,
        -0.9385821145168418, -0.1272927647020446, -1.4617415367504496,
        1.104718324965083, -0.6583822341628344, 1.0659109396747173,
        0.3353972205508223, -0.43583189888587026, -0.23635650235808675,
        1.4595896013457532, -2.0598325527286607, 0.12229440895144535,
        -0.23465569761179356, -0.8433555912747313, -1.2323460890418236,
        0.18837629146970492, -0.0026785937870112027, -0.8111817722472038,
        -0.7981300322089453, -1.6478033872013529, 0.4430807073382234,
        0.5333658937577744, 0.3748744544585977, -2.7597932524060993,
        -0.2905539523990789, 1.9264857633648704, 0.48729628924367635,
        -0.8689047563548103, -1.0789786334267533, -0.4381030177579221,
        1.2114378636480365, -0.13871047605189443, -0.8683295397124677,
        1.1946387885717158, -3.2368943502183645, 0.6598136620130501,
        -0.5449708336328543, 0.4877040589728513, 2.1707857418804335,
        1.4769923132952003, 1.1846591824020116, -1.5479729205205826,
        -0.6827530445423114, -1.1859147180696405, 0.9764107001404158,
        0.5740076541954917, -1.5631882510457313, -0.0474419110439397,
        -2.2622569439993554, 0.8172735854490134, -0.37439805705770757,
        -0.06117564416758633, 1.0829785633394906, 0.3447294878825136,
        0.3552726306124931, 0.7742440050781796, -0.11228662938906943,
        1.6895924270412168, 0.34491118851018576, -1.5062508117600102,
        -0.04769684361916513, -1.065795831785002, 1.204255261781232,
        -0.15424378146395018, 0.2920480285691611, 1.2080649423953984,
        0.07821591354385683, 0.4856372823684679, 1.3869510117335504,
        0.2107997646954682, -0.13073532449926398, -0.40306462438504026,
        -0.609204893216979, 1.1522402655264619, -0.5102123414379389,
        -0.8562251687220377, -0.14198530152902974, -0.5180979684330875,
        -0.01540065189844895, 0.6997090978901929, -0.36238485466590387,
        0.3433313408623108, 1.7313290397779282, -0.14376350216087766,
        0.7671287550321318, -0.5626461239991328, 0.17648676737502395,
        -0.8796375168291736, -0.7116053372840825, 0.488871546553381,
        -1.006865373987791, -0.5455564770628394, 0.7159725451098314,
        1.025771800892545, 1.6496966227679781, -1.3124605760653278,
        -1.3907909358543147, 1.3331905024717936, -0.21027347223077275,
        0.7585610505705611, 0.09418702017655335, -0.40150469804520095,
        -0.7382722734835728, 1.2749017231952724, -1.1512257975748867,
        0.4531899772756261, 1.9250947143800494
      ],
      [
        -1.386102024743441, 1.3049289627037728, -1.094605419105408,
        -0.5811967987488483, -0.5240795032084914, -0.7367547906250267,
        -2.5553809174050435, -1.9384625307273635, -3.7108173968901315,
        -1.495311612357569, -0.9300633087619411, 0.36843907465820974,
        0.7185650091504618, 0.3197147038761044, -0.49118017152085064,
        -2.6128782989816886, -0.229464132717796, -1.1321830702969233,
        -0.41749257513136256, -1.2835268305022207, 0.09999343554708284,
        0.7045743837089601, -0.9417972347768325, -0.22389983215592044,
        -2.140579500767292, 0.6107354769293084, -0.921298678876558,
        0.12594007232331128, -1.4439346908013084, 0.3326761705343128,
        -0.5233129104498883, -2.3236575815726375, 0.8918996693868668,
        -0.7785491134006753, 0.2792256058185903, 1.5867644877598928,
        -2.6698991087706836, -0.03894547238992831, 0.1746266164561204,
        -1.8261872311855523, 0.16680398396738527, -0.5011822078723397,
        -0.6452845457803048, -1.5779338771310056, 0.26581550375036955,
        -1.4497501538391786, -2.6022178194772723, -1.4877746900594455,
        -2.390621956736116, -1.1783569423858213, -0.7035337259967326,
        -2.8480879826880376, -0.932593763008778, -1.6046230437205264,
        0.030779443433464664, 1.1963892150625877, -0.9957549720061871,
        -0.9133510213141358, 0.033833118778989354, 1.2203536010661056,
        0.45883030792386764, -2.9765981462556983, -2.28906095891593,
        -0.5013624750793854, 0.05384015925247371, -0.8976720063637793,
        -1.5112308915373853, 0.954883061587362, 1.1315644680771266,
        0.8144539387038324, -0.7076374394563401, -0.19242968899960095,
        0.7053808158054639, -0.41106568775347385, 0.5381054757561355,
        -2.3311277100723267, -1.9706819160180176, -1.3202728419981993,
        -1.8058019045608669, -2.1019398342987903, -0.5939623831184191,
        -2.826879195268735, 0.859393781830269, -1.5705316140917644,
        -0.5486035501520214, -1.0795430393436367, -2.5797358155948404,
        0.44615787445931815, 0.630599527167899, -0.38273019234664335,
        0.05534123172727431, -0.5987593377448295, -1.2896468298902544,
        0.4455404045476145, 0.17513670043504617, -1.226992085811141,
        -1.1586264796955077, -2.745743235875645, -1.6410087838224778,
        -1.0425181445147025, 1.6120433364251765, -0.7983047514698992,
        -0.7374905308163299, 0.6281920337060859, -0.771832081234239,
        -1.4653558042451054, -0.6433194913673448, -0.822333178400124,
        1.4772874852783906, -2.6558266701981355, -2.028275495113183,
        -0.5576296162196986, -1.1734968159249395, 1.3519251743350604,
        0.7595749527698794, -0.03149537874741187, -1.297613560987117,
        -0.9804572299027571, -0.3365515075077954, -1.2445315532691943,
        -1.3159877862533944, 0.15872822535316913, -0.19382959062048544,
        0.10799749697822539, -2.083319137047246, 1.2990343142766199,
        -0.32238758361139547, 0.6110612642609268
      ],
      [
        -0.07119380227172392, 1.102351043262255, -0.1053149592861488,
        0.0246479955550998, -0.10354738965647764, 0.0781491530150389,
        -0.5460938185701159, 0.8059992573088173, -1.4042780731549735,
        -0.5433895012881783, 0.4487181321333845, -3.1470106523541315,
        0.05404136888235763, -1.2199092507587526, 2.7932492538912617,
        -0.36849317795734715, -0.9933896749476568, 0.9062694958888818,
        -1.0666165981373696, -0.3620546751212833, 0.050530888939307406,
        2.3476017451470392, 0.07915189782195312, 0.8902994983536624,
        0.335475236225802, -1.4409273877434046, 1.1726872486198088,
        -2.0553181066262542, -1.4736743581988025, 0.48177020598746073,
        -2.1135462404872847, -1.2528542106934215, 0.8368820096573555,
        2.7754376855804352, -1.8743078251429204, 1.4478692007431706,
        -1.7939657470621029, 3.0195141102709564, 0.9275569596682796,
        0.5433830922541183, 1.8909684391933737, -0.4307669495331283,
        -0.06136365128416898, -0.9588968688332186, 0.3898707255659562,
        -0.8845395634135215, -1.9953864679122042, -0.41210183322586685,
        -0.8464621602230602, -0.5072497648204182, -1.3590188844090436,
        0.5601715484473688, 0.5241748028304875, -1.1689453187539056,
        -0.6281384614470436, -0.3380796414579774, -0.8194949325326915,
        -0.27197874245250464, -0.6345392270459185, -1.4844381719032227,
        -0.922862152194735, -0.4238770996018954, -0.036542885267789635,
        -0.9322521406618836, -1.407438830157193, -0.3937710875926516,
        -2.2915903107032203, -0.5644600597604132, -0.062125583555230804,
        -0.711643357894352, -1.6768584939855873, -1.2639869700594184,
        -2.009929712752365, -1.056318417166103, 2.920848197543828,
        0.02570402932433613, -0.4168563007756303, 0.3135355460427426,
        -1.2148539967327934, -2.3140464559213765, -1.0478007591694714,
        -0.06633392644831206, -1.3025241618527637, 0.24948981340105422,
        -0.9071933956445215, -0.8168308096166371, -1.5757440076441496,
        -1.1257692088951838, 1.0876982329963065, 0.5775196876878614,
        1.750274396108071, 0.6346477384478375, -3.0780056842383505,
        1.929579872628205, -0.5923691430205534, 1.4053517203438781,
        -0.7367624061861839, -0.7243807610824533, 0.16227990814784646,
        0.3015976883253754, 2.893461855500826, -0.020751797719653072,
        0.36084017434164906, 1.1660594601002188, -1.8160670440238507,
        0.0030084240662940635, -1.5871873560368763, -0.8338692622561504,
        -0.8212749722755067, -1.4439574459875812, -1.2189658234967757,
        -1.8126529740088198, -0.14084719876663604, -0.7367651580511405,
        0.45371715127952605, 0.4783594046642547, -0.5642236523448397,
        -1.3917651999453193, -1.9477104153624976, -0.06517409060990188,
        -0.7138931650296069, 0.4034855299877177, -2.138816682601481,
        -1.7436716117771947, 0.6091534374559626, -0.4180402978407203,
        -0.6718754399194458, 0.8281178566738299
      ],
      [
        -0.2194879598510589, 1.3965302907822814, -1.214329045655311,
        0.7650527287118476, -1.4176375823609013, -1.2218896500437852,
        -1.0226252283374828, -0.8171693258843413, -1.8479715583474607,
        -2.4528270978471256, -0.4699798381521644, -1.0174230440111331,
        -1.6923616089769444, 0.6862673616613928, 1.192338111370225,
        1.511506297406543, -0.5456877414678303, 0.3861609086652366,
        0.983184393598069, -0.3840194889663335, -0.8901162231363924,
        1.4108662915955423, -1.4913190198262714, -0.8631318705603129,
        0.4177180105773117, -0.7255017282951128, 0.2868476329291581,
        0.5780115731530743, -0.22033630439775356, 2.0056575936799566,
        -2.4583004342423638, -0.44945477085057894, -0.175377476823795,
        -0.11549024116493514, -0.21987642365123916, -1.0181408340365095,
        -3.523090853670331, 0.9388110825188293, 0.6517246308657482,
        0.4701154536499219, 0.6049154721412884, -0.8351224891651312,
        -1.3421658147987194, -1.7936820444854231, -1.6056033578325017,
        -0.47018694966377816, -2.869013025515941, 0.6978066145662011,
        -1.659501420368566, 0.9077341412729458, 0.807010128425484,
        -1.458501967456822, -1.2764358515783247, 0.1759026849481602,
        -2.1139758400413986, 0.9054304527582788, -1.1921731637702841,
        -0.7729859202158277, -0.7915941330510602, -0.5134883201158228,
        -1.5943287978194198, -0.3134151037285821, 1.285053518916974,
        -1.5246254793698928, -0.16074365709061175, -0.3163045427915828,
        -2.542201076848257, -1.6397056286233747, -0.6099142458567232,
        -0.40858612583602355, -1.256316201767254, -0.5965560745194725,
        0.3150501926314451, -0.598501848190259, 0.07353662900627357,
        -1.2488210983645929, 0.8374241162917215, -1.4817558462574079,
        0.40339725177439445, -2.941783536858785, 0.15577033141917196,
        -2.3063806021803237, -0.953230918846818, -0.923404827171057,
        0.05123889968012541, 1.1046000835676997, -1.7198834733560253,
        1.2079729769187644, 1.72378123522597, -1.2956722257764823,
        0.24036252184073004, 0.42381235062567585, 1.076486006268584,
        -0.9242764750001875, -1.265409687892649, 1.2878753893788033,
        0.3549008975750456, 0.17545865892039436, -0.5669440248616372,
        -0.5712821671141416, 1.6662825960771201, 1.2471324954670766,
        -1.0993591503722002, 1.9507052828722007, -1.358707661748847,
        -0.8952021548855839, -0.45646332813728524, 0.05300484679052825,
        -0.3386263064770981, 0.6711996745634197, -0.7123833773682265,
        -1.513497091599118, 0.3047979581476291, -1.62682441421323,
        -1.831774231014422, 1.050936230157963, -0.7073562673423147,
        -0.473276918450321, -2.283510193245049, -1.3375066035189362,
        -0.2601352436242766, 0.3994661783425898, 0.23395833631885662,
        0.26786511671411034, -0.8037952520847997, -2.9453553046580407,
        -0.3392109573151998, 0.2085039890289345
      ],
      [
        -0.09573676136456097, -0.21593417930997316, -1.3046420807367598,
        -0.1884902962693762, -0.8039241072642076, -1.444501840361433,
        0.48086948027744963, -1.2473837988058076, -1.3849080278548833,
        -1.003506348658541, -0.9990793508212952, -1.3102363013253555,
        -1.3130969635691865, 0.12455143330749836, -0.9793264195226722,
        -0.09477516902684098, -0.6847370458082563, 1.0064326748637098,
        -0.3902961796038328, -1.2720273524424535, -0.4633586337522622,
        0.29365060063294784, -0.22733269941597012, 0.054819486807794644,
        -1.7753694692870634, -0.07248019098641548, 0.00479251735868741,
        -0.38029465576905735, 0.9893918325246743, -0.13160186034236188,
        -0.931035487151451, -0.18200505805491213, -0.7787352370930534,
        0.014577187329902529, -3.0467074030079253, -1.243120922771272,
        -0.8109603022366041, -0.11257758265960881, 0.2463274954125709,
        0.08098695707219593, 0.09123752715204765, -2.4256683472607015,
        -1.1169563103500375, -1.3992524884343749, -0.8687782918051669,
        -2.238203983687983, -1.7709256577241217, -0.4615957734303834,
        -1.5391473088655996, 0.2806641276115541, -1.748753094493045,
        1.063235237968268, 0.019040342126988276, -1.5735193278925304,
        -0.7017843315693685, -1.0530473915924385, 0.6230966946700348,
        -1.6306317100368806, -0.5618230088250293, -1.6597151536119628,
        0.2594308914046327, -1.635785886964368, -1.228672374344114,
        0.3446399729634347, -1.1091692502816817, -0.6861587603822792,
        -0.09413151299961152, -2.1345031638114706, 0.14314123969597367,
        0.19415772971067535, -1.2231036789437908, -0.8341270796182225,
        -0.4206676445830447, -1.6478634433213597, -1.492257187278144,
        -1.1704350821344043, -1.332049358495685, -1.5545993993005216,
        0.9050866916232961, -0.27729982930741076, -0.16842823393114012,
        -1.553767611843658, -0.9080784317664364, -0.3190559000715426,
        -1.5049095565736959, -1.8332672090882882, -0.6548923544636917,
        -0.2652576826990619, 0.41237423994079986, 0.2792654065279811,
        1.0171272448790116, -0.5692609359280771, -0.5946364865397601,
        1.565714697782564, -1.1311798734159029, -0.5299872356881876,
        -0.3875226759012676, -1.6262232359441569, 0.592690178534896,
        -0.9248881468394475, 1.2330791070824916, -1.7636995183979347,
        -0.6030473600618512, 1.4478478886247783, -0.4002513427774708,
        -0.5532196711278331, -1.4812573783722418, -0.8042874209135092,
        -0.6236292097394492, -0.5262263268925629, -0.6997896710979369,
        -0.2870625805868141, -0.5625330667586779, -0.8290299496247532,
        -0.1944260176435758, -1.1638076207078132, 0.31916324439412486,
        -0.8272326932415519, -1.7986816599403732, -0.3084961056820927,
        -1.015534722305408, -0.9568721027927686, -1.4413246903578134,
        -2.5073918840116263, 0.6325204244691104, -2.281536527006573,
        -0.22810611434598316, -0.9245692826336213
      ],
      [
        -1.203478909988796, -2.034031964427306, -0.6200674540112506,
        -0.5571419095159302, -2.239331249896034, -0.274694620264636,
        -1.1168491848221216, 0.6016665007731857, -1.5548458458278995,
        -1.8787427881185708, 0.2747845341878282, -0.3922210160020929,
        1.2025527708048642, -0.24271810987146966, -1.378521191241455,
        -0.28306436171367255, -1.9155395754256188, 0.6617087383481098,
        -1.33268533771932, -0.44923950304406196, -1.8186656880740975,
        0.41407057000907527, -1.110395833827407, -0.21446833443559382,
        -1.5021755764977622, 0.8750357303085489, -1.4624632694324926,
        -2.1159030351343833, -2.2920161874106793, 1.8534132408140436,
        -1.7179623121845913, 0.4166019236721683, -2.5686476047752507,
        -0.0018514661895361725, -1.3774418633780134, -1.5437598555605145,
        -0.670714083158487, -0.3917008125746852, 0.8250362708923239,
        -0.45893355549693954, 1.9889097918322511, -0.9983660679255576,
        0.22631451826171553, -1.2881941566075419, -1.8091141777927897,
        -1.7441577289283898, -2.0974197100365406, -1.8495799401219088,
        -3.3803380511210457, -0.7412649589457233, -1.421354630998299,
        0.3302015518749794, 1.089131333986877, -2.252312813637491,
        -2.69294956415386, -0.8292928940115566, -2.163813337446693,
        -0.002216071817914693, -1.4050903261998458, -2.1656925916689627,
        -2.174418618892137, -2.083230371253879, 0.9660124466282031,
        1.5292456235068317, 1.096581829731656, -2.0830719281367513,
        0.8296652912115134, -2.207270874951555, -0.5441773460619193,
        0.9370478096804886, -0.23774210074482158, -0.5040005962987772,
        0.17614004692800853, -1.4596019831851863, -0.6728603439862555,
        -0.03867497978938475, -1.24911738416703, -0.11927880525093365,
        0.06131854631698592, -2.233905537091383, -0.6853956251344677,
        -1.7561021312658416, 0.18550293961478048, -0.15476926675949348,
        -1.162169574459151, 0.50953816676695, -2.4659299929479164,
        -1.6370530507121255, -1.5697312589818593, -0.08171523627808412,
        3.5828075826003793, -1.2463860268103895, 0.04054855348563109,
        -0.386326011605519, -1.3520656813271583, -2.517638122099586,
        -0.13350589747307004, 1.1940667563220466, -1.731550099325679,
        -1.2901650764327806, -0.6247675564604679, -0.23768120655908587,
        1.2297435732364894, 0.701851737197972, -1.1149925162988898,
        0.752927489805935, 1.7653485186848834, -2.089788803137149,
        1.4141725282744797, -1.4718225309248878, -0.38406069516135727,
        0.993774439973939, -0.3432370116700712, -0.5224711630904347,
        -1.3136474096875486, 1.704135384593801, -0.8691748517613808,
        -0.25031707614363796, -2.3557160272077686, 2.823406149744765,
        -1.8850520871018432, -0.5252052207648272, 0.03432407888382186,
        -1.5497619422431086, -2.00638078502728, 0.6627349472591194,
        -1.5575610459441156, -0.5812861252438287
      ],
      [
        -0.17591367565758825, 1.2824120092243492, 0.3669267497684468,
        -0.38689305011228353, -0.8131851134259555, -1.1058548557716303,
        -0.9991193897109584, -0.2728279060838117, -1.1662775276357276,
        -0.7182954842363553, -0.9399778764614367, -1.782977181293355,
        -0.7528801549937949, 0.04751230223408586, -0.6627322815650758,
        -1.0487883255426311, -0.17430665811077667, 0.9620058790951056,
        -0.4814311233529771, 0.4236232500174465, -0.27158376593832184,
        1.3556533896480256, -0.951424875955684, -0.7905902745076695,
        -0.430309102955078, -0.05221212335284798, -0.33270468166757367,
        1.027826250904784, 1.4061236432611923, 0.5450818823492737,
        -0.240191301994343, -0.5628562423359589, -0.9730817896146566,
        -0.5860275423089658, -0.16606732480802783, 0.2973973245487662,
        -1.3277323921571385, 0.39520644520202436, 1.1825431562253828,
        -0.46116714949371207, -0.3383092362561622, -0.3861891886915271,
        -1.239578573619605, -1.4786118854867862, -0.5286597033766064,
        -1.6415886420184416, -0.5592994272216241, -1.0264836571547822,
        -1.6662128361023913, -0.8278034937377512, -0.2815373903166986,
        -0.39649066697718344, -1.5523565704198643, 0.19265609884318338,
        -1.2616439653295661, -1.024523235817005, -0.09463015953598572,
        -0.3158253717173307, -0.0071044250113828, 0.774822369648089,
        -0.30188835567160505, -0.1949613208756246, 0.11381185712185389,
        -1.1489672812621863, -2.765219727958761, -0.9876701066832545,
        -0.2813230037663084, -0.6468380986435978, 0.0022844900355580176,
        0.14366262297975665, -1.7041784405862102, 0.05977317146423126,
        -0.3767457239716092, -0.09712295089979349, -0.19761249943173625,
        -0.36442423974314675, -0.8898252778559138, -0.3787134639478911,
        0.7062495441080404, -1.3605534464582343, 0.5141922766900573,
        -1.6218778923525465, -1.3167467556733339, -0.6424895788799052,
        -0.5526625828673573, 0.6512168552656292, -0.7557996687273494,
        -1.0440402542032605, -2.03025264393146, -0.7544124393627218,
        -0.3867068335227362, 0.1120229322420825, -3.4099617525019914,
        1.6894039767013125, -0.9573592609179794, -1.290508488315299,
        -0.7213858702360834, -0.30466116431202567, -0.114302627986942,
        -0.9180756420848404, 1.474276321638662, -0.32315861575544286,
        0.5884413028971375, 0.21584745057938684, -0.7193191781474535,
        -1.170773148947795, -0.45722717663921497, 0.5426973411621289,
        -0.5040213817207889, -1.6060090416952997, -0.510394367176624,
        -0.1468654873985333, -0.13202275438356015, 0.17635543969282974,
        -0.9288651523780381, -1.1621854772875009, -0.6187552026618105,
        -0.6207524510827809, -1.730668663299976, 0.1391572099457104,
        -1.6074179896107161, 0.18201613961286545, -0.8975058811396668,
        -0.9766201701835514, -1.0861035133681414, -0.9608823004654322,
        -0.9471698248670303, 0.1406483168990639
      ],
      [
        -1.7686056498530793, -0.7744268558364102, 0.17889268412198145,
        -0.7781002434920005, -2.5851963268996103, 0.3832320244354656,
        -1.2900676556949526, -0.8998346851743696, -1.0945155195214924,
        1.770397923737775, -1.2699499757429862, 0.1527136617139789,
        -1.2867996404393063, -1.7532682714032513, -1.3408759066526983,
        -0.9158075123073023, 1.0090078110143537, 1.5818349351508327,
        -0.6002757124790281, -1.189753190073001, -0.09599562977359155,
        1.5485608296927944, -1.0585361014126848, -0.9800063938133058,
        -1.1402813490149761, -1.1920956230826978, -0.1747317476617831,
        0.3929695508909572, -4.05523563010359, 1.983054033279934,
        -1.2676817474688375, -1.0496918139500808, 1.062997613389469,
        0.44574868471769347, 0.24809856268987057, -1.0135785698397668,
        1.636206474694253, -0.9246438274291652, -0.14195024635513778,
        -1.5396055405439393, 2.173408813900901, -1.6391410406866707,
        -0.3475673737254809, 0.7669507049184318, -2.323880691933241,
        -0.6763271718462379, -0.5918251519765187, -0.9367292888713937,
        -1.5125689337728967, -1.1017412148019887, 0.20046144502057042,
        -2.7515593797881945, -2.2433802453545697, -1.4625688016183527,
        -2.207879772519394, -2.3616342250429776, -2.272957535465721,
        -0.7879821577991105, 0.2546706758473605, -0.6088953104922927,
        -1.1242894223571023, 0.4407226580148218, -0.11775960608844066,
        0.21672536169592765, 0.17410392280246864, -1.9178098163372321,
        -1.3934088715122706, -1.4595628884857301, -1.2328129656117581,
        0.8981418827673422, -1.4869742635500467, 3.1105087236351148,
        -0.8943977221348791, -0.2934830485249053, -0.21830138046911296,
        0.3863940960129286, -0.0641411507379304, -1.2680146901814247,
        -2.175095458158501, -0.8711593788710561, 0.2509572467844124,
        -1.5592206617490059, -0.2847544967636672, -1.6715304771036514,
        -2.6911728151760173, -0.3970739521396703, -4.691007007519608,
        0.17997079450307554, -0.4904451752221186, -0.7594521153640281,
        0.5097225817006376, -0.012572027010103456, 1.4542519604226778,
        0.8497711832713095, -1.3771454679675839, -0.9890626240802068,
        -2.11942849519782, -2.1946943342236964, 3.329511399720643,
        0.20234381753696765, 0.6164442599740442, -0.24083294436024288,
        -1.0725884077531815, 1.1074011697141612, -1.0987369152728177,
        2.099663993126541, 0.6422733146280633, -0.29014662360203164,
        0.024728937750762035, -0.8323076686443927, -1.8277854391662987,
        -1.293518038054648, -0.272424867196533, -2.004890765049416,
        -1.078258270325417, -0.46945685883019583, -1.5208137993041675,
        -0.5567059822143523, -1.5390023347116968, -1.4666915351447836,
        -1.1122313063321752, 0.41187950937901346, -0.5426182684701636,
        0.09531679246671738, -0.4695385617015261, -2.5685345032207945,
        -0.6996085668047601, 0.3628324450167405
      ],
      [
        -0.8162094684206773, 0.9289077800538417, -0.28237717938190043,
        1.0038080286283761, -0.059990522767463916, -1.0315967992245714,
        -0.37215534115513127, 0.571995332827341, -1.4281821764777278,
        0.9845998299158071, 0.5952182045424087, -2.5003356612686134,
        -0.3192486583725196, 1.8139842407601618, 0.23503126334208638,
        0.4024410737427743, 1.2119308583674189, -0.24258792540033913,
        -0.6648010194814954, -2.7959943078759255, -2.195697276992177,
        0.6214393619805895, 0.9052328924159146, 0.6866251891593068,
        -0.5371917032939375, 1.3707063659795413, 0.5677415445068438,
        0.7068425212390982, -3.028831749639818, 1.2246401046618784,
        0.5447077589634838, -0.1784452375261036, 1.145051542591863,
        -0.41588508691672466, -0.5895609074021263, -1.2750959740293197,
        -2.176175809070076, -1.643628523982467, -0.00021498555494170538,
        -1.2012788942026649, -0.4988972692402099, -2.444983234369904,
        -1.7551034490750201, -0.13180340857754166, -0.0590269380482992,
        -1.0939133620337078, -0.6384679084053813, -0.5041233961172349,
        -0.35918215497828176, -1.3227253756199104, 0.18231231251477822,
        1.4190753635235271, 0.9754450406648493, -0.16338479218570082,
        -0.3024008354412511, 0.6912833762913739, -0.3838289269148076,
        0.07895231769678872, 0.41959064495308096, -1.7177270911649651,
        -1.0761883605849645, 0.15692017055628574, 0.47771739585016554,
        -0.4409842364152587, -2.3098714122378343, 0.23326636207822815,
        0.10331838307089045, -0.5262466439136997, 1.4968028909023288,
        0.14982721813212052, 0.33839089625736324, 1.5384045993791122,
        -1.876331818346694, -0.2923591179342396, 0.5505845864806077,
        -0.4770516934416165, -1.212705295317363, -0.9019698553519832,
        1.5755148378383823, -1.6477389529623887, 0.056597316833266194,
        -0.9096891059589439, -0.3932925284717813, -1.083211969687826,
        0.20554270277928172, -1.3763088066064888, -1.1630688036494257,
        -1.8108068542025002, -0.28985028771204935, 0.007460953009982479,
        2.281718143980072, -0.14570466549449, 0.11488673690491667,
        2.4899323766553576, -1.266123625297106, 0.12460867674779626,
        -0.6606443038371965, -1.4683711734627058, -0.5317371266215638,
        -1.41462841171018, 2.174982279949475, -1.5927655215666865,
        0.330237739678827, 1.0438124621868472, -1.683942173917506,
        -0.43154682081724727, -0.6306840659089459, -0.8290112555229994,
        -2.323221657680026, -2.112472590646837, -2.278240110195325,
        -0.20524773119324358, -0.9573918042706909, 0.33966380883561637,
        -0.22036662269718368, 1.0777876699929614, 0.34277925195576653,
        -1.2377621652270256, -0.5321064909595277, 0.7670336443052598,
        -2.1614574972188376, -2.1267350339939184, -1.4153356806999742,
        -1.1973923127402863, 0.9843838618867345, -1.5141446501785412,
        -0.9114849395202188, -0.15522717245059492
      ],
      [
        -0.2604980124818833, 2.5292297143896727, 0.6049537102798861,
        -0.10234305112179573, -0.2528824915518166, 1.4052445179865485,
        0.13212454150162578, -0.7363524721539273, -1.5729216517028737,
        -1.192382716075064, -0.14409004454031268, -0.5347487347217353,
        -0.8573142485750409, -1.4941737776908068, -0.04976907064058002,
        -0.8142702749253925, -0.24787782134118208, -0.2051269014125924,
        -0.9293649707325418, -0.7952881154399908, 0.8286350125511105,
        -0.08841379673047967, -0.8905577658724118, -0.004853076564499441,
        -1.3662987429988167, 0.4560314160579678, 0.6257281982412889,
        0.9558545656885594, -0.5328505114982439, 0.2699337711834911,
        -0.5738375364135503, 0.421178766938095, 0.49784605317175423,
        1.0234944126021277, -2.881895581866648, -1.385376503861627,
        -2.7031790122249784, -0.021089490289992126, -0.9407920593748735,
        0.2542930755489278, 1.0821836985788982, -1.0308242082968602,
        0.3970274162204232, -0.7335692320466382, -1.6573674484188745,
        0.4322153577611723, -0.9819235493840412, -1.0048007346019847,
        -0.8062757580659924, 0.2236562638129731, 0.2654369217003018,
        -0.24774550869492995, -1.155671659592474, -0.44179333621835515,
        0.21791128636911872, -0.2516091081859199, -2.3169854107467627,
        -2.2514218499422083, 0.13194921032151835, -2.887809731655121,
