{
  "biases": [
    [
      2.9267062079748047, 0.9658103884264838, 0.1008864399629109,
      0.16311797323946434, 1.5876156619747477, 2.9572756278110135,
      -1.4377690865270651, -1.7291609584989835, -1.0180371224174045,
      -0.9802781742247821, -0.4247132744907504, 2.05912328333471,
      1.1902720905092459, 1.0102320379574121, -2.0428839772166008,
      -2.002293313854388, 1.8001003131901665, 0.04731227219622912,
      -0.6780717485043456, 0.6639889653719402, -0.9810389614135262,
      -2.056243188143668, -0.34474613989219854, -0.9617877680406346,
      -0.6716651127333613, -0.30378643080504075, 1.5885524955396375,
      0.7819525850310761, 0.373171039923463, 2.030741754628812,
      -0.18717202687582327, -0.6305106261292042, 1.247945140836464,
      0.8632383421237562, -0.9276504136888684, 2.4788043934033444,
      -1.934637443851804, -1.0574552379502995, -1.5723465484341854,
      2.3105987145068765, -2.6571722316867734, -0.09731634454096892,
      -0.2547838804991615, 0.49047753096974406, 3.2682765208721913,
      4.852359515300868, 1.1539994568705032, -0.6064928923419641,
      -0.4224626187909553, 1.1888951210826189, -1.4258189904926866,
      3.8006231268410597, 0.20346805313079255, 1.2056462015343354,
      -1.482421271371405, 0.8451868749045531, -2.1214169986066174,
      -0.03632425870954779, -0.5150956787803092, 0.09376622794056637,
      1.3663982926868645, 1.5176901099120341, -1.0927817461715235,
      2.5396060112177197, 2.141663410547157, -0.81591752575261,
      2.1974365042808985, 0.21238602681258814, 0.4838440002186682,
      -0.7347814435200086, -0.29837458571655595, 1.036776821351591,
      3.399464338216368, -1.8134010625617683, -1.045175127951449,
      -1.4138102799453034, -1.2199772162161775, -0.01448694879981208,
      -0.5532811852778466, 0.5668786584200034, 2.1434395887141116,
      -1.7070100269054511, -0.98873149772387, -1.1310917681382988,
      1.1410868732593922, -0.2065468442593508, -1.4996934779623905,
      -1.3102623899266688, 2.2130618668254023, -0.8368966733386837,
      0.6339513583548239, 2.4570156392402374, 0.9879281169673454,
      -1.4434279139458333, -0.5449784750724737, -0.6358656162751019,
      1.4817106742172195, -0.9398418741857487, 0.6748702249843129,
      -1.5042980985496561, 1.477942139142123, 0.349704946046945,
      0.2934984038402012, -2.254469250296105, 4.299039679120799,
      -1.0619993722656489, 1.5290338649299464, -0.9279568912141017,
      1.9545166043239317, -0.8840033252838848, 1.012247206093482,
      1.678081608176176, 0.3898849750833696, 2.6179138734918066,
      2.911348518537886, 0.029681417893178276, -0.5902149186203232,
      0.981549632856681, -1.6601213267591388, -0.8433562146956958,
      -1.3521008783775854, 3.0233005490396048, -0.11291621150431413,
      -1.3081975424647725, 0.2893856649756056, -0.2678868555967136,
      3.0123462739308, 1.1574491494425567, 4.253099783561931,
      -1.9796709284234888, 2.2153214635295444, 0.0704578060862514,
      0.03805926807890692, 0.6515504063998981, -1.1433448177851377,
      0.6952372110957313, -1.037040858318625, -2.488237738451311,
      -1.2817469208957122, -1.4854842714557142, 3.027788759102806,
      3.1296777017718633, 0.8211043949777214, 2.753131999568963,
      -1.2561690671532568, -0.26832950276087875, 1.0387911691893796,
      0.8123461825148278, -1.8650875578812964, -1.8867073310138176,
      1.5982416673851145, -0.07089721426284352, 2.7817418508948935,
      1.1464644321260216, 0.16026553856439368, -1.7948316695527706,
      1.4124211723231597, 0.8717143492229827, -0.33534788616372707,
      -0.02002553135017956, 1.6634185956485796, 3.1623592043320774,
      2.33172239557719, 0.8029098022261938, 0.014517811081976906,
      -1.3157772862657615, 1.1111100259620623, -1.3205607559038832,
      0.6740777782367326, 2.587388201086013, -0.4429987780023432,
      -1.4999851267594562, 2.0683002266870765, -0.05545391115714388,
      1.0138573092105903, -1.4490495259490626, -0.26719320928782764,
      -0.8250648759262222, 0.013538998983595358, -0.8418676187200183,
      1.0299023057434982, -1.4715123939036439, 0.8465223638554841,
      -2.3460760233775524, -0.44037457413246295, -0.686911435134941,
      0.027598062137377744, -0.4898708375102492, -0.2595950808154073,
      -1.6305758583331456, -1.0338556122206097, 1.8605199135750212,
      2.0917987721802915, -0.5405745207077628, -0.022770922800666504,
      2.715528362711129, -0.6055366951822163, -0.3458908239066989,
      1.1906668649368655, -1.3653542964782974, -0.34690085128242804,
      0.32161273027908444, 2.0919128548093227, 2.315302168596209,
      1.9072278305302977, 0.23925867993834657, 0.039405312087310844,
      2.619457316219218, 1.8216542193434333, -0.43763627378066694,
      0.6237586728110146, 0.23113853661551534, 1.5859188823235426,
      2.5520506129230442, 3.601015881409907, 0.6682106895349665,
      -0.2630686110655723, -1.3199026879984677, 0.31073701349906646,
      3.244969418416274, 0.13777687374497125, 1.9816097383887885,
      -0.5072759961712168, -1.3210274813393919, 2.8679062083953446,
      -1.5770394468256845, 0.2320619846748658, -2.6445104129920196,
      -0.33129783469128576, -0.14269477975169187, -0.13244328279724607,
      0.1859262504659673, 1.0084906308916504, 0.7490185328701328,
      2.619877065195007, 0.4803434284210887, 0.37340070225573635,
      0.3400124203358239, 4.192616518230037, -0.10428105477136392,
      0.6928124208893985, 1.217878580146223, 0.17609234659216916,
      -0.02111325652471587, -0.6288696971234914, -1.2937476377645596,
      -1.6690953772775126, -2.565535740381753, -0.8702730637057927,
      -0.7654549024959152, 0.5812387393359859, -0.8375003249847485,
      1.9969385654824399, -0.940683793912222, -0.9193621239410872,
      -0.672354479808201
    ],
    [
      -0.17517532690047197, 1.7231180626633265, -0.7731805687984806,
      0.41722913195801253, 0.28503724834235045, 2.557971251760534,
      1.223550115717925, 0.4909072937642954, -0.12286524586445648,
      -1.2071810253304658, -0.5351315692350606, -0.14688876968419182,
      -0.9279665250625583, -0.9002941102160139, 0.6734367022729489,
      1.3006755982782856, -0.464141754510976, -0.019216925389955602,
      0.5461900049363086, -0.513028810363991, -0.07156283146316307,
      -0.16402453566462782, -0.58288974683725, 0.04067524500044963,
      -0.8134735750659947, -1.7851810538033996, 0.1950859750373321,
      1.0713254577449667, -0.47947325844583805, 3.4003789159267264,
      -0.1088709879916601, 0.9946938241360295, 1.1391352679689088,
      0.5496687413024924, 3.4161641686843733, -0.8730424835103884,
      0.39114611291490364, 0.3419282842935762, -0.3628064087427159,
      -0.9970225195367955, 0.42207260578823835, 0.04213791215561338,
      -0.1724996779308281, 0.36856761009506067, -0.8265201176373073,
      -1.345568657830649, -0.3553137674195098, 2.0744925223918185,
      -0.18368403297031075, -0.22753054844857074, 0.6293365803257613,
      -0.4350620840007791, -1.0306753660902561, 0.46008642771146585,
      0.08355355271252525, 2.0098619060990917, -0.9673570725356498,
      1.8521685573211928, 0.26106229906653894, -0.28362544531295236,
      0.3688813123487639, -1.3078317297947633, -0.7741838024934958,
      1.2480918105966945, 1.4802082016080378, -0.4959856770810198,
      0.952218748827913, -0.15653642631166695, -0.629352145720191,
      -0.7540248761135504, -0.610567132310909, 0.201110650381261,
      -0.8879106128852307, -0.15686731237774865, 0.16042997744777943,
      0.4884697138038584, -1.5747399452501176, 0.3362545465794,
      -1.8430390991910168, 0.6595328034856459, 0.04332826902413655,
      -0.2378128435841449, -0.910479806238455, 1.1080070840241194,
      0.15784767301968414, -1.511107434933748, -1.8994295000872907,
      -0.26139364217624167, -0.6388684381827319, -0.18808709623477424,
      -1.5819203332298037, -0.22756501254115377, -0.24089618838554605,
      0.8562632982673789, -0.4529429929980482, 3.3976315704718454,
      0.29385303457202233, -0.12408318018893116, 0.07850143496701889,
      3.887836069862123, -0.6245036715343495, -0.23987091822319137,
      2.2769187270355054, 1.6009263133648721, 0.09082414368943045,
      2.7834829820896134, 0.10815029974699235, -1.1673832858483528,
      2.0056509950139705, 0.6444400835015883, 1.4925648528273467,
      0.1191157495766562, 0.29246749106197717, 0.11594327318712495,
      0.4087440237048934, -0.4254558522334041, 0.6576969097203194,
      0.35545914170309706, 0.9535005945837868, 0.5873485631472672,
      -0.7962891715845923, 0.38927638055260094, -1.3683071991035616,
      -0.49881101219403706, 0.18708197715952452, -0.47056562057553347,
      -0.8780306165520279, 0.5116260131093348
    ],
    [
      -1.2298134414327166, 3.9523894629604945, 2.314432490910308,
      2.9505219220537344, 0.09128633988986233, -1.477205608762495,
      0.08811235214296678, -0.7804473730424587, -0.14263731130726395,
      2.5344454880743426, -0.9959068708366448, 3.4316244101261604,
      0.3088386619931356, -0.13808556236142722, -0.9164403867941374,
      -0.7001504073781809, -0.5383326422998094, 3.299226427417936,
      -1.3740879368744667, -1.7101004426145627, 2.5812315215991037,
      0.2548192492304806, 3.7330921281718408, 1.51219537958573,
      1.363602176251869, -0.2200737492524337, 3.3742777725148514,
      2.4193689008386303, 1.444718180912185, -1.5813484247354563,
      0.07345651113719981, 2.2569232672935926, 2.5582266008095362,
      -1.8988538920350435, 2.435794142940703, -1.1997697597400183,
      -0.7994896790198736, -0.7158344629816978, -0.020978681930486014,
      -0.3862085847534311, 1.0646013434841126, -0.12445954106055064,
      -1.7556655337610232, -0.10216636338849427, -0.8220572228461948,
      1.7520297743040203, 3.3363907446759296, 1.0567994534502747,
      4.119862924128061, -2.1362824620074314, -1.1061090064351662,
      -0.2718502438091987, -0.408301266941306, 0.2484752486167395,
      1.9264056829672571, -0.40043173099627904, 4.164020351037922,
      4.060669134135909, -1.3555503683121717, 3.4324094580100826,
      -0.0870516143427707, 3.3615060991106858, 2.8993320007535384,
      -1.3532638122096288
    ],
    [2.5181351156495415]
  ],
  "weights": [
    [
      [
        -0.4905529349938674, -0.4631635391961338, -0.82894258206075,
        0.44271920453580776, -0.3753283440020533, 0.5003698687762976,
        -0.11218414601425114, 0.653645307581583, 0.7453470236770539,
        0.5697996023515235, 0.6688917439384818, 0.6755473341609921,
        -0.8647762011515339, -0.6179235324347035, -0.7835035981614337,
        0.7272241017361324, -0.4930756328595003, 0.34189866114896916,
        0.9314723100636118, -0.6741840266757613, 0.5357626341977625,
        0.09919433486734927, 0.4882115875510916, 0.4078609530129527,
        -0.15305762547202317, -0.8349212813438727, 0.7995905286375152,
        -0.5180826597329722, -0.49792751613617653, -0.6593949633076163,
        0.7370610649117652, 0.005706331223429837, 0.4425904950901433,
        -0.06385537125311806, -0.48973119794329384, -0.5151624007250589,
        -0.029967410785917355, -0.8920332624117863, -0.29555710053233497,
        -0.8066318824523202, -0.41032722526928256, -0.41215234273251733,
        -0.33949760571898746, 0.03262170463538995, -0.5502194572185652,
        -0.7227107094944841, -0.7103153303066897, 0.6409016554150422,
        0.7319407413483896, 0.33969895150268253, -0.8411568307585867,
        -0.12720377081850237, -0.7343423687403902, 0.7193005552139057,
        -0.4020426392498641, 0.48498990230369954, 0.2440509916456123,
        -0.06339771496917058, -0.30191606712407926, -0.49698871178509735,
        0.7539830145904628, -0.8145885810845115, 0.014928500564014771,
        0.04450112535320634, 0.3663319957847822, -0.12614577586695022,
        -0.7425642566715833, -0.10881163836213967, 0.8447170275665792,
        0.6072855302334219, -0.37086740672557866, -0.5673602925171961,
        0.11511240456801777, 0.8450135517241254, 1.1747718209799487,
        0.35096055209578, -0.6670209839866336, -0.7215124578050301,
        -0.22402186965456589, -0.40458830518409383, 0.5810337358317267,
        -0.8758925202740875, -0.12874474148615028, 0.05551923674322623,
        -0.638047938778912, -0.33809575835643607, -0.5413894162822326,
        0.451717445761589, -0.2183026026154475, -0.05321263081553325,
        0.34640658719909595, -0.8636312692055839, 0.39097431523887366,
        -0.8378398883332684, -0.5472838486920469, -0.9281443094094244,
        0.24504060695258587, 0.556054175111153, 0.7394295822133952,
        0.7174387852276856, 0.6895481489617786, 0.41500342019253816,
        0.8134363459478106, -0.8487870185129974, -0.23921279875132223,
        0.604974091285066, -0.9508878838063239, -0.34094904984391716,
        0.8000262514868858, 0.14085414090234835, 0.3457888549503994,
        -0.3050515567312438, 0.9656814537285532, -0.8308832107953281,
        -0.2533145819618439, 0.535101952459117, 0.4460539947001034,
        0.968855068156641, -0.2469400097233102, -0.0740675049072116,
        -0.4333108547242814, -0.11340223153082254, -1.0905974316245892,
        -0.10266717289608467, -0.9336987130531099, -0.5354952883831043,
        -0.07877129347905686, -0.3050933966426782, 0.14134509874631523,
        0.9327867858917188, 0.6513137650009954, 0.0723433261263536,
        -0.1916784801096946, 0.11258891051241977, -0.02733420565398312,
        -0.5370134848639119, -0.567391556875175, -0.5704975365621471,
        -0.7684296424353634, -0.09848293573161229, -0.3818486348167211,
        0.7510215969259291, 0.5771058139063621, 0.5930084782490151,
        0.5733647790088231, -0.4703057366352728, -0.9934188720554711,
        0.14912180838108688, 0.7089719077162443, 0.0548707221700656,
        -0.41151446063080205, 0.5123646850712728, -0.37101813100457365,
        -0.06601183166076052, 0.226300481414263, -0.13972803380226895,
        0.21747526824058439, -0.029481549974291723, -0.7834414856294828,
        -0.7480102668266442, -0.29074170379080944, 0.05877963040473127,
        0.4074777173389329, -1.0874541036266245, 0.4293552071006155,
        -0.5138889599165584, -0.9112377992965274, -0.1251628190386231,
        0.3578663550241964, -0.8455046680479716, 0.2939810733286876,
        -0.09951357240399789, 0.7000384134836939, 1.1557954698847264,
        -0.9945261914678429, -0.40328408918091746, 0.23940807970209882,
        -0.622122860301647, 0.5920009571694896, 0.6042717021180257,
        -0.7413247505965863, 0.8546591636745633, 0.15472100290262625,
        -0.7520563843880158, -0.07930432258994924, -0.5424381990085092,
        -1.050240036408661, 0.7691782181876625, 0.6804413123441646,
        0.8544262222842495, 0.05503465377494443, 0.39411779450701345,
        -0.7315910690387075, 0.8911467414190791, -0.8227321268158355,
        0.31391464542092523, -0.6145898145186655, 0.5218815543810532,
        -0.80009143617004, 0.20549867220010737, -0.5097424531795505,
        0.19262769479710365, 0.5686055578615814, 0.35901460626421594,
        0.5598114509325629, 0.7752906826791066, 0.6350642729769177,
        -0.2298135541284062, -0.1887867288214631, -0.29451519608016413,
        0.37986355593367926, -0.03399864259827823, 0.24843818266013692,
        -0.2526494754228925, 0.7327658428690663, -0.37114806005703055,
        0.9896407187436618, 0.3491935156279339, -0.00022011194980523776,
        -0.11726103265674195, -0.6122584796871389, -0.474572550362169,
        0.020025665357982267, 0.6840579902250822, 0.08986664334771532,
        0.9511847228625354, -0.4939921852209676, 0.7399737112799454,
        0.5787646722779319, -0.27727057495659135, -0.7356579376433275,
        0.967453001798223, -0.8352254657640162, -0.7405525653416052,
        -0.13060951886010022, 0.06260241513110616, -0.9161820124589594,
        0.7585729249001355, -0.47528486309755674, 0.23704121433338848,
        -0.3685289087320798, 0.16196948033240297, -0.2029926028945866,
        0.054045557947588196, -0.4454353588844814, -0.9109667036267773,
        1.0290060864264656, 0.6825315648415343, -0.9919655525842801,
        0.6387742480400834, 0.398526771893609, 0.014435932637733082,
        -0.43880010911037376, 0.14422431775334027, -0.2562333844283149,
        0.8420299285128464
      ],
      [
        -1.5473402175236775, -0.7978039534384357, -0.9647901190286617,
        0.3494990542308101, -0.1308830005630777, 0.18834474379295083,
        1.0829068838127909, -0.6879025223783641, 0.3213763481934276,
        1.1964611596512054, 0.24734139302429586, 0.06728260616755832,
        0.5416288720132397, -0.3028767576595632, 0.5286632531621294,
        -0.46814626496226325, -0.4896153312848387, 0.5444782390265989,
        -1.0767596230432905, 0.2508154573969744, 0.20383912589431452,
        2.0842992844367734, 0.28307006868516627, -0.5037990197477921,
        0.687779755349294, 0.39173520888700053, -0.05839076560673289,
        -0.7558924200203888, -0.7057569296032423, -0.23788784245334002,
        0.15183491450333625, -0.559690710235585, 0.33898134105347777,
        0.15118521941434418, -0.5370680641430066, 0.558822911946007,
        0.3114868798518129, -0.24448826214278005, 0.7860794643421988,
        -0.7216757623085193, 0.9874260729201672, 0.05314788316325588,
        -0.6492663958279525, -0.09502348294462419, 0.04610848405845765,
        0.12264975261402264, 0.2756798401429639, 0.40773041824150696,
        -0.20267534583883645, 0.2848715980785024, 0.2218341730865529,
        -0.3718203979666798, -0.3248109469495205, 0.13319439752543175,
        -0.147029685499753, -1.0291376004223243, 0.9430588599422359,
        0.22937341264633318, 0.16370229161632635, -0.053308792303019964,
        -0.3206125497703337, -0.6070750974514044, 0.06723959556516516,
        0.27024602847451745, -1.4749768467173099, 0.22680532687101676,
        0.47405429957030737, -0.04689055281955771, 0.6018143578862997,
        -0.5106531051080241, -0.6697764925670109, 1.7206346854437449,
        -0.421087972201305, 1.0169460949437008, 0.7650542699950086,
        -0.3963075550201882, 0.5167281891923968, 0.9257696243796921,
        0.32946767056745235, -0.20121337182668045, 0.2618711009128338,
        -0.18053608444623373, 0.32452819715031284, -0.44923380629516063,
        -0.40815570918963456, -0.8146997912571728, 0.0902979800760098,
        -0.7145006436840945, -0.6581719733911674, 0.45766199735078583,
        -0.35735772979394087, -0.551904859807882, -0.6034047325430402,
        0.9245845500602417, -0.6105281874283675, -0.2564537085255542,
        0.21618966904257284, 0.8183921410002115, -0.426979232060232,
        0.8041685022147923, 0.39316653833860205, -0.4022887577304876,
        0.24869125635318812, -0.11006072078196558, 0.014941667284256416,
        0.07899198533398002, -0.5587095359258627, 0.4373861185478875,
        -1.242463996592033, 0.2814592361884407, -0.3898077856540426,
        0.18923809166129552, -0.04583926169682818, -0.02870621328718078,
        -0.5819148155394566, 0.6120097569643118, 0.7533205467476327,
        0.37558600559942995, -0.10593543222716763, 0.8914595135204603,
        0.7257558206260201, -0.786769075349855, -1.142836281807152,
        0.31188958050882065, -0.7165150385779251, -0.6392199622219811,
        -0.8374080933743704, -1.183602100499299, -0.6629983674655245,
        0.3900125395284239, 0.386622558902068, 1.072427649950002,
        0.6668561601356744, 0.38943645346046396, 1.1655273357976021,
        -0.8579702328655794, -0.6529966603755666, -0.03654337452356559,
        -0.5509973106707615, -1.1869999678756085, 0.26082914425094417,
        -0.5053599474759761, -0.6553284764821429, 0.13992384256036586,
        0.7659600841141906, 0.22397109528025563, -0.7995621606890604,
        0.700114908894361, 0.8908333800597705, 0.2913100190267028,
        -0.3803536155868971, 0.5436256524790979, 0.04567351819301167,
        -0.5177260709562618, -0.5681633535413058, 0.7682626302591873,
        -0.32777324909407585, -0.39030948227894524, 0.510726695802872,
        -0.5449706105577735, 0.07207757338480324, -0.593774043377023,
        -0.5652854348299153, -0.03184583156892923, 0.6310986109193282,
        0.7022861701184097, 0.10555253425566458, 0.6559857762150971,
        -0.6930072606615305, -0.8670486327466871, 0.23454745451805006,
        -0.0774265362650195, 0.23856009715085552, 1.8007301015253272,
        -0.7121719754711963, -0.6837759061702211, -0.2655168749158888,
        0.29877047838457615, -0.2285718071123182, 0.7572230643793195,
        0.49222899996080416, 0.21644224329657658, -0.42946429361253113,
        -0.42691636275248973, 0.9035591532353765, -1.2574318884127664,
        1.020805509192472, -0.9086726185738042, 0.8547694530431191,
        -0.7080205130516177, 1.4665107173960346, 0.8358814003899286,
        -0.13984505732720684, 0.23191339912957937, -0.09270273434622175,
        -0.9055370966480489, -0.4801674630565462, -0.5599277711011488,
        0.6446516185965598, -0.8840658709419347, -0.11782546888561848,
        -0.3052997231813571, 0.3000675543077528, -0.9143143426810261,
        0.3156715247689263, -0.9836315714967042, -0.6155983562150642,
        0.28384979815447875, -0.1122260474280935, 0.39413094606225246,
        0.9671312628626237, 0.9898897303269519, 0.013660598013607254,
        -0.07694633921654219, -0.13640806375502015, 0.39362512062388977,
        0.8889247311565169, -0.7647999590693522, 0.4688957584096288,
        -0.0845195170192456, 0.6082975704271105, 0.41583229995619,
        -0.5322299192188451, 1.5236387042468549, -0.5162372005876106,
        0.34168861879018425, -0.08469959368706931, 1.0455368704313144,
        -1.1710777573976274, 0.47166077059173794, 0.5313608918430022,
        -1.1025391330012808, -0.6950739687314879, -0.1075060509098722,
        -0.04688704486165015, -0.20818155062586785, 0.7629967677758244,
        -1.081030773728578, 0.06464042136773901, 1.1776040616102919,
        0.4756563614596094, -0.38040676386497935, 0.7502511820422118,
        0.6071716223944121, -1.0940066958086292, 1.9500535740648217,
        -0.9856090237386895, 0.24525338964991483, 0.08606441823018424,
        1.7792285543404145, -0.30838515691675444, -0.5208238903014072,
        -0.26513612062437697, -0.5500372155851141, -0.4113419005748037,
        0.7804637651593553
      ],
      [
        -0.8714319291727987, 0.8102453451380291, -0.8879361999448356,
        0.18652709288973618, 0.5146456908545164, -0.06384276883939069,
        1.8780470272543632, 0.8919182107146625, 1.8939281425507881,
        0.712645713398734, -0.3696902263138483, -1.061997000798422,
        0.8660633956464255, 1.284476345928026, -0.9714857924963886,
        0.8658269427570815, 0.0988309973097213, 0.22763501848611858,
        1.4721806995335376, -0.011624663395802953, -0.8082431668178414,
        -0.3986513349361369, 0.28424556725988764, -0.647749129796972,
        0.46434951101801425, -0.09315412326033329, 0.5909984879084125,
        -0.16495460236936066, -0.2302624647515062, 0.7001433393891587,
        -0.1255585900015197, -1.1351106477601125, -0.2625397087324026,
        0.4763618908819184, 0.07696674594318065, 0.3446844359009423,
        -0.8428587002477728, 0.3104535959055469, -0.6027969913993548,
        -0.6725989018026549, 0.014408819792493805, -0.46853855895991214,
        0.2819687683103564, -0.6037424553147264, -0.44888619094715926,
        -0.7168236721865378, -0.8669050428081251, 0.662008978008724,
        0.7225607357706296, -0.05102373758497418, 0.5707399805946453,
        0.4911348447579797, -0.047520725849698284, 0.41909121821032636,
        1.1861616417396044, -0.9216890642623935, 0.6355335046785974,
        0.5984813676491094, -0.6166517547194618, -1.0631172568198604,
        0.5757223311547162, 0.26696713642017367, 0.06345563788227104,
        -0.9334805354723846, 0.31849884648702104, -0.4156537679240868,
        0.23504164014050244, -0.5405106404385638, 0.05727145486859221,
        -0.8400253469987661, 0.04131070369323743, 0.9517844704061997,
        0.6372609067790365, 0.7778153913292205, 0.6221356537841585,
        -0.9221368340168256, -0.2711045798801208, 0.21232059679236515,
        0.5112488670740153, 0.02081684098560847, -0.2700747675370495,
        -0.5575140145628456, 0.550867386179906, 0.3946673608473179,
        -0.7978656077137956, -0.017729970532307383, 0.9224274101297607,
        0.07858544306013905, 0.2639366367781934, -0.8756417302949728,
        0.09805781170129625, -0.731415725717096, 0.3371328722968235,
        -0.6427961708988735, -0.35765526417178295, 0.05053996460282842,
        0.03345474523587808, 0.5857985838167935, -0.24471268812035804,
        0.7619002459100922, -0.21921378394759078, 0.6955389048977921,
        -0.7074117408918255, 0.45252894674392213, -0.1550613137152151,
        0.5527548049004967, -0.6264451734999059, 0.3832181079285896,
        0.07582639326272647, 0.5213769117318372, 0.4393257665473044,
        0.04808859951960843, -0.5411118788910743, 0.07671431664096781,
        0.12706728942143755, 0.05325456850564329, 1.0029202856046455,
        -0.45182176157405735, 0.07643709246008436, -1.2044160580472212,
        -0.36742719785556943, -1.3791515997060684, -0.16289133269953457,
        1.0576169446222283, 0.1487204524144438, 0.17585176214506693,
        -1.0962085066160177, -0.3188621819320656, -0.5239926406820524,
        -0.7739016748532387, -0.3423595402763821, 0.3738121542644518,
        -0.8267614332544229, -0.42430944088539135, -0.11294171252434715,
        -0.12981856378019146, -0.8539920932215891, -0.37287318567347927,
        -1.1589230978691818, -0.5357576446419675, -0.9195061775493463,
        -0.7178339556112644, 0.9076536335879791, -1.7739399281812351,
        -0.5909810974495162, 0.5965855447131934, -0.23994678443126302,
        0.4571991204011967, 0.014180581054331445, 1.4437522511789769,
        -0.1079568470191618, -0.7973756066776634, -0.7761777718870835,
        -0.6407377849892976, -0.31421267245368356, -1.0350066069580184,
        -0.011753173507368249, -0.18766548480481846, 1.0304163901399932,
        -1.2616488719580077, -0.20256535239737358, 0.46326685999041406,
        0.20810907055363287, 0.6438001742344228, -0.4541021503820476,
        -1.065042053157336, -0.7644558653335622, -0.2707440149079841,
        -0.4266882018942095, -0.7407389071877654, 0.13916336186827716,
        1.268854148491666, 0.09704016801755498, 0.9984639665754125,
        0.4359693611356159, -0.03183067283904014, -1.209495032877797,
        -0.21431573071376825, -0.9043712703612694, 0.3595798832668615,
        -0.15317957852065295, -0.3913436761704315, 1.3580085281730954,
        -0.17639302351797617, 0.21100644585900427, 0.04087097299261299,
        -0.9568133261567237, -0.12257904953790515, 1.1286272182838286,
        -0.4728564898950982, -1.03460164030625, -0.3300516969029257,
        -0.638453695195135, 0.9857926918907131, 0.6607468014623078,
        -0.5310843916180581, -0.8804281491620233, -0.5776355112948415,
        0.2732334481291779, -0.5829032908656178, -0.2777320529344698,
        -1.1293670937368265, -0.6560167394640339, -0.8631822857341431,
        -0.2792669324121768, -0.11032614667672253, 0.36883808297139414,
        -0.4775004332704793, -0.5518540297575231, 0.42304383007793117,
        0.3522784053765247, -0.9493322333335283, 0.4362429834583135,
        -0.48738493767124985, -0.05669009149083272, 0.8529953028767785,
        -1.4429420244751865, 0.601929648703959, -1.0058236715575075,
        0.32793019399368484, 1.215752721595194, 0.4842411849975805,
        0.5467005519377862, -0.3844420172607742, -0.7662283137780156,
        -0.5015273435350759, 0.10452512294362762, 0.8166516528668443,
        -0.7981416797326265, 0.006846213801237415, -0.2814515724962218,
        -0.5316455693296174, -0.1721279164910647, -1.2861965678707141,
        -0.7918975872937071, -0.20133464039892904, -0.9506516727037081,
        -0.19457643114275056, -0.99133235301964, 0.6855836011287281,
        0.05604726350367617, 0.6236972373963388, -0.6919553497018562,
        0.9587444701945593, -0.1642541189923068, 0.7115492782770346,
        0.7273552398362119, 1.0322249632621154, 0.22065213965805922,
        0.9097524868513963, -0.35938308540561886, -0.4006310411369705,
        0.31639368253994166, 0.46218977846881665, -0.15695366607544653,
        0.08674121856622664
      ],
      [
        -0.8293550286965738, -0.6485675691842033, 0.023758693907001912,
        -0.7589452284962638, 0.3856004795263955, -0.26220217630633086,
        0.14648078089530175, 1.4078234345762894, -0.007421940575084572,
        0.4484577656754976, 0.7423337390311903, -0.8316729228529796,
        -0.16692277015506823, -0.9790318814191097, 1.2240085647581962,
        0.2045796613777135, -0.2651468380770185, -0.8757775600180017,
        -1.2150192511656188, -0.5615455428336218, 0.2418442005219678,
        0.010806874099784723, -0.19538635114525407, -0.5194921233606301,
        -0.4571325417965338, 1.0603246658753633, -1.3756142095958823,
        -0.47700595601003365, -0.8612391014873553, -0.8886115459551153,
        -0.14817352304211923, 2.031738057423784, 0.009746692675859321,
        0.3872928661936498, 0.40292002696322526, -0.5043979724253098,
        0.9801874332514519, 0.4416947901497865, -0.4580863342865527,
        -1.1528380648205085, -0.4320577977621822, 0.32209687555127176,
        0.6002031342467061, 0.3647458228258658, -1.0652938740171845,
        -1.4582903900144475, 0.23070679541409672, -0.485485431930042,
        0.6191414131028303, -1.4327423070134964, 1.6109459386536047,
        -0.7022067256040373, -0.12265538929085543, 0.6549877902634799,
        0.6235097694335736, 0.4607947452696679, 0.7151866931071069,
        0.19748107288546687, 0.45088457867493725, 0.7890817460763696,
        -0.19391249659517862, -0.049330006894123694, -0.1671557797906436,
        0.43366089033676564, -0.9492326250135332, 0.7971709354333237,
        -0.38768867595527573, -0.9305841069121085, -1.0431515531368407,
        -0.7592575400271279, -0.8143499898915749, 0.045503257934705305,
        -1.5538322128315165, 1.9346890542521107, 1.6301570430872407,
        0.12849041636030722, 0.6540034065507494, -0.23460631958532593,
        0.1672110068560129, -0.770359714414995, -0.8738455856561455,
        0.5367429891167367, 0.18911948579493, -0.16023441278871933,
        -0.6381320695982363, 0.016845473820314955, -0.01599150389622471,
        1.2686374829446905, -1.2552258440115538, 1.9193958803935525,
        0.5032551377314405, -1.0304037215824435, -1.2670773688036323,
        -0.035292037172484976, -0.3549406519823181, -0.33324677081693366,
        0.38327622978803877, 0.4336270477478001, -0.08963206208185638,
        1.2414303178701758, 0.026468349768767652, -0.1704955811607217,
        -0.80357619778585, 0.17403845320528724, -0.3603024131954662,
        -0.3953351569834655, -0.4085454701346775, 1.1062284968410658,
        0.06330478623632366, -0.41785920536288473, -1.1123217137525898,
        -0.7627985419850066, 0.041325351228422506, -0.22032004128011698,
        -0.3758744599261728, 0.807278358069918, -0.5433890018333366,
        -0.5948563636255153, 0.83692069581983, 0.3003010095727067,
        -0.7005888992087113, -0.48184645857667424, 0.3511081196343215,
        -1.0421877967655717, -0.25532313770223064, 0.19619582963938634,
        -0.4127621285758822, 0.27228445669443896, -0.7095919863884101,
        0.7003984525766096, -0.3009047526202208, -0.3152130842328654,
        -1.0117327655578325, 1.028015079505049, 0.9244612000569663,
        -1.0046572933505322, 0.6645886826241275, 0.8996936923128713,
        0.3629755903904818, -0.6666347312941259, -1.5060146570860018,
        -0.11480632390678495, -0.38723489727507415, 0.24787645662457894,
        1.9596901741508852, -0.042266344012977665, 0.4762222918229592,
        -0.6414746559385903, -0.31795546979822337, 0.3016672253594672,
        -1.0359142088351125, -0.01533196980279746, -1.9843791765277798,
        -0.1438599226411987, -0.19187763793964502, 0.8889026333101167,
        0.14193060068213809, -0.7453485962403545, -0.695384646310918,
        0.156094916750135, -0.02750006790815758, -0.3500539272458217,
        -1.3098641114032996, -0.6699888723505939, 0.5722453904015249,
        1.30644781602427, -0.5490907889949311, 0.4248638940274779,
        -0.8041225044160974, -0.33842260959267256, -0.3571977589993424,
        0.6609460142072164, 0.7289731548402952, -0.2896617143649272,
        0.4882247708725846, 0.36290415767976575, -0.19550045471463498,
        -0.8486811027650553, -1.0354771753511602, 0.6952832589523604,
        -1.3042946962934077, -1.0057675542218794, 0.028077397353716758,
        0.10519700128693789, -0.09457496812813514, -1.0319032577758167,
        -0.9831978276152267, -0.10220948731974386, -0.4071458305207354,
        1.2825840127994457, 0.44858180228873246, -0.6203313300501936,
        -0.6909992005469561, -0.0659454578810254, -0.21528323595454177,
        -0.9422322648927169, 0.23555285683271732, 0.7740912866855204,
        -1.2574078476186203, -0.4120726413188245, -0.657721273742133,
        0.4992902053442185, -0.942708380742684, -0.47374170805117455,
        -1.4193935072972708, -0.4256904099422256, -0.16690648900241545,
        -0.35379613215266886, -1.231865657022749, 0.4813355908566166,
        -1.1846448640024945, 0.48249641771206225, -0.18674008241644557,
        -0.19015964197410498, -0.24161714014467237, -0.17544664709407154,
        1.1302154702255225, 0.9254729446361877, 0.8129972118498542,
        -0.7651618389592918, 0.10243916576019003, -1.107013392935724,
        -0.18689337265896322, -0.2616312924777863, -1.045750882086864,
        0.861973123231738, -1.0110380393173126, -0.13492788183365634,
        0.19086485878920287, -0.6850534165522071, -0.5628684381028143,
        0.12005435804364546, 0.4409311346027878, 0.06574995176340784,
        -1.0107115492627345, -0.8316629021885827, 0.11122018980590691,
        0.5531224661506916, -1.076393180720277, 1.8184386279537403,
        -0.39502682118714605, 0.25408776677326556, 0.20520500626709695,
        -0.2786087634116364, 0.3788232716901317, 0.28004494725058127,
        0.33528033254399053, -0.6942471840515397, 0.39155959851340094,
        1.3999535320472378, -0.5072088507531706, 1.6429908070663632,
        -1.3256152689673621, -0.07076143130345566, 1.5027574223131757,
        -0.8839083257259178
      ],
      [
        -0.12458366291937913, -0.8657109109368801, -0.3811181789215236,
        -0.700334432249902, -0.3482859476992976, -1.0930419713776305,
        1.0538253148697743, -0.5356786272905499, 1.130210543191765,
        -0.05247270806390661, 1.7340497213918693, 0.21013095099965115,
        0.4002978609825448, -0.5387507704726446, -0.6616650023363096,
        -0.5789098174662906, -0.5268209297778472, 0.4207751102361209,
        -0.5705300727088032, 0.744822604019871, -0.36153187365441797,
        0.26704576932272456, 0.4389300299006827, 0.2603685602299625,
        -0.7190390886758381, -1.1207122083618397, -0.8089330906158403,
        0.24277317249728572, -0.30908838230036684, -0.33384169463216884,
        0.2913633242499468, 0.9796182859437675, -0.7354074632354031,
        -0.47050189070015686, 0.009296543156422064, -0.627593656387576,
        0.2688736163522575, -0.7388423071455749, 0.5518406854761857,
        -1.0494865751978426, 1.6327315341924948, 0.7680716343026458,
        1.4763507214502423, 0.48273030892513236, -0.8425373451830505,
        -0.6178917655640265, -0.9911596202728776, -0.21226700822620942,
        0.5454418367061242, -0.4001792106107172, 0.2915995415620371,
        -1.2267549532980628, -0.6874357368925047, 0.9342572969712476,
        1.3540813169672232, -0.9787744794192975, 0.3338308549212485,
        0.24589465663566862, 0.3052935173425852, -0.1691470960212986,
        -0.11108104039536568, 0.4392021859176088, 0.810301469754435,
        -0.7619459842409394, 0.31548590272864147, 0.32450017080764565,
        -0.12959645806019596, 0.07918444007243836, 0.322063543284937,
        0.36200057490112086, -0.03890043315726972, -0.6466892164175059,
        -1.0021846764246782, 1.5125332953390558, -0.3786263029718869,
        0.5622920482893661, -0.17004016087037746, 0.25228637623921163,
        -0.7024619383282845, -0.16170434736182057, 0.12234138873842543,
        -0.8145614712284884, 1.0693315346858259, -0.017275177896553987,
        0.6688721659532363, -0.5288314501446407, -0.2095405533708029,
        -0.42646786526988467, -0.394613933938128, 0.5328123423705791,
        0.599990492331873, -0.1326196943825179, -0.39060123769892957,
        -0.5029303682300016, 0.03410247297846199, 0.8156669314964621,
        0.48302711665561704, 0.18980499029811654, 0.5692347003193857,
        -0.4097231859105651, 0.3033154269423869, -0.5598148421740738,
        -0.29425553351722894, -0.5218737586673665, -0.2656635651711728,
        -0.6580804400577598, -1.0842627886850171, -0.1483615041505824,
        0.2316618567296488, -0.9585605514974149, -0.6096744706454418,
        -0.5114354503220345, 0.02125650343353107, -0.9415717851625297,
        -0.4607930359536312, 0.02121994020234022, 0.5656927889846323,
        -0.2962932544329818, 0.08776123217343396, 0.01253845360187653,
        0.3111038773258855, -0.6552844749710125, -0.8976628250850622,
        -0.45272764533519677, 0.5938416500864961, 0.7917397895061504,
        0.2970840023884639, -0.7566229188078631, -0.859961699061074,
        -0.266653052982085, -1.6898908974441935, 0.9724236178209713,
        1.1669587622710735, -0.7985013943915192, 1.4789165100862127,
        0.06786380605178463, 0.1946871368342586, 0.8583286497087448,
        -0.24428833126954552, 0.6296572138082864, -0.9984781123276262,
        0.4878891113343875, -0.3867819973491062, -0.8353119564549258,
        0.08792988384925245, -0.645906519587025, -0.9119510838714249,
        -1.0117295707285345, 0.7882228141140479, 0.8788372839924824,
        0.5312042583392037, -0.5176393319015901, -1.3583672281328925,
        -1.1994415245931074, 0.11635201368486744, -0.06456729431544989,
        -0.5580581549858045, -0.10395392535265384, -0.6205049070361057,
        -0.03970698974258956, -0.7105430090202444, -0.025320640165008776,
        -0.071337523453885, 0.5332542789640102, -0.8748074981411228,
        0.09272592272353743, -0.5950405118915638, 0.19525373404032934,
        -0.5646141304512007, -1.5671011575121587, -0.6325139394626608,
        0.08484187336645019, -0.7632937019459849, 0.30104383116850575,
        -0.36466657197355223, -0.4710078092331528, -0.4952917411495687,
        0.8278854991088118, -0.7292268143634495, 0.7660948753614147,
        0.0017535348874989447, 1.1019107888010957, -0.4815241332764095,
        0.5164403955219693, -0.7482129753323904, 0.7023783594960938,
        0.06661283110456932, 0.9228675933745343, 0.7541103110310913,
        0.608128536825431, 1.9637872914926762, -0.505686807630259,
        -0.5931618212247973, -0.10226702811394749, -0.2940026020053608,
        -1.032622900442916, -0.7744230920366905, 0.3717820855969504,
        -0.727718586441146, 0.17145782566394538, -0.2810771505967388,
        -0.23118601419785262, -0.49787983206205255, -0.4878991839073054,
        0.1608870235094058, 0.25826983051439517, -1.0491230513541583,
        0.018866621485915554, -0.015943235742587186, -0.6883525796908884,
        -1.1773514157629834, 0.30950499379082186, -1.23486624754761,
        -0.22643686451409922, 0.3583080641911695, -0.5554460079188943,
        2.695046404992043e-5, -0.49107618650119994, 0.05563287232477161,
        -0.8351753974331779, 1.0662055337651393, 0.17433180332993206,
        -0.6487156952381674, 1.2084600397725072, -1.2649190720803725,
        1.4810168090093752, 0.4183719969209801, 0.8028347853373146,
        -1.1341613424225045, -1.0317926219082467, -0.023274150892359364,
        -0.374720296263203, -0.6267897453407245, -0.49674635986207455,
        -1.3930257501319407, -0.5423286388325796, -1.099950643940965,
        0.7073169293072004, 0.08031785370158982, 0.17306807457153428,
        0.1481747323039914, 0.4174662188777545, 0.9709248677763853,
        -0.6153387510526634, 0.05039188986121745, -0.6688985344342284,
        -0.8787434806609928, 1.2689781657384054, -0.466053863300028,
        -0.723185889844022, 0.38513921687610364, 1.535696766967079,
        -0.9763836980486539, -0.6523850269859587, 1.8611099073585649,
        0.07833009639733357
      ],
      [
        -0.7092378820558097, 0.363269980377699, -0.5486828751102707,
        0.3855389385768447, 0.36576758056528624, -1.1967313811317235,
        0.941071571397359, 0.6045097370755526, 0.20894494564427094,
        0.0442833392304321, 0.9401505171220749, -0.03945774422701177,
        -1.0032713711116192, -0.0947877357559018, -0.470993422627742,
        0.21527625443434906, -0.4481111672100684, -0.8501254932957774,
        -0.2628350173401858, -0.8726930239218447, -0.8602692778489048,
        0.42162026596069757, -0.6257185252782166, -0.7229724879017903,
        0.49956259827730465, 0.9373692700656308, -0.5500817991012292,
        0.5673990900918748, -1.4487624318537504, 0.13374512502506392,
        -0.08457499833328908, -0.23709989165733406, -0.44114544526954663,
        -0.07925801419658404, -0.9123009291825751, -1.421010804638254,
        0.35329580845677705, -0.7767503833871896, 0.23739720315480267,
        -0.2760337422262362, 0.8080673152876123, -0.7117939937761005,
        0.1759809808618341, 0.19290170931435305, -0.36751799770913746,
        -1.188211334357129, -0.08625899190252305, 0.26200952351745,
        0.7452823222909992, 0.07753720043760819, -0.026757294050303762,
        0.28457151779533246, -0.09530027222844697, 0.4270227813633474,
        0.2389318431041743, 0.47043524645492124, 0.4446987215632003,
        -0.8807470713559392, 0.6239970818156872, 1.2022416354387022,
        0.12949485557848842, 0.8020985349877806, 0.7293770605500933,
        -0.879080076371636, -0.8797698495795485, 0.3127868818139449,
        -0.9178390917135543, -0.2441913004578929, -0.49025684372205824,
        -0.8853739684412503, 0.29683538053957415, -0.568631177235859,
        -0.8343272978852858, -0.7801536887187579, -0.3871237859493797,
        1.2068474487200207, -0.3386070705489296, -0.5754319984057271,
        0.3287997054361201, -0.21334760707622968, -0.9162675494953595,
        -0.03625702539169115, 1.211498405083031, 1.0329235089522175,
        -1.2224612895505946, -0.04887480774139279, 0.6569735831252346,
        0.55672868408619, -0.7077901161956763, 0.5436236172619375,
        -0.022488868747682217, -0.2991733971279626, -1.0660244732977728,
        0.98358830479327, 0.7883491352644612, 0.7723794958079048,
        -0.8927817461724114, 0.15735199888065238, 0.8803134322333644,
        1.4349376123377695, 0.8554666079432188, -0.730051377753329,
        -0.5990927086439939, 0.9892031791968695, -0.3541040899375302,
        -0.5823047641252829, -0.4378577948605286, 0.4121263446535837,
        -0.05506017488864732, -0.04244159190213612, -0.7250732092212587,
        -0.44420356473311123, -0.2905137099501991, -0.6384672982668511,
        -0.33126412595007937, -0.6089426613687035, -0.8701471409272573,
        -0.8921041548940445, -0.5619405857981319, 0.18361785351510418,
        -0.5933893780011951, -0.3249774242705419, -0.7488792221604706,
        -0.7657453359353567, 0.15762118553535864, -0.8175565966158446,
        0.6377646446908423, 0.3116628634738562, -0.9998429702286288,
        -0.8109109564442423, -0.29977872637902947, 0.6388154002011704,
        -0.2039579371776264, 0.5981801863537635, 0.41299912852444576,
        0.18962772931837288, -0.29420998189162373, -0.6690897858562505,
        1.5296258193251568, 0.5975568039286191, 0.6477905791516285,
        0.7439750025773292, 1.0500748111428033, 0.04048241486713153,
        1.5320974277014634, -0.7767237138135897, -0.49850614804431825,
        -0.9496284216219474, 1.1203931316158513, -0.06149616529208224,
        0.03749572694969068, -0.5371559933697796, -1.0958306727437654,
        -0.9972555150047886, 0.17827567687175078, -0.6089090945841856,
        -0.7463857985805727, -0.6085050758590546, -0.507795112211106,
        -0.004107483242220461, -0.8791077858340539, 0.4680449750818486,
        -0.913265534090067, 0.10886870809896562, 0.8908151656818851,
        0.7926938603818643, 0.7001728230457672, 0.21041877747109425,
        0.013827154328569352, 0.13497311617657928, -0.9916911562866024,
        1.6535435274458896, -1.0351691529501894, -0.4734191619139907,
        0.7668876186072189, -0.6302601083474496, 0.10279081786272337,
        -0.04906388415377539, -0.7004079579697418, 0.2642109319294262,
        0.44032879664934, 0.7507769295499618, 0.21214099033469927,
        0.4421529565094861, -0.5517244862224492, -0.20500467751190568,
        -0.6688698443263471, -0.49518386338950854, -0.8157615699898061,
        0.4598092992261025, 1.062656345703187, 0.05238251262208301,
        -0.04837705730920773, -0.2662783851715854, -0.14269708644344975,
        0.363797528218147, 0.26859614622171524, -0.4434805517261904,
        -1.416100231819191, -0.5884320542420098, -0.8022376133382737,
        0.04591477936482935, -0.48676194618892843, -1.4270579858071735,
        -0.046495125706865856, 0.5660524614418921, -0.817409876483157,
        -0.7747879305249095, -0.5533023062265083, -0.38328133313562934,
        -0.5938671570769305, 0.13047517481901963, -1.1700961707368753,
        0.6804505183942268, -0.06585080348090888, -0.41585718153037987,
        -0.37951921654898446, 0.9241147820790669, -0.37418307579320403,
        -1.0070261275820194, 0.591907568346094, 0.12343721975514858,
        0.2938942258280163, 1.2835738611660745, -1.0605693847017992,
        -1.0848622378886346, -0.7195458253490097, 0.8773994222314816,
        0.13092777302422995, 0.3337337173052998, 0.708029352763013,
        0.012981642918161325, -0.6590669416829551, -0.951471673696553,
        -0.772567721841086, -0.754738736078058, -0.834504193750106,
        0.1767225979408009, -1.2256215415213199, 0.10111767407247663,
        -0.5131912284242884, -0.6375207939244406, 0.029888146455493408,
        0.0614310526139119, -0.36911846504482004, 1.494555294460028,
        0.8092072721326695, -0.8375368065144099, 0.10091909435223959,
        -0.9454909440432896, 0.11380265065614721, -0.5528176220428138,
        0.3762930324954108, 0.20496228800865926, 0.8732278086768672,
        -0.5915058743983583
      ],
      [
        -1.5497387192947825, 0.25028090384200213, 0.3310390189892449,
        -0.031489640750910514, -0.15012688875519614, -0.9064317973916305,
        0.1722362767389393, 0.6129362544213518, 0.3896011792807355,
        0.9255237334675432, 0.6849515515762924, 0.25106021569233866,
        -0.7430463228011621, -0.34965325550209386, -0.03087680061421857,
        0.906257667396822, -0.22217566420798196, 0.9116749794810916,
        -0.906277080743162, -0.2753228798443167, -0.3679594810857179,
        0.583324753331544, 0.3437168263051866, -0.6800566295534636,
        -0.76297715368918, -0.7724005408118884, -1.5570029416201299,
        -0.03558896681875998, 0.3322962498185841, 0.22252015690548776,
        -0.10138600068219922, 0.9541502107573627, -0.09623725898363346,
        -0.806552036046593, -0.234242551069783, -0.6771057541802502,
        0.7187811817986643, 0.3637257131578986, 0.23292032612849184,
        0.8731712403601835, 0.5057378868898279, 0.57107754886296,
        -0.6099648897021162, -0.08408961967513374, -0.8383461907034486,
        -0.3718822029801382, -0.038980539242234054, -0.26893663512016286,
        0.29055348811815424, -0.5460269509085022, 0.6960567218391456,
        -1.7799226635882577, 0.11908815966760891, -0.8922049399388792,
        0.7508182491560078, -0.45474076676840997, 1.0618888239415034,
        -0.19172716751572302, -0.4642388315239171, 0.15837377976248518,
        -0.9369535075983162, 0.3748525411640013, 1.2135631399943567,
        0.07092447248965261, -1.1788015975223611, 0.8986754393676671,
        -0.31722235050772635, -0.8069952823707051, 0.3329066171406361,
        0.9761263293273582, 0.4696875538070162, 0.1522862467705846,
        -0.9783704143168216, -0.6076887359391148, 1.0440951115616268,
        0.3589606470815403, 0.12585880041026057, -0.5776656120362045,
        0.28955784628574677, -0.6949878552798306, -0.8137754596503746,
        0.3662547056113143, -0.94340946780958, 1.0373705704384133,
        -1.103485077951846, 0.2653923115066217, 0.18370296410856535,
        -0.2546023170601162, -0.6262065096424431, -0.18463400432077734,
        -0.1174438245677162, 0.4304925936910288, -0.6875368134712747,
        1.8651313402005496, 0.38999560289372304, 0.7941717796460475,
        0.24090861864615698, -0.13838795401531487, -0.08719473216802685,
        0.6152278712722009, -0.3203655645050677, -0.9105064600854946,
        -0.12389901080357524, 0.2592830229347911, -0.7966475164306126,
        1.779320563699937, -0.0348471749409032, 0.3656146772492437,
        -0.6931030825826215, -0.8287022634543023, 0.1882552284335472,
        -0.21722458193595726, -0.823456740662211, 0.6957679715976338,
        -1.2931485523741357, 0.14301912787163668, 0.4583651896221179,
        -0.5342692627065563, 0.6957863613070757, -0.2350181750780085,
        0.31411940597436894, -1.3955704977290788, 0.7036461575082241,
        0.8131511563666782, 0.029966335805902328, 0.470630412944168,
        -0.8716216399710113, -0.4297239881542439, -1.1504594908133419,
        1.708082696472792, -1.5035028299028632, 1.2743282073399387,
        0.5464701185910796, -0.9983280180014334, 1.0805312425040408,
        0.5790367826772003, -0.08516581458820119, -0.053781610780966896,
        1.5401939080902918, -0.6672891795948563, 0.4877050979375831,
        0.08201286123773405, 1.2080912260928403, -1.0469085094155424,
        0.18728301508589307, 0.11677111680230357, 0.4443077489873992,
        -0.43164105637115724, 0.5921205733860934, -0.6310622932135518,
        -0.7059745662058446, -0.4969418154537963, -0.25641770609398556,
        -1.707867810768015, -0.9909835290121769, -0.07423913715415044,
        0.1742996528987116, -0.051875983167267416, -0.7301495220943516,
        0.582204384796615, 0.004508227985987682, -0.9803514362025312,
        -0.24490000712452928, 0.21762527023331502, 1.100794560419785,
        1.369402964755944, 0.4894689868768445, -0.8365634342883662,
        0.6707950890442713, -1.2999564375989205, -0.25933317526212574,
        0.8752403166589203, -0.5202863581933546, 0.2989588897761692,
        -0.3358984927445086, 0.9216958755165573, -0.7862864590301812,
        1.021963122310071, -0.21256573595714334, 0.6831557561907233,
        0.19161016184006302, 0.5019791295103632, -0.5296397229884308,
        -0.13892328292656145, 0.33395566760280904, 0.5896653185942149,
        -0.7643615816327246, 0.8409208654156112, 0.8134851394450671,
        0.4993334417922887, -0.23494704178358145, -0.1848052725291353,
        -1.1247929160926728, -0.6828337570352193, -0.13299476848932637,
        -0.11172817763612271, 0.7298492381929338, -0.22149917241083028,
        -0.9571101810181686, -0.17175463571953173, 0.8352712530349597,
        0.5409475470898204, -0.38720390440858476, -0.029010322579797288,
        0.08582953437999663, 0.4562591905676822, 0.6134230751073092,
        -0.7415424456237494, -0.33824807187071176, -0.957658805080522,
        -0.7396814969848461, -0.7829127328802613, -0.946120991151389,
        -0.555942633379174, 0.36988885377528335, 0.5502116625698545,
        0.9205518627805768, 0.5215428101393815, 1.0849624484511748,
        -1.6545053111517833, 0.4027601028508733, -1.0940008252424172,
        -0.7886593049611688, 0.2912329292135284, -1.4085018066567396,
        0.5114408813086444, -0.9236338631597337, -0.2297144320729399,
        -0.9977660513530023, 0.2584982485026183, -0.48527586017644225,
        0.14899016547762026, -0.47593172428940034, -0.6059132069841701,
        0.4217787486594523, -0.8852471092006807, -0.5471973814687464,
        -1.2004148102211487, -0.6246026703170958, 1.4729233286130903,
        -0.9751640902858084, 0.37834015558878487, 0.6737339032166026,
        0.5290231603099181, 0.144270446777547, -0.9169047613290428,
        -0.09488967469958699, 1.1867095617387413, -0.7144709947772272,
        0.3299145880372598, -0.8243179620166114, -0.0073826479551619036,
        -1.2439233900190823, -0.6464826116380131, 1.222122288633265,
        -0.00874229101871249
      ],
      [
        -0.16692026306537144, -0.5792560975813538, -0.21420003634645793,
        0.7188036358353606, -0.41373768456139964, -0.5559903077124417,
        0.15884434055510777, -0.8206703168436281, 0.9888197902485032,
        0.001236203619944273, 1.2356879928218734, 0.1991847414695108,
        -0.318784653968268, 0.2610665853131522, 0.2712774661981811,
        0.7229677128348759, 0.5357121194912203, -0.9502392988420274,
        -0.9295571841805036, 0.24501246998382237, -0.22197851423839285,
        -0.7522028400864208, 0.613132043305968, -0.9561657449026433,
        -0.1899330423492196, -0.12113442189357555, -1.243426141667288,
        -0.399040213317491, -0.1263669176816186, -0.9357811219214153,
        -0.2890799827105734, -0.7760718166501512, 0.046357309300129095,
        -0.357512402424617, -0.2996112356426247, 0.7213275592486312,
        0.2257264249377567, 0.5426306707866773, -0.22196486028138923,
        -0.4146848483503092, 0.9085750581150599, 0.9966107111416441,
        -0.5722061277636301, -1.0471982812305594, -1.0631849345361926,
        -0.7389837292068029, -0.5934538907759263, -0.44662744991789916,
        0.9687233445499157, -0.246860653713508, -0.613897333760443,
        -1.0042722549455063, -0.8876662436581068, 0.8611996205818613,
        -0.46816484168004247, -0.20921902791848518, -0.22664709226810975,
        -0.10518895338993936, -0.11654173634785303, -0.083184983959404,
        -0.07027366840856218, 0.8756316714442522, 0.15331626209637736,
        0.09074809253486417, -1.0279244169344077, 0.6125465845868777,
        -0.2947403081467162, 0.7281602817812016, -0.009132075574727764,
        0.41142210894099723, -1.1204081773432188, -0.5792353763151005,
        -0.39999104945075664, 0.48820790625682886, -0.36980754945477995,
        0.7062201791743636, 1.2127971986226422, 0.6186940357119344,
        0.678173647112555, 0.5602811215242363, 0.197683946695458,
        0.37586000008472886, -0.18118940785367926, 1.2779024548937423,
        0.5918866406120632, 0.9337181907159752, 1.752567844521982,
        0.2855112189878517, -0.5869494569574492, 1.12547506713731,
        0.19717981163281006, -0.8726611585705074, -0.3881756089139392,
        -0.34213338151478484, 0.8276286782444775, 0.5646129014830785,
        -0.6171203498170658, 0.18605335853014868, 0.8634680317683189,
        0.43700926353817926, -0.7428957442428132, -0.6040186431251833,
        0.18424010017452952, -0.17391710503024052, -0.6894546418316704,
        -1.0167295252399315, 0.23285353659062127, 0.21079105803376447,
        0.1980008447511483, -0.006608501545436907, 0.2888080842532147,
        -0.33181199126742605, 0.1533913822627586, 0.024580659877808924,
        -0.5982599239332322, 0.5753735241586423, 0.03388066544843871,
        0.07813083558311736, 0.8690480478919962, -0.896380792253135,
        1.0883332127881826, -0.10947786548343057, 0.11473523504809213,
        0.5554082573297058, -0.8742991208270119, 0.7665548851440963,
        0.2815917327345154, 0.0546821330144998, -0.1063833037327583,
        -0.06645478038529805, -0.7974315501042405, -0.3504877628181075,
        0.6455646154044189, 0.08737357963104193, 1.1349904666344866,
        -0.300516753693199, -0.20549294297557444, -0.8839509902017015,
        0.16376621369777836, 1.3365792513535837, -0.6790670299545951,
        -0.043840362264981794, 0.8885566809951049, -0.012327871460411803,
        -0.538226498201653, -0.9068826178120233, 0.11605011218503102,
        0.2848719934578709, 0.5084259984273912, -0.5133541419123969,
        -0.5862747753905125, 0.2322917123523753, -0.044032510476479214,
        0.1337274731599773, -0.0846010536139316, 0.17482452193604042,
        0.44040386172357576, 0.538403214484638, -0.4577235707350651,
        0.13479390894749674, -0.9229773911333954, -1.2007572432135776,
        -0.46118337221056194, 0.051560824428002056, -0.39709423208256317,
        -0.4259439041783594, -0.12991915573631013, -0.9403067526886194,
        0.38598899362729383, -0.06013368470301473, 0.20761203371126147,
        0.5289955208024234, -0.5455379494296991, 0.5743587140932948,
        0.551032853570532, -0.5668955273250149, 0.9184160157461774,
        1.157895890865893, 0.43161668347857013, -0.7705162367222261,
        -0.4615645357253885, -0.9489955864609199, 0.0995946145561449,
        0.9624290484951574, -0.9708406040309187, 0.28806619622150076,
        -0.12924580882571296, 1.234622244002735, -0.7600064725148968,
        -0.2752606698752908, 0.7961022475261383, -0.8730168037237579,
        -0.09490189295118164, 0.6558221190187459, 0.1612256477352926,
        -0.9743818936789638, 1.0538412277375073, -0.5387821682190331,
        -0.09521325147351109, 0.3079708256145572, -0.25047256857347155,
        0.03244925192905562, -1.3684723362032079, 0.6224485304196742,
        -0.7525361944990976, 0.5689154608394213, -0.12236036092384267,
        -1.1330388541744751, -1.0247257784784074, -0.4319543344292181,
        -0.41778635251833623, -0.7949993955170356, -0.7630072208469901,
        -0.5754992416130993, -0.7656976930306135, -0.7228489215492565,
        -0.07496307160407173, 1.2531512597047612, 0.08880974871626277,
        -0.5408618753817139, 0.930075138022525, 0.1726654477994692,
        -0.5855307904590747, 0.029547248536566276, -0.9529456057661677,
        0.2080791083534798, 0.2650979366972548, 0.4707388294405553,
        -0.9523676137974731, 0.24875862229706275, -0.5337529494875287,
        0.1460704709214537, -1.0386471442940255, 0.7762957949202274,
        -0.3194575400960939, 0.4476827333200188, 0.5880641198690133,
        0.5928467299698794, -0.8602336749833018, -0.4823638915644931,
        -0.44041246818204893, -0.42708069842049073, 0.5814090660482949,
        0.3147795673152734, 0.9411868241405159, -0.08454364112940478,
        0.9339001452865825, -0.02130152022140976, -0.1705690384763266,
        0.3665948503730386, 0.32265758021661206, -0.12147125996348844,
        -0.21658894801100476, -0.3959945558551674, 1.5793340013092505,
        0.3599431449477716
      ],
      [
        -0.40149146755039783, 0.0959207679421835, -0.09043722018030582,
        -0.03116970729934975, 0.018963978811083214, -1.7790438896563074,
        -0.04367070812812622, 0.8577877804320914, -0.26008488132676566,
        0.2973223566466943, -0.20750551900862552, -1.026730562095487,
        -0.14108797099418402, 0.06690362998640229, -0.7574228149607589,
        1.1343950412401667, -0.39154866346246664, -0.550108635066329,
        -0.9237112019088082, -0.34189177986112823, 0.09494031879301577,
        -0.3910070568020164, -0.29341739622729734, -0.2517454379130447,
        0.02684452686185694, -0.7765386803456116, -0.2761023937967341,
        -0.2513762099169555, 0.2191909933677216, -0.8421328568996058,
        -1.1697436639280259, 0.5784769100246531, -0.9398562787931117,
        -0.06122350391435728, -0.5315279739647508, -1.4296500785650113,
        -1.0068667582696238, 0.08067489589426431, -0.5785270506135142,
        -0.6937701670742363, -0.5334118044106454, 0.5042250035625913,
        0.4856340000487794, -0.7349592587697162, -1.0758584287306387,
        -0.6810499952221981, -0.023775127075597327, 0.10311461759245613,
        -0.5821747522654166, -0.7681284167089708, 1.2328582732802724,
        -1.5190122993412893, -0.864703584524961, -0.11672347060346958,
        1.963877754226475, -0.33308574811322045, -0.4401475859703213,
        -0.8933861102435656, -1.2267762641497657, 0.8565587286603553,
        -1.7136199909921603, 0.32624268831418557, 0.025305003925786808,
        0.2526083469281017, -0.0277865524889685, -0.0457952174660656,
        -0.7062920994307328, 0.020848122438419686, -0.6625010941510059,
        0.3873088612816381, -0.34264281954862935, 0.3560651751512384,
        -1.5134359564458686, 1.167006095522555, 0.02976097243752074,
        -0.38676661006754165, 0.42099743291234365, -0.7860013166473547,
        -0.689437532897127, 0.43132070355476876, -0.9954641815923404,
        -0.8544317654529322, -1.4551768807563747, -0.15519499254730784,
        -1.298634012671104, -0.37542393773849986, 0.9300416656856769,
        -0.12799610133275535, -1.2747443436906745, -0.3422264830221161,
        1.0087089895515955, -1.2327297914615882, -0.37913799112719443,
        0.663682122333902, -0.5062930633627747, -0.1279097129256512,
        0.053605737555102076, 0.6299225138138536, -0.7626204031529156,
        -1.18834805995135, -0.5873958046690767, -0.8286952566124505,
        0.17735370403963702, -0.3379154317775705, -0.6947020782151626,
        -0.39020844619906336, -1.4305273865482144, 0.22237879211811049,
        -1.196964551933864, -0.48855252929063997, -0.5227688610512957,
        -0.9773947752279508, 0.1301466245126686, -0.5915198965678242,
        -0.832610954976242, 0.3408281801614686, -0.23490055598663898,
        -1.3025661006877944, 1.3820961522436, -1.0060756780598603,
        1.002530104511387, -0.8356646455977169, 0.18884082017057824,
        -1.025784162193626, 0.605756476251077, -0.9531971468344215,
        -1.275426531172931, 0.8931902980863943, -0.7662905043541818,
        -0.032351459920581, -0.19170460021362168, 1.475961192959625,
        0.4927967060100012, -0.8311448260514441, 0.16826240552666025,
        -0.864970103402863, 0.20908341921409201, 0.27891165314447763,
        2.1216921202680306, -0.8095346002115225, -0.7641912854975369,
        -1.0488212140533748, -0.2656722035922413, -0.22502347634450282,
        0.5228428105597268, 1.2488293350477935, -0.3150938651358708,
        -0.7198424457833462, 1.0654754716274533, -0.004420967480708086,
        -1.2233443218189244, -0.18229427729069173, -2.2722354991381812,
        -0.3141182044604173, -0.7593627927673325, -0.6300588188400901,
        -0.03884663491465721, -0.5507070679082987, 0.0758756701520325,
        0.18263971631263282, -0.28294581379801104, -0.4150121328854551,
        -0.08303255817225534, 0.12627781001672672, 0.1384930988041978,
        1.4860412567245547, -0.7382598096789634, 0.13079752985885526,
        0.10524312016954847, -1.6816988713798804, -0.20879932687041786,
        -0.6442820419332714, -0.7425401091112579, -0.5335604794635731,
        0.48749719065426345, -0.5234670014207227, -0.6685821631788693,
        0.7438190601201573, 0.3688050662319007, 1.5783218111214496,
        -1.7033019115312291, 1.0186631355712907, 0.13190281711026633,
        0.19815687277148897, -0.46971318508507254, -0.7763870468742716,
        0.4592902317039176, 0.22833021754351376, 0.9770368253590158,
        -0.3249186532459581, 1.7170093372628017, -1.467444952802911,
        -1.6007276810807403, -0.6881262667470459, -0.619076861028838,
        -0.2049353078259531, 1.00317690050358, -0.29063597579664985,
        -0.8516227221699006, -0.30518393061856175, 0.06343942496761698,
        0.07992426639200932, -1.5181381902234004, -0.22673027082453012,
        -0.08826424287661606, 0.500873220279118, -0.9607743877314576,
        -0.5957350939285936, -0.5778853434620964, 0.4337071675364012,
        0.08810778457997005, 0.6273216216523597, -1.01804702935865,
        -0.05283431838437321, -1.166433768687782, -1.2963625701581987,
        -0.06847305797551886, -0.7122493699284588, 0.03558958683602659,
        -0.969414740859153, -0.9733228609253591, 0.36097362101957864,
        0.9596004110499786, 1.3111438240833417, -0.013022603923438262,
        -0.38670310660136725, -1.4897637811320183, -0.17679326565235995,
        -1.3826818826306797, 0.6732097605998975, 0.9158181112529526,
        -0.004644794105088515, -0.7462733324447193, -0.1795859070072657,
        -0.9260018124848596, -0.8115694489517121, -0.3074269822609716,
        -0.9463633985961615, -1.2953656282280186, -0.6621884564398095,
        0.3528538387659703, -0.29708218694234356, 0.6253609631302556,
        -0.7967910785171062, -0.540847750370274, -0.9725204178433168,
        0.27990588989859233, 0.7400184032783814, 0.27757088853898937,
        -0.14440113994933712, -0.45180902299428255, 0.30509737784777025,
        0.027744878116951734, -0.5879160478480163, 0.6526874445386031,
        -0.3079348108253138
      ],
      [
        0.6795023498783579, 0.07955685531972347, -0.8253042590452948,
        -0.24785161361267177, 0.5969331098630705, -0.826765186237074,
        0.7560631597576487, 0.716870381547023, 1.2395118886994534,
        -0.13790029615774574, -0.3410041740562808, 0.8169305835619681,
        -1.0957620462352093, -0.999592703754656, 0.47589553353708486,
        -0.43892427219712643, 0.4109677903026888, -0.8249526664425627,
        -0.7300744253695369, 0.7128000624478773, -0.8079323144300861,
        0.23640382541497162, -0.33670242080090157, -0.5304049644415307,
        0.1207059740595273, -0.10512067129407754, -0.8063253814993678,
        0.12400768966560564, -0.42072333635458486, -0.11475282916478782,
        0.44103095398773107, -0.12221119236396763, -0.8591913490717423,
        0.586998194149982, -0.3129267504953442, 0.4175939277519403,
        -0.898054573814704, 0.5366199964151105, -0.08726293475941237,
        -0.07281128707255428, 0.6649914772935865, -0.8496489678525972,
        0.32456949761134896, -0.8549201999678172, 0.3620182037077921,
        -0.07802350610434637, -0.457716005852986, 0.08892666599569599,
        0.4466506630305873, -0.11254583320274153, 0.3963267442274444,
        -0.053472110603363134, 0.4537894400762411, -0.40925076037507985,
        0.7449259251568813, 0.0001741838662752855, -0.455548229878228,
        0.7381969241281577, 0.4376019023485112, 0.050472598902650635,
        0.7220494846669175, 0.5800706905984993, -0.4672841844869527,
        -0.9893431698156223, -0.39447241405174965, -0.8951016753000778,
        0.31027513185471406, 0.2958903111364868, 0.7687132728113258,
        0.6861079355980176, -0.9152082715297383, 0.7944887829904524,
        -0.2987328185258296, 0.11193553928387863, -0.04008467639173784,
        -0.7783529049916342, -0.9450667166016756, -0.689629413472231,
        -0.2888515211939898, -0.9131435088831021, -1.0028830207472053,
        0.20272113966938657, 0.40989900769316934, -0.7286816021633518,
        -0.5328549805859987, -1.0157554308962295, -0.4981530303526521,
        0.5942025753501196, 0.1843986872960747, 1.6141004929500826,
        0.3456803569597167, -1.1075506580364476, -1.0266389446784416,
        1.5291914244079203, 0.3647214315892734, 0.2971559242179466,
        0.38339853869958745, -0.19203652569285937, 0.8586179953719105,
        1.5230775539503245, 0.6078345767496037, 0.22533598911766697,
        0.2172220660726748, -1.1979635954463683, -0.8585395949979037,
        -0.2377161222554369, -1.019156105733068, 0.09436958490532507,
        -1.4535726826180206, 0.02973517188255814, -0.20476991848382878,
        -1.1984918849723687, -0.15735997999088722, 0.20513589215886008,
        -0.6911960606938871, -0.6395816566372806, -1.011794988584657,
        -0.13698276522445813, 1.931212958523791, -0.27971608670455966,
        0.589742390715717, -1.2869397555180204, 0.5160061261403878,
        0.549426632953055, -0.7390489779482057, -1.1784561710129005,
        0.15679393186873275, 0.49288892072290674, -0.11858389148136878,
        0.9767772742324936, -0.2730285755384396, 0.8469461047317444,
        -0.28702544804520985, 0.17072442294639278, 0.14826973310735525,
        -0.005130700174885903, 1.1957360360137679, 0.8144024232224624,
        1.0945239775676914, 0.6559773327150448, 0.6124639621718112,
        0.24566508479896423, 0.2652405149464148, -0.5508280329509416,
        0.6254301915767865, -0.1326149241649831, 0.5948526452195424,
        -0.001615255033647226, 1.2424268502096876, 1.2359180110973578,
        -0.2154892147701456, -0.34068318131449343, -0.6810331421221868,
        -0.37004402404680964, 0.8930478071170475, 1.0745813800218527,
        -1.1526108451372241, 0.21745021282701338, 0.39157887387454093,
        -0.38770696939516275, -0.38093663983309056, -0.44749325017738134,
        -0.19423051982135964, -0.38113901576665815, -0.3111496840182607,
        0.6736931353900085, -0.0895075766177169, 0.443397196703749,
        -0.07752585417760001, -0.17662839616995052, -0.41664021987193955,
        -0.31678590846881244, -0.17488199266872761, -0.19462306556399375,
        -0.05979252150015813, -1.107983570858695, -0.3717147330156683,
        -0.22694128525520477, -0.15966326382608054, 0.6700002458998998,
        -0.2602485570106093, 0.2031909273555425, 1.0253985216095587,
        -0.5872548367966094, -0.7667473575910482, -1.1535100251018575,
        -0.6931070426925812, 1.7324195609506816, 0.6736170150701206,
        0.36469147152144515, 0.43826258702727133, 0.5550083192082413,
        -0.9524572685118181, -0.05496927364439832, -0.7470582914689612,
        -0.0033416991649493468, -0.8523607578857483, -0.3627815380857725,
        -1.1256217941173277, 0.7353645239258605, 0.755438048986657,
        0.10240366808713627, 0.5713625731216517, -0.8885860761885495,
        -0.6302884625273594, -0.1904725848310916, 0.7196690002022391,
        -0.8833929038516252, -0.4499829906221126, 1.0259614423585885,
        -0.3023812959660608, -0.08866181889624629, -0.3706821006056537,
        0.7903565490438976, -0.10008816748500335, -1.390441961956097,
        -0.5401045633000592, 0.5805355200327383, -0.5707689306492343,
        -1.0429244211468358, -0.22447337548702245, 0.33108915185575216,
        -0.8422542532401589, 0.14447191148990657, -0.7115564650861682,
        -0.36969009122926344, -0.8326627053207462, -0.7512226991954145,
        -1.0708605463976926, 0.7367429099864609, 1.0302637382947293,
        -1.0707035155064135, -0.9456526008411913, 0.03596211850168061,
        0.3389392278278077, 0.18992037101302972, 0.2485104399797357,
        0.6121458356668192, -0.1912448206449688, 1.0889056458830548,
        -0.23447278439191127, -0.44069582156243325, 0.327937907775187,
        -0.07464257530058421, 0.9755171106244191, 1.280704614289078,
        -0.10373870719254308, -0.8820749847899221, 0.5182445854883246,
        -0.21862352446477182, -0.6780830254812873, 0.5787988618616497,
        -1.273216710881667, -0.871099340320229, 0.5407503182025251,
        -0.8605233620832132
      ],
      [
        -0.6394370679000406, -0.19330932966123252, 0.49029611861915506,
        0.3255753106179768, -0.5422463674809749, -0.621216969068885,
        0.2594233045479958, -0.059096535065853384, -0.35211856710295786,
        0.0006661890231406497, 1.1245298360981404, 0.1315130222468821,
        -0.9455308688439036, -1.144619117593929, -0.22640619248209537,
        0.8284564100719936, -0.1879296835550933, -0.587399435753109,
        0.181928156982519, -0.9872505291752508, -0.049396927374522864,
        0.5752622097171584, -0.46008138439196333, -0.20727578507754948,
        0.683404322900709, 1.2857458628682685, -1.4684606786314947,
        0.686561979548271, -0.6540502159692698, -0.5915764158031612,
        0.8712348284391205, -0.41112744547717806, -1.05595920643653,
        -0.5271546973070902, -0.8681081207734502, -1.130564925862108,
        1.370372181881611, 0.5868973934989427, 0.009348342967671642,
        -0.3557253499740136, -0.38805882975609146, 0.49325156955077043,
        0.7656403243710567, -1.0525159952948229, -1.7894511035125225,
        -0.784807043674859, -1.0070748350069418, -0.2888227911952439,
        0.5955114568085847, 0.17189064821435351, 0.9729872543887649,
        -0.5835853723219651, -0.7340475220935326, 0.2008503462281525,
        0.5601066691860185, -1.8195639191291098, -0.4910683345333664,
        -0.02719153028383599, -0.9906259290384727, 0.05882650195295289,
        -0.2077501879797218, -0.8393472580287398, 0.6080181662300892,
        -0.3493815759410527, -0.14768184995951605, 0.5387519768489593,
        0.19141646829674333, -0.0880943415177644, 0.3224676216741725,
        -0.8841487362922181, -0.21010370610531814, -1.3058814926288482,
        -0.7638190024854109, -0.3423888392812561, 1.9063234136133265,
        -0.030718271847375248, 1.0708437084573998, -1.0396298367591557,
        -0.6408247402225351, -0.9067794336530994, -0.24001646428097873,
        0.13776612901931684, 0.7870274495713063, 0.9986786792507949,
        0.2412455310120913, -0.5747386453941784, 1.3969974958116824,
        -0.2984076337237341, -1.2051412191919346, -0.26973353089822294,
        -1.0653919594756465, -0.4592228799056518, -0.045948353086758965,
        1.1148024584068823, -0.4711442330118671, 0.19882739557392434,
        -0.8578671516775307, -0.9388543036253455, 0.21431371468988952,
        0.7450937604945976, -0.014517585760544176, -0.5347215401911448,
        0.08551803922272505, 0.8513891890004752, -1.2388625590617675,
        0.7244843739649824, -1.1627551998484855, -0.6572907184464527,
        -0.776150385766507, 0.540316925839097, -1.5240188535074368,
        -1.2838666924947482, -0.8519284871733059, -0.0012187661987510517,
        -0.7447776820298116, 0.31915345715731136, -0.46804497375854454,
        -0.526359139992269, 1.4600589517567892, -1.0027077174229773,
        0.8890587703930763, -1.2536457060755708, -1.1054856933050086,
        -0.3173128751737472, -0.9677142548010017, -1.1594168161230778,
        -0.9457235162016632, -0.9961172249885105, -0.20799008361691118,
        -0.9555840728944138, -1.342019858612448, 1.333698755750113,
        -0.13337644397989667, 0.10171063747585386, 1.120640166705663,
        -0.5671987449361644, 0.9954292036642793, -0.31551517723535877,
        0.5194340436738455, -0.3852586547984859, -1.8950435191547326,
        0.09348615935696765, -0.4593785125285591, -0.631916664840657,
        -0.05961764509249542, 0.734688151070676, -0.1921054750509593,
        0.3930836982486016, -0.4027999899583287, 1.42337524731408,
        -0.0717533200823059, 1.1133132946980968, -0.7848917955779634,
        -0.21475416320190668, 0.05393961485461772, 0.3521438266074592,
        -0.5779342606712546, -1.1206017301972064, 0.2865531872728207,
        -0.9497495857705409, -0.6561434788039437, -1.6742288385812993,
        -0.6737932065154465, -0.501799850409176, 0.8468799687992876,
        -0.7536921929330603, 0.4002517760542677, -0.6212353700795166,
        -0.920022164009503, -1.4731000680426272, -0.07385965371805676,
        -0.8857791887272036, -0.5382074206323262, 0.33927473630731975,
        1.3648596193900402, 0.5846660667352106, -0.8296796855550405,
        0.8609697516574161, 0.29911404618185833, -0.6907627405426647,
        0.23149988789583292, -0.009140371798147293, 0.15059627845967585,
        -0.1365254821065953, -0.17766262118272788, -0.9734550296399955,
        -0.11359997063557264, 1.01192054099101, 0.5409215368550871,
        -0.5945074379844956, 1.3336950495721502, -0.22350469504300943,
        -1.1473253682087943, 0.7432052092929934, 0.456985138121157,
        -1.137285665776375, 1.1943630177147453, -0.3204071344399603,
        -0.09896359516643838, 0.13836568612131891, -1.0130640919488,
        0.6554131207210544, -0.40960725712775625, -0.9519084687620618,
        0.00033705215445149414, -0.626035079274181, 0.5127246895484892,
        -0.3216927018220517, -0.310805658638593, -0.9117277174807707,
        -1.2369385499606305, 0.04137590731292925, -0.4468107660076956,
        -0.05785614766250428, -0.6210449185597094, 0.08701748130954781,
        -0.5484915928462112, 0.8390768912030033, 0.8653630218997459,
        -0.8661697278793128, 0.45647397761785075, -0.6699278243932864,
        0.73136604443176, 1.6153173842740995, -0.29754101559813456,
        -1.0229501457062329, -0.08408382185986829, 0.2812958754121311,
        -0.1428434205855654, 1.0847243766721675, -0.5055877568526315,
        0.03755540128937859, -0.06668342622111162, 0.06774978501176863,
        0.17412613392328724, 0.301230614971791, 0.034094594440023905,
        0.9971838166018935, -0.6816937761162735, -0.9649597955998124,
        -1.136414320577107, 0.5092423713438031, 0.7188248049674122,
        -0.40391941119823266, -0.7848773940467842, 1.1793181682650253,
        -0.7630040271089418, 1.4148859842401005, -0.6485133271124216,
        -0.3628213468428835, -1.0113509616784522, 1.964983764115257,
        0.3587472963756026, -0.7953601892292725, 0.6181789674848809,
        0.09909644831374352
      ],
      [
        -0.6808337620763505, 0.7279101555609707, 0.5525863397990876,
        0.18817590711132018, 0.24215041717614527, 0.2729825076626435,
        -0.25961921890372197, 0.7329844886327558, 0.9945331146882325,
        0.12468994354052709, -0.7020568324728202, 0.910296691617605,
        0.5281649989410534, 0.5071057907804408, -0.4577373593126212,
        -0.5585798127352866, -0.5473302155881814, 0.4900846122957512,
        -0.06350753791261331, 0.6751835944129608, -0.3871364936516388,
        0.8630510492791875, 0.712993117914515, -0.29018178632172476,
        -0.9616245282635207, -0.9407934058163993, 0.6175346875074791,
        -0.35898952921689703, 0.6795722310619065, -0.7046192677613118,
        -0.9574650081324667, 0.29920281830278844, -0.03787164956463578,
        -0.782754461285663, 0.37892163149842456, 0.518151447487381,
        -0.8170571251909333, 1.0346130375386842, 0.1355180900644375,
        0.06768814123023906, 0.03402018966626683, -0.7600204478497751,
        0.7889583511806405, 0.13259249851309435, 0.5598802989178449,
        -0.5909144745450519, -0.987962567241845, 0.2610561610541685,
        0.9868644500260679, 0.660188829394466, 0.4104741747366629,
        0.749212957094324, 0.6847328675656382, -0.4166800535843184,
        0.05102927460183761, -0.3023789920551463, -0.8201258782812901,
        -0.3047215912629345, 0.2280776332670363, -0.06317175963980382,
        0.738185818600415, -0.9474674531681865, -1.0033633199944794,
        0.30450097759909506, -0.06012191475876134, 0.18870354177518672,
        -0.271439065925373, 0.09287359655483028, -0.7751938988339128,
        -0.12022268113220871, -0.829963827619025, -0.4134556007113839,
        -0.5389037784957537, 0.8028384906827866, -0.2200139011584139,
        -0.22985454115418175, -1.0338016366282388, -0.29059816657243454,
        0.13437603621134572, 0.6012565265653143, -0.8616091763618499,
        -0.6366868898093967, -0.2225248437055214, 0.9151908475510733,
        0.17423921959952765, -0.8058506467756259, 0.7105590992828935,
        -0.6913338422850368, 0.050328667499456595, -0.34193122410656457,
        0.15109930495266147, 0.5216902646490615, -0.37932566917354277,
        -0.9941035583587846, 0.4847685080783836, 0.12066561697851803,
        -0.8279454861358454, -0.811262413096744, -0.9835857963156314,
        -0.43746262296916105, 0.6394854056395843, -0.14309363991707577,
        0.08777065600589812, -0.11809450737022432, 0.5502204497130022,
        -0.17951154857930737, 0.49711485771479613, 0.746899936230341,
        0.6809189412528383, -0.5105982001454561, -0.39148035713361173,
        0.3768604760966863, 0.6613436647079045, 0.6084964058618184,
        -0.1316440317557387, 0.38440310057865235, 0.28951505826981283,
        -1.0517573014046162, -0.33397633166590224, -0.14116136255114384,
        0.38108451911628693, -0.5086978698886888, -0.8649741725748616,
        0.5407744522598593, 0.3084701806868632, -0.4171670617053708,
        -1.1522655118027987, -0.5677182095500604, -0.7230602995428143,
        1.076475139049611, -0.3533762457991425, 0.9866348802109977,
        -0.15519825115509397, -0.48020750554017755, 0.9510894730142585,
        0.35363138530005245, 0.45024059863715304, 0.8622460167006335,
        -0.7110241827140675, -0.6567774085176059, -0.383248165812358,
        -1.1975594084280259, -0.5936634117253757, -0.49054616007425395,
        -0.7748764985124006, -1.0023776111493254, 1.0737318046951967,
        -0.002437068321091959, 0.24218124842055436, -0.725382756714171,
        0.7022634441551967, 1.1583870474445552, 0.5370172494717954,
        0.28415530024256963, 0.26323002656025113, 0.19242182851452475,
        -0.15025652441692683, 0.3562302912014966, 0.3539514382063918,
        0.07928657364616976, -0.3505287126506778, -0.12674945863948078,
        0.3517083513442132, 0.7967346205293769, 0.8336895814281926,
        -0.43365834831898836, -0.4690583309863412, 0.030076351285872827,
        0.5775450501433687, 0.5223516960908049, 0.8558169925803106,
        0.6802057617899779, 0.6767478195185769, -0.498570292865452,
        -1.1923727678394898, 0.2591360739810024, -0.9554374722731078,
        0.5298046965424354, 0.4945721629127658, 0.5054580073914483,
        -0.48930516080045966, 0.07359331078413325, 0.21364181743813235,
        -0.8249965859224032, -0.5998582012252696, -0.43980526593790653,
        -0.6735950775639653, 0.4966709923741046, 0.41391946732495966,
        -0.5201268463213333, -0.48934391862216586, 0.8717130906128375,
        -0.6891142978281657, 0.23089491360445905, 0.4961082876689656,
        0.7718866429455994, -0.5422725622190366, -0.3948975116521465,
        -0.4495646019699929, 0.682953081510299, 0.38654463678255374,
        0.05771002634901255, 0.08202592111145714, 0.6782257022752504,
        -0.9468829377233585, -0.9823967302136108, -0.8384365490254243,
        0.17344392923064889, 0.21680270288609413, -0.9965329449607678,
        0.18262864533130366, 0.39808854805216587, -0.8480842642989909,
        0.5695835896124188, -0.726767256051514, 0.5829266371790136,
        0.6381258031551571, 0.2864929173427009, 0.14945790794627017,
        0.39106708515047056, -0.8426747880143461, 0.17814073977803763,
        0.6742654914799394, 0.21791280318365355, 0.043315349632555344,
        -0.8595600792699686, 0.13097352291498732, -0.4247362216467414,
        -0.11315046496420174, -0.6206201388450626, -0.2933383112159782,
        0.5234102009223456, -0.3073834711337085, 0.6198789939772,
        -0.7478201609797895, 0.6446070581090398, 0.9787031270879912,
        0.6966107823185852, -1.0732264855089553, -0.6206237558779855,
        -0.6430586847672707, 0.0818181360900145, -0.6284703510790713,
        0.4094966991818439, 0.5203573261773412, 0.11256753332566816,
        0.8183789846014214, -0.38635547822510113, -0.30708931000756917,
        0.9019891729730793, -0.8038924664685043, 0.3157553170067489,
        -0.042100435526653456, 0.17938697745179386, 0.5647087123080663,
        -0.5966961522866745
      ],
      [
        0.12378388676990555, -0.9350541136714875, -0.4678168158076877,
        0.8778649365477245, -0.2203178452266447, 0.43512860277566345,
        -0.5515027982927978, -0.009320175098379834, 0.4037323565427629,
        0.8775757415155899, -0.41356685155004097, -0.5077403201439376,
        0.5187422226369769, -0.07354646339596319, 0.8579551167493489,
        1.124190405568676, 0.138863106099475, 0.17556737743348255,
        0.20917285467259406, -0.06432462756518789, -0.30709605627026776,
        -0.4960204968961405, 0.5960945192334138, 0.9108319302804552,
        -0.5229186984177878, -0.20619029429100916, 0.8092658659237074,
        0.0026484748431317724, 0.723509735147963, 0.36166616133073176,
        -0.6453259702923996, 0.5590238612810345, -1.160558061467962,
        -0.9950123792549781, -0.8226055945275684, 0.7037330474367597,
        0.21775095042948622, -0.9183520355678358, 0.5289234775541513,
        -0.5191794524523609, -0.11589255157842085, 0.4898528178879926,
        -0.9568787291663461, 0.8997778660412226, -0.6671496837742689,
        0.03187522621573738, -0.11431134343218302, 0.8679959340961083,
        -0.8926321057294301, -0.7461571130229511, 1.0905587379560897,
        0.7923152188144357, -1.072467078720275, -0.45143953166780604,
        0.7268935469221354, -0.06058626203394137, -0.3747708906019544,
        -0.4590773271087084, 0.5683645027249686, -1.0609316669876014,
        0.759987342407929, 0.023103561390799537, -0.044554671410942305,
        0.643757148793551, 0.120007662158118, 0.058892306882039405,
        -0.4419251785192264, 0.5762933937271058, -0.2762374517493915,
        0.754939875968168, -0.4899317992435744, 0.2775399397736702,
        0.395710277666595, -0.33996138436341033, -0.6303014136458166,
        0.4303331264201258, -0.9198946374047, 0.7168281668933714,
        0.4839006415825948, 0.12816133359554027, 0.6773461883977511,
        -0.9622477904304415, -0.02907076121543936, 0.6871807269633915,
        0.6504909269955573, -0.6051204068651497, 0.6638213685145168,
        0.7157727831187637, -0.6413098783403792, 0.24664688606404073,
        0.4573698426259582, -0.6027599185077434, -0.49712145471659486,
        0.44281385009787705, -0.11612857584863247, 0.39763621152857986,
        -0.7400353986466301, -0.610005351633269, -0.6166309621228006,
        0.39804439876380127, -0.5003411881608227, 0.32348620177064297,
        -0.013197399327702709, -0.8425843241793451, 0.5416054717134366,
        -0.21764701883250495, -0.8092759186832138, 0.48852363426183465,
        -0.8525342002172827, -0.9254319337140785, -0.2757479211096567,
        -0.5243460598621709, -0.005641863782491244, -0.8481176747709723,
        -0.7570877390600474, 0.6818331962382516, -0.8408889754185742,
        0.11000079202404454, -0.6971969855705461, -0.23305406986660795,
        0.6287563631069778, -0.1163944960933568, -0.004673331712812428,
        0.553978662650063, -0.5990838306026979, -0.8990681359018868,
        -0.29651771555603357, -0.9446529083140528, 0.3763017815011396,
        0.054075810838168877, -0.19931083140901373, -0.8534524794322671,
        0.40571351000316325, -1.1279591650504408, -0.20430681701128955,
        -0.5542599520693761, 0.10389122139900932, -0.2657867834108058,
        -0.904740616634833, 0.08597142852670864, -0.8917599925764296,
        -1.141303802990285, 0.4426125974942599, -0.503700967534914,
        -0.48274142869072867, -0.27622755564247103, 0.5037204343326644,
        -0.8445485756271116, 0.3693437661802234, 0.25210121387613205,
        0.14165131497069813, 0.15417429431127122, -1.0152121891778723,
        0.7514133868799545, 1.0128325231500643, 0.6059669363794156,
        -0.8496513206650277, 0.4002675811055585, 0.8104007291768163,
        0.14765755905413783, 0.5185081877995261, -1.0244309443579749,
        0.7631544449862107, 0.30868018401783626, 0.02507725790408525,
        -0.13531932004508324, 0.3658256324903061, 0.24151080916743822,
        0.41133715903623974, 0.7311205153822878, -0.2437087697150568,
        0.729625258462223, 0.21119885981316114, 0.06091275385211526,
        -0.6596308441978033, 0.31609098074187764, 0.5168951183434987,
        -0.531138373237653, -0.05076915023914249, 0.6820166460240507,
        -0.3272368388176871, -0.37655401841114, -0.30332815011735154,
        -0.5918740978216865, 0.5565361915440593, 1.0848209801027244,
        0.8493346133552365, 0.5709315949926297, -0.9714778359185127,
        0.16294646567918256, -0.9372512697881327, 0.2726593762590285,
        -0.2812506646454002, -0.40907102575112586, 0.42209934022529366,
        -0.9463099506936155, -1.0786632937879606, 0.8839150977153897,
        0.3868420693327239, 0.7170254026456572, 0.5443333631692732,
        -0.6979839618340434, -0.47827323576082625, 0.3095391679095301,
        -0.9103205975174611, 0.424496529747581, 0.6409432016194557,
        0.10279587383897548, 0.018953007029365518, -0.4690371267062389,
        0.684375924986959, 0.8743232371630538, -0.3842403351668056,
        -0.8270592998435198, -0.26594953464266824, 0.007904492341268145,
        0.09530720672118528, 0.4002981964158702, 0.5350530104029038,
        -0.15679989850702328, 0.08267462802515126, 0.5653776850712753,
        0.18949319550639032, -0.5978526036690345, 0.6178805685609039,
        0.4064672950944935, -0.23639701027485363, -0.258759879995873,
        0.3615095027473527, -0.4247821166898148, 0.3913263415819505,
        0.745200960126866, -0.06773293048002926, -0.02723617215174269,
        -1.004314519200648, -0.6173185092299577, 0.5812965748454537,
        0.49128633705728514, -0.7928321260714549, -0.9594721291025505,
        -0.9570690293174224, -0.5068387310859148, -0.6185348261711531,
        0.49222049860928674, 0.48627655227839456, -0.7862762856698394,
        -0.17212123286657108, -0.23862049538363533, 0.659416359313751,
        -0.57056717680265, -0.22272254156366733, -0.38726686165118873,
        -0.9174230500272786, -0.5831220124187655, 0.04930689541652815,
        0.5290578733866756
      ],
      [
        -0.8411943843679688, -0.4561966270653345, 0.25917440570467115,
        -0.45405139787494225, -0.37509388413662303, -0.8035979980647113,
        1.5295036280931815, -0.5885399634154963, 1.0630001281182502,
        -0.0966736879863807, 0.5987454179564617, -0.08851523559735484,
        -1.1331963038169528, -0.6300625612240668, 0.797933765280224,
        1.5990816558628809, 0.0798883592997989, 0.19374987636231633,
        0.0801427811527376, -0.7522779678023837, -0.028318736252876016,
        1.1262934408096452, -0.4882706799890677, -0.058486159207435315,
        -0.3963343246409556, -0.8908819098576773, -1.2208751791344372,
        -0.21772902811680908, 0.4994109376907933, -0.7271987602560076,
        0.31726529771414425, 0.4130936790556586, -1.4641189119161633,
        -0.8561599386974655, -0.08710291887776722, -0.08316049824253424,
        -0.5167675889156099, 0.28371758913843087, 0.3845068320026009,
        -0.7825296239129793, 0.3713772434238199, 1.5217549803672785,
        -0.04391922851759984, 0.28572946460327026, -0.7125772979296765,
        -0.7530202815338526, -0.7355024886760445, 0.2341568696321672,
        0.03314781493338604, -0.4178633795197014, 1.4692875583066238,
        -1.3549676007959823, -0.08710155556724501, -0.8835718110286909,
        0.20629154356241966, -0.5224514832116335, 0.9881373191360362,
        0.4192730238420354, 0.3329761784341886, -0.4707413650684096,
        -0.8728769933740412, -0.8788735608465496, -0.18270741503103136,
        -1.35698408610338, -0.9468635776473371, -0.7384958371854894,
        -0.10392050305977182, 0.45611298813932133, 0.4127945060298434,
        0.5820550397387235, 0.27206966575449487, 1.1032416631667785,
        -1.4305042912957429, 1.7997961913024088, 1.3065223803199513,
        0.9135375972882754, 0.767539260886576, -0.1117582998432981,
        -1.0595176920903928, 0.18533809173969512, -1.4431793982682215,
        -0.0525033598095661, -0.4462736588943272, -0.7612995774238531,
        -0.16179052848705086, -0.23206730874788659, 0.9513399456124031,
        0.3235879112482979, -1.4447394335833805, 1.607967974334529,
        0.8713584851423393, -1.7304935004282695, 0.30204333097315916,
        0.17860871322710267, -0.6927162776753296, -0.8907994996931001,
        -0.4265645122371838, -0.9348578085728907, -0.12839601531020656,
        0.8815616208956788, 0.397186633462205, -1.3773428272006107,
        -1.2706784344822104, -0.08363778930266928, -0.6253481065247948,
        1.325024110510781, -1.4468924263232001, 0.7416410062466706,
        -0.7478887636623488, -0.3305842002741476, -1.2279920936639355,
        -0.8210516585974101, 0.3679414353036651, -1.2357396648888628,
        -1.343105213675703, -0.21030671654691965, -1.1735828447000114,
        -0.5428864495327086, 0.0028377041858385636, -0.05978211115563511,
        0.29742507599314727, -0.23849192244655018, 0.6690262455711388,
        0.6104925284949524, -0.7969831298391261, 0.24240975799102893,
        0.061429920515572764, 0.11086690722903418, -0.24821721398725985,
        0.9576333477361332, -1.0873099559747286, 0.5428681736996067,
        -0.4368078963242328, -0.4076947756893986, 1.3721992127289486,
        0.2986851789877933, 0.8130563896626195, 0.5333950744447291,
        0.28435460024917375, -0.9022306328186781, -0.8419222342104862,
        0.2506189321866645, -0.7081251880262877, -0.3413189751647117,
        0.9001454605789054, 0.36431077605913126, -0.6338453831514409,
        -0.014412945887617042, -1.1390349933485866, 1.3629699263153447,
        -1.1426966454083523, -0.4341757355697014, -0.6128205538654724,
        0.13323210222981383, -0.7987206657991353, -0.6007550082161576,
        -1.0069143558188185, -1.1159342147450304, -0.21979704205689463,
        1.3050794290821264, -0.1333298665325592, -1.083770226679045,
        -1.403140654255331, 0.033718967462838895, -0.45024495397868636,
        0.8065567324542827, -1.3070382820166182, -0.08458336498909372,
        -0.9348259054860838, -1.0788642920141667, 0.5813709217876895,
        0.5140091971624972, 0.27720690516746016, -0.6483407052517594,
        -0.6423218789552521, 0.8087266794209721, -0.005479452546828211,
        0.22996771973037583, -0.5511967252913765, 0.6884153673008762,
        -0.5795306209861928, -0.8491712382699577, 0.10075716368403591,
        1.1515303728890187, -0.1944348610638664, -1.3945037335329848,
        0.1264938932782327, -0.0038717950625155734, -0.0956314624259951,
        0.9839787497257402, 1.0584373998748042, -0.5971494349947511,
        -1.4943345148422515, 0.12855820702278503, -0.8853757353643319,
        -0.6805140477787133, 0.5900839147628365, -0.8750873717876041,
        -0.36281818762370865, 0.8436249479451305, -0.20581703893927952,
        -0.02046627955737855, -0.4321562296858707, -0.6021010979238718,
        0.15702867387762917, 0.3965262208914253, 0.4731907511812229,
        -0.5723206879002065, -0.9244842565180456, 0.04132805490811709,
        -0.3726627986718822, 0.044170116104802704, -1.9133450714697575,
        0.6816935817656544, -1.0250071201250253, 0.1187392276064107,
        -0.5068945345474798, -0.45934880773801773, 0.18700698011129435,
        -1.8733531230392264, 0.7836626641682733, -0.5095055422865931,
        -0.305095526518648, 0.10920369645704767, -0.4654553248078378,
        -0.23890193132347598, -0.9922437889167275, 1.8245472015935797,
        0.4420373108441708, 0.7027117940127726, -0.7728959137419078,
        -0.7273431074207902, 0.05522999912859047, -0.612174882910404,
        -1.745402666730079, 0.34487579807778834, -0.42201450258324236,
        -1.3673187535706963, 0.07207182289596614, -0.06882804743992987,
        -0.5219411501251263, -0.6173103181982024, 0.7045014126398079,
        -0.09295973875304593, -0.18753468549967983, 1.0888358347876015,
        0.3871832333865735, 0.2057994784521036, -0.7939142222975791,
        0.8606982343852448, -0.5870329775554586, 0.7430598402716259,
        0.6387290196436575, 0.17108079987146615, -0.7139027652304345,
        -0.6158002835499337
      ],
      [
        0.07000958041584951, 0.04812119285619722, -0.6510875731184885,
        0.33808035316038854, 0.14821311608213972, 0.9057617624488083,
        0.18428744119825644, 0.8065458718174424, -0.2738626427144868,
        -0.1750060798013101, -1.144159985068546, 1.067627308711259,
        1.0404164373951401, -0.11901212349488033, -0.32093766602216395,
        1.1220829926288467, -0.5174503872423198, 0.8040393957821796,
        0.2818727490409347, 0.663097364158353, 0.7212724153487845,
        -0.1670650385158796, 0.9847457690581114, 0.9416723493310606,
        1.293062246829519, 0.6277237575638973, 0.3706253020279968,
        0.24556588389112277, 0.30454488525931617, 0.4889839346159836,
        -0.466031163304041, -1.3458720700505138, -0.20576176480251246,
        -0.4378269525285546, 0.8297829364468412, -0.6226190273758573,
        -0.007012282716625463, -0.015043923862516325, -0.24694734068820665,
        0.08302062571840316, 0.26646729954866455, -1.0008978176348637,
        0.039322502896430814, -0.4250454418822715, 0.612479813725484,
        -0.8869413833681271, 0.31355473602962863, 1.1050727025007308,
        -0.33447505672283745, -0.028260926944682435, -0.5461248681508761,
        -1.0426223908906662, 0.8379268912351585, 0.1347071693031038,
        0.8497449606140327, -0.6893159613064145, -0.2563768557101169,
        -0.07115832475677619, 0.35926855154410775, 0.4527215209363799,
        -0.5537161023685985, -0.5854373468219031, -0.2320112005695538,
        -0.06408672834818185, -0.6857398830674771, -0.9927140539550005,
        0.6842675151082712, -0.3088568394562235, 1.5401741024002624,
        -0.013525111150991531, 0.9502256544346912, 1.0913446197983452,
        0.03864607331371509, -0.46173214039593996, -1.0200892311731207,
        0.3769420702673656, 0.8634770085071758, 1.4603903253918216,
        -0.2524132333760316, -0.09080302971198144, -0.1078719589242638,
        1.1966871933039451, -0.2296121983276652, -0.8795500206489475,
        0.3526477550149977, -0.5733872600427847, -0.563811992738119,
        1.059947809843101, -0.5278081301707318, -0.4965241946502415,
        0.40612483812429523, 1.0403314574891052, 1.1062917014420752,
        -0.2995265461153429, -0.031795183473392205, 0.039960989886868754,
        0.7234895038610751, 1.0757566997292303, 1.0385261957308476,
        0.3519656627215284, 0.7171747080050411, -0.8404511536317596,
        1.0029445978342586, 1.2424836313265462, -0.6593918206122216,
        -0.24889142286310917, 0.23688230160016954, 0.1485219225687521,
        -0.8161423539732097, -0.24446241739985936, -0.6974738536680206,
        -0.03728849427708108, -0.4526381639076829, -0.6494252004786685,
        0.5053181187700754, 0.15607563343267475, 0.8695774217459508,
        -0.7000618594532619, -0.6409117574533977, -0.5881115156246411,
        0.7115903663103345, 1.138032543594082, 0.15755575319634477,
        0.37351102485549575, 0.45135483396636367, 0.9254724271781885,
        -0.06681807978596135, -0.04691774287962133, -0.8910384141032729,
        -0.1713484527400659, -0.29921046106040744, -0.7872754702324856,
        0.3581405957656678, 0.5431905545606427, -0.08992782242680174,
        -0.6209906958494514, 0.6176160798974341, 0.27377036978600044,
        -0.43326497601448166, -0.4108396209895695, -0.42016946922817,
        0.45961867313839716, -0.45531614234031864, -1.5876017032754934,
        -0.8471323900761608, -0.7136290471998026, -0.272812588869831,
        0.6776857109184193, 0.5153324980801661, 0.6997588059340263,
        0.8004209485523016, 0.4127453319005632, 0.30665803864808727,
        0.8964453181085872, 1.2282703494096023, -0.7273445986381468,
        0.8038898377979536, -0.27180099990243617, -0.2964296469142611,
        0.20364658945204925, 0.24900016328235935, -0.324874100048863,
        0.17316642323851206, 0.8865631681781879, -0.8378674205053792,
        -1.0789707282048142, -0.6456797149575711, 1.5006546440838717,
        0.2297203967334458, -0.6427348435908045, 0.09425968005457809,
        -0.6665444938601132, 0.5097166493030351, -0.7337490325498024,
        0.19632412737969873, 1.708810722792627, 0.384990771720009,
        0.023370945379714465, -0.38226968118163973, 0.1381899340467991,
        -0.0771091663289612, -0.6883453216871862, 0.18198383326838827,
        -1.046462970864547, 0.7986732755297243, 0.6085834649853271,
        0.3356709325772519, 0.5554476406188039, -0.04328374976157014,
        -0.6656987252678354, -0.2155932883454132, -0.13475681409945864,
        -0.40298968802614277, 1.4718956561969547, 0.3660197542537288,
        -0.07370015437479703, -0.5596169729847449, 0.454430584741308,
        -1.2375826944570947, -0.6702670097226797, 0.9453220945478495,
        1.1134991931904576, 1.0667275625623536, -0.1387400349801093,
        -1.3267185495743798, 0.35220695132505203, 1.178392902962428,
        -0.25884910447844267, 0.18708321268125302, 0.5541860354828462,
        -0.09428187010148906, -0.05136570136007885, 0.025106545475517186,
        -0.1717866276375222, -1.0619264111976447, -0.0032087735056485103,
        -0.030943690883326123, -0.47617246036190164, -0.9563410712096442,
        0.1923576708288267, -0.11373007468254867, -0.24370359392003493,
        -0.704580583644142, 0.18034321662079725, -0.948421570652135,
        -0.43111614271695814, 0.13969127249171953, 0.7723455213098601,
